digraph Tree {
node [shape=box] ;
0 [label="maxz <= 48.42\ngini = 0.24\nsamples = 15115\nvalue = [13159, 657, 266, 152, 109, 78, 55, 44, 42, 34, 21\n28, 22, 14, 16, 16, 8, 14, 9, 21, 16, 8, 14\n12, 6, 9, 8, 6, 7, 2, 5, 6, 3, 4, 4, 5, 5\n6, 4, 2, 5, 1, 1, 6, 5, 2, 4, 2, 1, 3, 2\n4, 3, 5, 2, 4, 4, 2, 2, 3, 2, 2, 2, 3, 2\n3, 1, 1, 1, 2, 2, 1, 1, 1, 1, 1, 2, 1, 2\n2, 1, 2, 3, 1, 2, 1, 1, 3, 2, 3, 1, 1, 1\n1, 1, 1, 1, 1, 2, 1, 1, 1, 1, 1, 1, 2, 2\n1, 2, 1, 1, 1, 1, 2, 1, 1, 1, 1, 1, 1, 1\n1, 1, 1, 1, 1, 1, 1, 2, 1, 2, 3, 1, 2, 1\n1, 1, 2, 1, 1, 1, 1, 1, 1, 2, 1, 1, 1, 1\n1, 1, 1, 1, 1, 1, 1, 1, 1, 1, 1, 1, 1, 1\n1, 1, 1, 1, 1, 1, 1, 1, 1, 1, 1, 1, 1, 1\n1, 1, 1, 1, 1, 1]"] ;
1 [label="maxz <= 43.88\ngini = 0.128\nsamples = 13165\nvalue = [12281, 473, 156, 67, 41, 27, 27, 16, 5, 7, 2, 8\n5, 3, 6, 5, 0, 1, 1, 5, 0, 3, 2, 1, 1, 3\n2, 2, 2, 0, 0, 0, 0, 0, 1, 0, 0, 0, 0, 0\n0, 1, 0, 1, 0, 0, 1, 0, 0, 1, 0, 1, 1, 1\n1, 0, 1, 0, 0, 0, 0, 0, 0, 0, 0, 0, 0, 0\n0, 0, 1, 0, 0, 0, 0, 0, 0, 0, 0, 0, 0, 0\n0, 0, 0, 0, 0, 0, 0, 0, 0, 1, 0, 0, 0, 0\n0, 0, 0, 0, 0, 0, 0, 0, 0, 0, 0, 0, 0, 0\n0, 0, 0, 0, 0, 0, 0, 0, 0, 0, 0, 0, 0, 0\n0, 0, 0, 0, 0, 0, 0, 0, 0, 0, 0, 0, 0, 0\n0, 0, 0, 0, 0, 0, 0, 0, 0, 0, 0, 0, 0, 0\n0, 1, 0, 0, 0, 0, 0, 0, 0, 0, 0, 0, 0, 0\n0, 0, 0, 0, 0, 0, 0, 0, 0, 0, 0, 0, 0, 0\n0, 0, 0]"] ;
0 -> 1 [labeldistance=2.5, labelangle=45, headlabel="True"] ;
2 [label="maxz <= 32.195\ngini = 0.087\nsamples = 10853\nvalue = [10368, 277, 88, 37, 16, 8, 14, 8, 4, 4, 1, 2\n2, 1, 1, 1, 0, 0, 1, 3, 0, 1, 2, 0, 1, 1\n2, 1, 1, 0, 0, 0, 0, 0, 1, 0, 0, 0, 0, 0\n0, 0, 0, 0, 0, 0, 1, 0, 0, 0, 0, 1, 1, 1\n1, 0, 0, 0, 0, 0, 0, 0, 0, 0, 0, 0, 0, 0\n0, 0, 1, 0, 0, 0, 0, 0, 0, 0, 0, 0, 0, 0\n0, 0, 0, 0, 0, 0, 0, 0, 0, 1, 0, 0, 0, 0\n0, 0, 0, 0, 0, 0, 0, 0, 0, 0, 0, 0, 0, 0\n0, 0, 0, 0, 0, 0, 0, 0, 0, 0, 0, 0, 0, 0\n0, 0, 0, 0, 0, 0, 0, 0, 0, 0, 0, 0, 0, 0\n0, 0, 0, 0, 0, 0, 0, 0, 0, 0, 0, 0, 0, 0\n0, 0, 0, 0, 0, 0, 0, 0, 0, 0, 0, 0, 0, 0\n0, 0, 0, 0, 0, 0, 0, 0, 0, 0, 0, 0, 0, 0\n0, 0, 0]"] ;
1 -> 2 ;
3 [label="gini = 0.042\nsamples = 4824\nvalue = [4721, 64, 16, 6, 1, 3, 3, 1, 1, 0, 0, 0, 2\n0, 0, 0, 0, 0, 0, 0, 0, 0, 1, 0, 1, 0, 1\n0, 0, 0, 0, 0, 0, 0, 1, 0, 0, 0, 0, 0, 0\n0, 0, 0, 0, 0, 0, 0, 0, 0, 0, 1, 1, 0, 0\n0, 0, 0, 0, 0, 0, 0, 0, 0, 0, 0, 0, 0, 0\n0, 0, 0, 0, 0, 0, 0, 0, 0, 0, 0, 0, 0, 0\n0, 0, 0, 0, 0, 0, 0, 0, 0, 0, 0, 0, 0, 0\n0, 0, 0, 0, 0, 0, 0, 0, 0, 0, 0, 0, 0, 0\n0, 0, 0, 0, 0, 0, 0, 0, 0, 0, 0, 0, 0, 0\n0, 0, 0, 0, 0, 0, 0, 0, 0, 0, 0, 0, 0, 0\n0, 0, 0, 0, 0, 0, 0, 0, 0, 0, 0, 0, 0, 0\n0, 0, 0, 0, 0, 0, 0, 0, 0, 0, 0, 0, 0, 0\n0, 0, 0, 0, 0, 0, 0, 0, 0, 0, 0, 0, 0, 0\n0, 0]"] ;
2 -> 3 ;
4 [label="gini = 0.121\nsamples = 6029\nvalue = [5647, 213, 72, 31, 15, 5, 11, 7, 3, 4, 1, 2, 0\n1, 1, 1, 0, 0, 1, 3, 0, 1, 1, 0, 0, 1, 1\n1, 1, 0, 0, 0, 0, 0, 0, 0, 0, 0, 0, 0, 0\n0, 0, 0, 0, 0, 1, 0, 0, 0, 0, 0, 0, 1, 1\n0, 0, 0, 0, 0, 0, 0, 0, 0, 0, 0, 0, 0, 0\n0, 1, 0, 0, 0, 0, 0, 0, 0, 0, 0, 0, 0, 0\n0, 0, 0, 0, 0, 0, 0, 0, 1, 0, 0, 0, 0, 0\n0, 0, 0, 0, 0, 0, 0, 0, 0, 0, 0, 0, 0, 0\n0, 0, 0, 0, 0, 0, 0, 0, 0, 0, 0, 0, 0, 0\n0, 0, 0, 0, 0, 0, 0, 0, 0, 0, 0, 0, 0, 0\n0, 0, 0, 0, 0, 0, 0, 0, 0, 0, 0, 0, 0, 0\n0, 0, 0, 0, 0, 0, 0, 0, 0, 0, 0, 0, 0, 0\n0, 0, 0, 0, 0, 0, 0, 0, 0, 0, 0, 0, 0, 0\n0, 0]"] ;
2 -> 4 ;
5 [label="maxz <= 46.725\ngini = 0.307\nsamples = 2312\nvalue = [1913, 196, 68, 30, 25, 19, 13, 8, 1, 3, 1, 6\n3, 2, 5, 4, 0, 1, 0, 2, 0, 2, 0, 1, 0, 2\n0, 1, 1, 0, 0, 0, 0, 0, 0, 0, 0, 0, 0, 0\n0, 1, 0, 1, 0, 0, 0, 0, 0, 1, 0, 0, 0, 0\n0, 0, 1, 0, 0, 0, 0, 0, 0, 0, 0, 0, 0, 0\n0, 0, 0, 0, 0, 0, 0, 0, 0, 0, 0, 0, 0, 0\n0, 0, 0, 0, 0, 0, 0, 0, 0, 0, 0, 0, 0, 0\n0, 0, 0, 0, 0, 0, 0, 0, 0, 0, 0, 0, 0, 0\n0, 0, 0, 0, 0, 0, 0, 0, 0, 0, 0, 0, 0, 0\n0, 0, 0, 0, 0, 0, 0, 0, 0, 0, 0, 0, 0, 0\n0, 0, 0, 0, 0, 0, 0, 0, 0, 0, 0, 0, 0, 0\n0, 1, 0, 0, 0, 0, 0, 0, 0, 0, 0, 0, 0, 0\n0, 0, 0, 0, 0, 0, 0, 0, 0, 0, 0, 0, 0, 0\n0, 0, 0]"] ;
1 -> 5 ;
6 [label="gini = 0.247\nsamples = 1465\nvalue = [1266, 104, 36, 16, 10, 11, 3, 4, 1, 1, 1, 1, 2\n0, 3, 1, 0, 1, 0, 1, 0, 0, 0, 1, 0, 1, 0\n0, 0, 0, 0, 0, 0, 0, 0, 0, 0, 0, 0, 0, 0\n0, 0, 0, 0, 0, 0, 0, 0, 0, 0, 0, 0, 0, 0\n0, 0, 0, 0, 0, 0, 0, 0, 0, 0, 0, 0, 0, 0\n0, 0, 0, 0, 0, 0, 0, 0, 0, 0, 0, 0, 0, 0\n0, 0, 0, 0, 0, 0, 0, 0, 0, 0, 0, 0, 0, 0\n0, 0, 0, 0, 0, 0, 0, 0, 0, 0, 0, 0, 0, 0\n0, 0, 0, 0, 0, 0, 0, 0, 0, 0, 0, 0, 0, 0\n0, 0, 0, 0, 0, 0, 0, 0, 0, 0, 0, 0, 0, 0\n0, 0, 0, 0, 0, 0, 0, 0, 0, 0, 0, 0, 0, 0\n1, 0, 0, 0, 0, 0, 0, 0, 0, 0, 0, 0, 0, 0\n0, 0, 0, 0, 0, 0, 0, 0, 0, 0, 0, 0, 0, 0\n0, 0]"] ;
5 -> 6 ;
7 [label="gini = 0.402\nsamples = 847\nvalue = [647, 92, 32, 14, 15, 8, 10, 4, 0, 2, 0, 5, 1\n2, 2, 3, 0, 0, 0, 1, 0, 2, 0, 0, 0, 1, 0\n1, 1, 0, 0, 0, 0, 0, 0, 0, 0, 0, 0, 0, 0\n1, 0, 1, 0, 0, 0, 0, 0, 1, 0, 0, 0, 0, 0\n0, 1, 0, 0, 0, 0, 0, 0, 0, 0, 0, 0, 0, 0\n0, 0, 0, 0, 0, 0, 0, 0, 0, 0, 0, 0, 0, 0\n0, 0, 0, 0, 0, 0, 0, 0, 0, 0, 0, 0, 0, 0\n0, 0, 0, 0, 0, 0, 0, 0, 0, 0, 0, 0, 0, 0\n0, 0, 0, 0, 0, 0, 0, 0, 0, 0, 0, 0, 0, 0\n0, 0, 0, 0, 0, 0, 0, 0, 0, 0, 0, 0, 0, 0\n0, 0, 0, 0, 0, 0, 0, 0, 0, 0, 0, 0, 0, 0\n0, 0, 0, 0, 0, 0, 0, 0, 0, 0, 0, 0, 0, 0\n0, 0, 0, 0, 0, 0, 0, 0, 0, 0, 0, 0, 0, 0\n0, 0]"] ;
5 -> 7 ;
8 [label="maxz <= 50.71\ngini = 0.78\nsamples = 1950\nvalue = [878, 184, 110, 85, 68, 51, 28, 28, 37, 27, 19\n20, 17, 11, 10, 11, 8, 13, 8, 16, 16, 5, 12\n11, 5, 6, 6, 4, 5, 2, 5, 6, 3, 4, 3, 5, 5\n6, 4, 2, 5, 0, 1, 5, 5, 2, 3, 2, 1, 2, 2\n3, 2, 4, 1, 4, 3, 2, 2, 3, 2, 2, 2, 3, 2\n3, 1, 1, 1, 2, 1, 1, 1, 1, 1, 1, 2, 1, 2\n2, 1, 2, 3, 1, 2, 1, 1, 3, 2, 3, 1, 0, 1\n1, 1, 1, 1, 1, 2, 1, 1, 1, 1, 1, 1, 2, 2\n1, 2, 1, 1, 1, 1, 2, 1, 1, 1, 1, 1, 1, 1\n1, 1, 1, 1, 1, 1, 1, 2, 1, 2, 3, 1, 2, 1\n1, 1, 2, 1, 1, 1, 1, 1, 1, 2, 1, 1, 1, 1\n1, 1, 1, 1, 0, 1, 1, 1, 1, 1, 1, 1, 1, 1\n1, 1, 1, 1, 1, 1, 1, 1, 1, 1, 1, 1, 1, 1\n1, 1, 1, 1, 1, 1]"] ;
0 -> 8 [labeldistance=2.5, labelangle=-45, headlabel="False"] ;
9 [label="maxz <= 49.29\ngini = 0.621\nsamples = 917\nvalue = [549, 105, 52, 41, 33, 17, 12, 14, 10, 7, 3, 7\n3, 3, 6, 1, 2, 3, 3, 3, 3, 2, 2, 1, 1, 0\n2, 0, 0, 1, 2, 1, 3, 3, 1, 1, 1, 0, 2, 1\n0, 0, 0, 1, 1, 1, 2, 1, 0, 0, 2, 0, 0, 1\n0, 1, 0, 0, 0, 0, 0, 1, 0, 0, 0, 0, 0, 0\n0, 0, 1, 0, 0, 0, 0, 0, 0, 0, 0, 0, 1, 1\n0, 0, 0, 0, 0, 1, 0, 0, 0, 0, 0, 0, 0, 0\n0, 0, 0, 0, 0, 0, 0, 0, 0, 0, 0, 0, 0, 0\n0, 0, 0, 0, 0, 0, 0, 0, 0, 1, 0, 0, 0, 0\n0, 0, 0, 0, 0, 0, 0, 0, 0, 0, 0, 0, 0, 0\n0, 0, 0, 0, 0, 0, 0, 0, 0, 0, 0, 0, 0, 0\n0, 0, 0, 0, 0, 0, 0, 0, 0, 0, 0, 0, 0, 0\n0, 0, 0, 0, 0, 0, 0, 0, 0, 0, 0, 0, 0, 0\n0, 0, 0]"] ;
8 -> 9 ;
10 [label="gini = 0.539\nsamples = 370\nvalue = [246, 41, 22, 14, 12, 5, 5, 5, 2, 3, 2, 3, 0\n0, 1, 0, 0, 0, 1, 1, 1, 1, 0, 0, 0, 0, 0\n0, 0, 1, 0, 0, 1, 2, 0, 0, 0, 0, 0, 0, 0\n0, 0, 0, 0, 1, 0, 0, 0, 0, 0, 0, 0, 0, 0\n0, 0, 0, 0, 0, 0, 0, 0, 0, 0, 0, 0, 0, 0\n0, 0, 0, 0, 0, 0, 0, 0, 0, 0, 0, 0, 0, 0\n0, 0, 0, 0, 0, 0, 0, 0, 0, 0, 0, 0, 0, 0\n0, 0, 0, 0, 0, 0, 0, 0, 0, 0, 0, 0, 0, 0\n0, 0, 0, 0, 0, 0, 0, 0, 0, 0, 0, 0, 0, 0\n0, 0, 0, 0, 0, 0, 0, 0, 0, 0, 0, 0, 0, 0\n0, 0, 0, 0, 0, 0, 0, 0, 0, 0, 0, 0, 0, 0\n0, 0, 0, 0, 0, 0, 0, 0, 0, 0, 0, 0, 0, 0\n0, 0, 0, 0, 0, 0, 0, 0, 0, 0, 0, 0, 0, 0\n0, 0]"] ;
9 -> 10 ;
11 [label="gini = 0.671\nsamples = 547\nvalue = [303, 64, 30, 27, 21, 12, 7, 9, 8, 4, 1, 4, 3\n3, 5, 1, 2, 3, 2, 2, 2, 1, 2, 1, 1, 0, 2\n0, 0, 0, 2, 1, 2, 1, 1, 1, 1, 0, 2, 1, 0\n0, 0, 1, 1, 0, 2, 1, 0, 0, 2, 0, 0, 1, 0\n1, 0, 0, 0, 0, 0, 1, 0, 0, 0, 0, 0, 0, 0\n0, 1, 0, 0, 0, 0, 0, 0, 0, 0, 0, 1, 1, 0\n0, 0, 0, 0, 1, 0, 0, 0, 0, 0, 0, 0, 0, 0\n0, 0, 0, 0, 0, 0, 0, 0, 0, 0, 0, 0, 0, 0\n0, 0, 0, 0, 0, 0, 0, 0, 1, 0, 0, 0, 0, 0\n0, 0, 0, 0, 0, 0, 0, 0, 0, 0, 0, 0, 0, 0\n0, 0, 0, 0, 0, 0, 0, 0, 0, 0, 0, 0, 0, 0\n0, 0, 0, 0, 0, 0, 0, 0, 0, 0, 0, 0, 0, 0\n0, 0, 0, 0, 0, 0, 0, 0, 0, 0, 0, 0, 0, 0\n0, 0]"] ;
9 -> 11 ;
12 [label="maxz <= 57.35\ngini = 0.882\nsamples = 1033\nvalue = [329, 79, 58, 44, 35, 34, 16, 14, 27, 20, 16, 13\n14, 8, 4, 10, 6, 10, 5, 13, 13, 3, 10, 10, 4\n6, 4, 4, 5, 1, 3, 5, 0, 1, 2, 4, 4, 6, 2\n1, 5, 0, 1, 4, 4, 1, 1, 1, 1, 2, 0, 3, 2\n3, 1, 3, 3, 2, 2, 3, 2, 1, 2, 3, 2, 3, 1\n1, 1, 2, 0, 1, 1, 1, 1, 1, 2, 1, 2, 2, 0\n1, 3, 1, 2, 1, 1, 2, 2, 3, 1, 0, 1, 1, 1\n1, 1, 1, 2, 1, 1, 1, 1, 1, 1, 2, 2, 1, 2\n1, 1, 1, 1, 2, 1, 1, 1, 1, 1, 0, 1, 1, 1\n1, 1, 1, 1, 1, 2, 1, 2, 3, 1, 2, 1, 1, 1\n2, 1, 1, 1, 1, 1, 1, 2, 1, 1, 1, 1, 1, 1\n1, 1, 0, 1, 1, 1, 1, 1, 1, 1, 1, 1, 1, 1\n1, 1, 1, 1, 1, 1, 1, 1, 1, 1, 1, 1, 1, 1\n1, 1, 1, 1]"] ;
8 -> 12 ;
13 [label="gini = 0.896\nsamples = 995\nvalue = [292, 79, 58, 44, 35, 34, 16, 14, 27, 20, 16, 13\n14, 8, 4, 10, 6, 10, 5, 13, 13, 3, 10, 10, 4\n6, 4, 4, 5, 1, 3, 5, 0, 1, 2, 4, 4, 6, 2\n1, 5, 0, 1, 4, 4, 1, 1, 1, 1, 2, 0, 3, 2\n3, 1, 3, 3, 2, 2, 3, 1, 1, 2, 3, 2, 3, 1\n1, 1, 2, 0, 1, 1, 1, 1, 1, 2, 1, 2, 2, 0\n1, 3, 1, 2, 1, 1, 2, 2, 3, 1, 0, 1, 1, 1\n1, 1, 1, 2, 1, 1, 1, 1, 1, 1, 2, 2, 1, 2\n1, 1, 1, 1, 2, 1, 1, 1, 1, 1, 0, 1, 1, 1\n1, 1, 1, 1, 1, 2, 1, 2, 3, 1, 2, 1, 1, 1\n2, 1, 1, 1, 1, 1, 1, 2, 1, 1, 1, 1, 1, 1\n1, 1, 0, 1, 1, 1, 1, 1, 1, 1, 1, 1, 1, 1\n1, 1, 1, 1, 1, 1, 1, 1, 1, 1, 1, 1, 1, 1\n1, 1, 1, 1]"] ;
12 -> 13 ;
14 [label="gini = 0.051\nsamples = 38\nvalue = [37, 0, 0, 0, 0, 0, 0, 0, 0, 0, 0, 0, 0, 0\n0, 0, 0, 0, 0, 0, 0, 0, 0, 0, 0, 0, 0, 0\n0, 0, 0, 0, 0, 0, 0, 0, 0, 0, 0, 0, 0, 0\n0, 0, 0, 0, 0, 0, 0, 0, 0, 0, 0, 0, 0, 0\n0, 0, 0, 0, 1, 0, 0, 0, 0, 0, 0, 0, 0, 0\n0, 0, 0, 0, 0, 0, 0, 0, 0, 0, 0, 0, 0, 0\n0, 0, 0, 0, 0, 0, 0, 0, 0, 0, 0, 0, 0, 0\n0, 0, 0, 0, 0, 0, 0, 0, 0, 0, 0, 0, 0, 0\n0, 0, 0, 0, 0, 0, 0, 0, 0, 0, 0, 0, 0, 0\n0, 0, 0, 0, 0, 0, 0, 0, 0, 0, 0, 0, 0, 0\n0, 0, 0, 0, 0, 0, 0, 0, 0, 0, 0, 0, 0, 0\n0, 0, 0, 0, 0, 0, 0, 0, 0, 0, 0, 0, 0, 0\n0, 0, 0, 0, 0, 0, 0, 0, 0, 0, 0, 0, 0, 0\n0]"] ;
12 -> 14 ;
}