digraph Tree {
node [shape=box] ;
0 [label="ttvil <= 108.59\ngini = 0.5\nsamples = 1600\nvalue = [806, 794]\nclass = com raios"] ;
1 [label="ttvil <= 21.545\ngini = 0.342\nsamples = 900\nvalue = [703, 197]\nclass = com raios"] ;
0 -> 1 [labeldistance=2.5, labelangle=45, headlabel="True"] ;
2 [label="ttvil <= 8.425\ngini = 0.18\nsamples = 461\nvalue = [415, 46]\nclass = com raios"] ;
1 -> 2 ;
3 [label="meanvil <= 0.375\ngini = 0.052\nsamples = 189\nvalue = [184, 5]\nclass = com raios"] ;
2 -> 3 ;
4 [label="meanvil <= 0.215\ngini = 0.015\nsamples = 130\nvalue = [129, 1]\nclass = com raios"] ;
3 -> 4 ;
5 [label="meanz <= 21.87\ngini = 0.142\nsamples = 13\nvalue = [12, 1]\nclass = com raios"] ;
4 -> 5 ;
6 [label="gini = 0.0\nsamples = 11\nvalue = [11, 0]\nclass = com raios"] ;
5 -> 6 ;
7 [label="strafrac <= 93.335\ngini = 0.5\nsamples = 2\nvalue = [1, 1]\nclass = com raios"] ;
5 -> 7 ;
8 [label="gini = 0.0\nsamples = 1\nvalue = [0, 1]\nclass = sem raios"] ;
7 -> 8 ;
9 [label="gini = 0.0\nsamples = 1\nvalue = [1, 0]\nclass = com raios"] ;
7 -> 9 ;
10 [label="gini = 0.0\nsamples = 117\nvalue = [117, 0]\nclass = com raios"] ;
4 -> 10 ;
11 [label="meanvil <= 0.405\ngini = 0.126\nsamples = 59\nvalue = [55, 4]\nclass = com raios"] ;
3 -> 11 ;
12 [label="meanvil <= 0.395\ngini = 0.375\nsamples = 12\nvalue = [9, 3]\nclass = com raios"] ;
11 -> 12 ;
13 [label="convfrac <= 66.805\ngini = 0.18\nsamples = 10\nvalue = [9, 1]\nclass = com raios"] ;
12 -> 13 ;
14 [label="gini = 0.0\nsamples = 8\nvalue = [8, 0]\nclass = com raios"] ;
13 -> 14 ;
15 [label="meanvil <= 0.385\ngini = 0.5\nsamples = 2\nvalue = [1, 1]\nclass = com raios"] ;
13 -> 15 ;
16 [label="gini = 0.0\nsamples = 1\nvalue = [0, 1]\nclass = sem raios"] ;
15 -> 16 ;
17 [label="gini = 0.0\nsamples = 1\nvalue = [1, 0]\nclass = com raios"] ;
15 -> 17 ;
18 [label="gini = 0.0\nsamples = 2\nvalue = [0, 2]\nclass = sem raios"] ;
12 -> 18 ;
19 [label="ttvil <= 7.76\ngini = 0.042\nsamples = 47\nvalue = [46, 1]\nclass = com raios"] ;
11 -> 19 ;
20 [label="gini = 0.0\nsamples = 38\nvalue = [38, 0]\nclass = com raios"] ;
19 -> 20 ;
21 [label="maxz <= 30.735\ngini = 0.198\nsamples = 9\nvalue = [8, 1]\nclass = com raios"] ;
19 -> 21 ;
22 [label="gini = 0.0\nsamples = 1\nvalue = [0, 1]\nclass = sem raios"] ;
21 -> 22 ;
23 [label="gini = 0.0\nsamples = 8\nvalue = [8, 0]\nclass = com raios"] ;
21 -> 23 ;
24 [label="meanvil <= 1.34\ngini = 0.256\nsamples = 272\nvalue = [231, 41]\nclass = com raios"] ;
2 -> 24 ;
25 [label="ttvil <= 8.695\ngini = 0.24\nsamples = 265\nvalue = [228, 37]\nclass = com raios"] ;
24 -> 25 ;
26 [label="meanvil <= 0.33\ngini = 0.494\nsamples = 9\nvalue = [5, 4]\nclass = com raios"] ;
25 -> 26 ;
27 [label="gini = 0.0\nsamples = 3\nvalue = [3, 0]\nclass = com raios"] ;
26 -> 27 ;
28 [label="meanz <= 25.49\ngini = 0.444\nsamples = 6\nvalue = [2, 4]\nclass = sem raios"] ;
26 -> 28 ;
29 [label="gini = 0.0\nsamples = 3\nvalue = [0, 3]\nclass = sem raios"] ;
28 -> 29 ;
30 [label="strafrac <= 6.665\ngini = 0.444\nsamples = 3\nvalue = [2, 1]\nclass = com raios"] ;
28 -> 30 ;
31 [label="gini = 0.0\nsamples = 1\nvalue = [0, 1]\nclass = sem raios"] ;
30 -> 31 ;
32 [label="gini = 0.0\nsamples = 2\nvalue = [2, 0]\nclass = com raios"] ;
30 -> 32 ;
33 [label="meanprec <= 2.235\ngini = 0.225\nsamples = 256\nvalue = [223, 33]\nclass = com raios"] ;
25 -> 33 ;
34 [label="meanvil <= 0.295\ngini = 0.312\nsamples = 93\nvalue = [75, 18]\nclass = com raios"] ;
33 -> 34 ;
35 [label="maxprec <= 6.27\ngini = 0.062\nsamples = 31\nvalue = [30, 1]\nclass = com raios"] ;
34 -> 35 ;
36 [label="gini = 0.0\nsamples = 28\nvalue = [28, 0]\nclass = com raios"] ;
35 -> 36 ;
37 [label="meanz <= 23.975\ngini = 0.444\nsamples = 3\nvalue = [2, 1]\nclass = com raios"] ;
35 -> 37 ;
38 [label="gini = 0.0\nsamples = 1\nvalue = [0, 1]\nclass = sem raios"] ;
37 -> 38 ;
39 [label="gini = 0.0\nsamples = 2\nvalue = [2, 0]\nclass = com raios"] ;
37 -> 39 ;
40 [label="strafrac <= 75.685\ngini = 0.398\nsamples = 62\nvalue = [45, 17]\nclass = com raios"] ;
34 -> 40 ;
41 [label="maxprec <= 4.705\ngini = 0.291\nsamples = 34\nvalue = [28, 6]\nclass = com raios"] ;
40 -> 41 ;
42 [label="meanprec <= 2.035\ngini = 0.432\nsamples = 19\nvalue = [13, 6]\nclass = com raios"] ;
41 -> 42 ;
43 [label="maxprec <= 4.01\ngini = 0.36\nsamples = 17\nvalue = [13, 4]\nclass = com raios"] ;
42 -> 43 ;
44 [label="maxz <= 26.49\ngini = 0.245\nsamples = 14\nvalue = [12, 2]\nclass = com raios"] ;
43 -> 44 ;
45 [label="strafrac <= 38.42\ngini = 0.444\nsamples = 6\nvalue = [4, 2]\nclass = com raios"] ;
44 -> 45 ;
46 [label="gini = 0.0\nsamples = 3\nvalue = [3, 0]\nclass = com raios"] ;
45 -> 46 ;
47 [label="strafrac <= 60.35\ngini = 0.444\nsamples = 3\nvalue = [1, 2]\nclass = sem raios"] ;
45 -> 47 ;
48 [label="gini = 0.0\nsamples = 2\nvalue = [0, 2]\nclass = sem raios"] ;
47 -> 48 ;
49 [label="gini = 0.0\nsamples = 1\nvalue = [1, 0]\nclass = com raios"] ;
47 -> 49 ;
50 [label="gini = 0.0\nsamples = 8\nvalue = [8, 0]\nclass = com raios"] ;
44 -> 50 ;
51 [label="meanprec <= 1.96\ngini = 0.444\nsamples = 3\nvalue = [1, 2]\nclass = sem raios"] ;
43 -> 51 ;
52 [label="gini = 0.0\nsamples = 2\nvalue = [0, 2]\nclass = sem raios"] ;
51 -> 52 ;
53 [label="gini = 0.0\nsamples = 1\nvalue = [1, 0]\nclass = com raios"] ;
51 -> 53 ;
54 [label="gini = 0.0\nsamples = 2\nvalue = [0, 2]\nclass = sem raios"] ;
42 -> 54 ;
55 [label="gini = 0.0\nsamples = 15\nvalue = [15, 0]\nclass = com raios"] ;
41 -> 55 ;
56 [label="ttvil <= 12.78\ngini = 0.477\nsamples = 28\nvalue = [17, 11]\nclass = com raios"] ;
40 -> 56 ;
57 [label="convfrac <= 23.66\ngini = 0.245\nsamples = 14\nvalue = [12, 2]\nclass = com raios"] ;
56 -> 57 ;
58 [label="ttvil <= 9.675\ngini = 0.142\nsamples = 13\nvalue = [12, 1]\nclass = com raios"] ;
57 -> 58 ;
59 [label="maxprec <= 3.775\ngini = 0.5\nsamples = 2\nvalue = [1, 1]\nclass = com raios"] ;
58 -> 59 ;
60 [label="gini = 0.0\nsamples = 1\nvalue = [1, 0]\nclass = com raios"] ;
59 -> 60 ;
61 [label="gini = 0.0\nsamples = 1\nvalue = [0, 1]\nclass = sem raios"] ;
59 -> 61 ;
62 [label="gini = 0.0\nsamples = 11\nvalue = [11, 0]\nclass = com raios"] ;
58 -> 62 ;
63 [label="gini = 0.0\nsamples = 1\nvalue = [0, 1]\nclass = sem raios"] ;
57 -> 63 ;
64 [label="meanvil <= 0.505\ngini = 0.459\nsamples = 14\nvalue = [5, 9]\nclass = sem raios"] ;
56 -> 64 ;
65 [label="gini = 0.0\nsamples = 7\nvalue = [0, 7]\nclass = sem raios"] ;
64 -> 65 ;
66 [label="convfrac <= 14.09\ngini = 0.408\nsamples = 7\nvalue = [5, 2]\nclass = com raios"] ;
64 -> 66 ;
67 [label="gini = 0.0\nsamples = 3\nvalue = [3, 0]\nclass = com raios"] ;
66 -> 67 ;
68 [label="convfrac <= 14.835\ngini = 0.5\nsamples = 4\nvalue = [2, 2]\nclass = com raios"] ;
66 -> 68 ;
69 [label="gini = 0.0\nsamples = 1\nvalue = [0, 1]\nclass = sem raios"] ;
68 -> 69 ;
70 [label="riverfrac <= 3.845\ngini = 0.444\nsamples = 3\nvalue = [2, 1]\nclass = com raios"] ;
68 -> 70 ;
71 [label="gini = 0.0\nsamples = 2\nvalue = [2, 0]\nclass = com raios"] ;
70 -> 71 ;
72 [label="gini = 0.0\nsamples = 1\nvalue = [0, 1]\nclass = sem raios"] ;
70 -> 72 ;
73 [label="riverfrac <= 92.19\ngini = 0.167\nsamples = 163\nvalue = [148, 15]\nclass = com raios"] ;
33 -> 73 ;
74 [label="meanprec <= 3.47\ngini = 0.158\nsamples = 162\nvalue = [148, 14]\nclass = com raios"] ;
73 -> 74 ;
75 [label="meanvil <= 0.435\ngini = 0.071\nsamples = 81\nvalue = [78, 3]\nclass = com raios"] ;
74 -> 75 ;
76 [label="ttvil <= 13.125\ngini = 0.211\nsamples = 25\nvalue = [22, 3]\nclass = com raios"] ;
75 -> 76 ;
77 [label="ttvil <= 12.38\ngini = 0.397\nsamples = 11\nvalue = [8, 3]\nclass = com raios"] ;
76 -> 77 ;
78 [label="meanvil <= 0.405\ngini = 0.32\nsamples = 10\nvalue = [8, 2]\nclass = com raios"] ;
77 -> 78 ;
79 [label="gini = 0.0\nsamples = 6\nvalue = [6, 0]\nclass = com raios"] ;
78 -> 79 ;
80 [label="maxprec <= 7.545\ngini = 0.5\nsamples = 4\nvalue = [2, 2]\nclass = com raios"] ;
78 -> 80 ;
81 [label="gini = 0.0\nsamples = 2\nvalue = [2, 0]\nclass = com raios"] ;
80 -> 81 ;
82 [label="gini = 0.0\nsamples = 2\nvalue = [0, 2]\nclass = sem raios"] ;
80 -> 82 ;
83 [label="gini = 0.0\nsamples = 1\nvalue = [0, 1]\nclass = sem raios"] ;
77 -> 83 ;
84 [label="gini = 0.0\nsamples = 14\nvalue = [14, 0]\nclass = com raios"] ;
76 -> 84 ;
85 [label="gini = 0.0\nsamples = 56\nvalue = [56, 0]\nclass = com raios"] ;
75 -> 85 ;
86 [label="meanprec <= 3.55\ngini = 0.235\nsamples = 81\nvalue = [70, 11]\nclass = com raios"] ;
74 -> 86 ;
87 [label="meanvil <= 0.575\ngini = 0.49\nsamples = 7\nvalue = [3, 4]\nclass = sem raios"] ;
86 -> 87 ;
88 [label="gini = 0.0\nsamples = 3\nvalue = [0, 3]\nclass = sem raios"] ;
87 -> 88 ;
89 [label="meanvil <= 0.64\ngini = 0.375\nsamples = 4\nvalue = [3, 1]\nclass = com raios"] ;
87 -> 89 ;
90 [label="gini = 0.0\nsamples = 3\nvalue = [3, 0]\nclass = com raios"] ;
89 -> 90 ;
91 [label="gini = 0.0\nsamples = 1\nvalue = [0, 1]\nclass = sem raios"] ;
89 -> 91 ;
92 [label="meanvil <= 0.725\ngini = 0.171\nsamples = 74\nvalue = [67, 7]\nclass = com raios"] ;
86 -> 92 ;
93 [label="ttvil <= 9.32\ngini = 0.272\nsamples = 37\nvalue = [31, 6]\nclass = com raios"] ;
92 -> 93 ;
94 [label="gini = 0.0\nsamples = 1\nvalue = [0, 1]\nclass = sem raios"] ;
93 -> 94 ;
95 [label="riverfrac <= 2.78\ngini = 0.239\nsamples = 36\nvalue = [31, 5]\nclass = com raios"] ;
93 -> 95 ;
96 [label="ttvil <= 17.03\ngini = 0.095\nsamples = 20\nvalue = [19, 1]\nclass = com raios"] ;
95 -> 96 ;
97 [label="gini = 0.0\nsamples = 16\nvalue = [16, 0]\nclass = com raios"] ;
96 -> 97 ;
98 [label="ttvil <= 17.465\ngini = 0.375\nsamples = 4\nvalue = [3, 1]\nclass = com raios"] ;
96 -> 98 ;
99 [label="gini = 0.0\nsamples = 1\nvalue = [0, 1]\nclass = sem raios"] ;
98 -> 99 ;
100 [label="gini = 0.0\nsamples = 3\nvalue = [3, 0]\nclass = com raios"] ;
98 -> 100 ;
101 [label="meanvil <= 0.685\ngini = 0.375\nsamples = 16\nvalue = [12, 4]\nclass = com raios"] ;
95 -> 101 ;
102 [label="meanprec <= 3.745\ngini = 0.153\nsamples = 12\nvalue = [11, 1]\nclass = com raios"] ;
101 -> 102 ;
103 [label="riverfrac <= 45.75\ngini = 0.444\nsamples = 3\nvalue = [2, 1]\nclass = com raios"] ;
102 -> 103 ;
104 [label="gini = 0.0\nsamples = 1\nvalue = [0, 1]\nclass = sem raios"] ;
103 -> 104 ;
105 [label="gini = 0.0\nsamples = 2\nvalue = [2, 0]\nclass = com raios"] ;
103 -> 105 ;
106 [label="gini = 0.0\nsamples = 9\nvalue = [9, 0]\nclass = com raios"] ;
102 -> 106 ;
107 [label="maxprec <= 22.52\ngini = 0.375\nsamples = 4\nvalue = [1, 3]\nclass = sem raios"] ;
101 -> 107 ;
108 [label="gini = 0.0\nsamples = 3\nvalue = [0, 3]\nclass = sem raios"] ;
107 -> 108 ;
109 [label="gini = 0.0\nsamples = 1\nvalue = [1, 0]\nclass = com raios"] ;
107 -> 109 ;
110 [label="riverfrac <= 17.69\ngini = 0.053\nsamples = 37\nvalue = [36, 1]\nclass = com raios"] ;
92 -> 110 ;
111 [label="gini = 0.0\nsamples = 30\nvalue = [30, 0]\nclass = com raios"] ;
110 -> 111 ;
112 [label="riverfrac <= 27.5\ngini = 0.245\nsamples = 7\nvalue = [6, 1]\nclass = com raios"] ;
110 -> 112 ;
113 [label="gini = 0.0\nsamples = 1\nvalue = [0, 1]\nclass = sem raios"] ;
112 -> 113 ;
114 [label="gini = 0.0\nsamples = 6\nvalue = [6, 0]\nclass = com raios"] ;
112 -> 114 ;
115 [label="gini = 0.0\nsamples = 1\nvalue = [0, 1]\nclass = sem raios"] ;
73 -> 115 ;
116 [label="ttvil <= 20.735\ngini = 0.49\nsamples = 7\nvalue = [3, 4]\nclass = sem raios"] ;
24 -> 116 ;
117 [label="strafrac <= 37.5\ngini = 0.32\nsamples = 5\nvalue = [1, 4]\nclass = sem raios"] ;
116 -> 117 ;
118 [label="gini = 0.0\nsamples = 3\nvalue = [0, 3]\nclass = sem raios"] ;
117 -> 118 ;
119 [label="ttvil <= 18.625\ngini = 0.5\nsamples = 2\nvalue = [1, 1]\nclass = com raios"] ;
117 -> 119 ;
120 [label="gini = 0.0\nsamples = 1\nvalue = [1, 0]\nclass = com raios"] ;
119 -> 120 ;
121 [label="gini = 0.0\nsamples = 1\nvalue = [0, 1]\nclass = sem raios"] ;
119 -> 121 ;
122 [label="gini = 0.0\nsamples = 2\nvalue = [2, 0]\nclass = com raios"] ;
116 -> 122 ;
123 [label="meanvil <= 0.425\ngini = 0.451\nsamples = 439\nvalue = [288, 151]\nclass = com raios"] ;
1 -> 123 ;
124 [label="riverfrac <= 65.59\ngini = 0.13\nsamples = 43\nvalue = [40, 3]\nclass = com raios"] ;
123 -> 124 ;
125 [label="convfrac <= 26.03\ngini = 0.091\nsamples = 42\nvalue = [40, 2]\nclass = com raios"] ;
124 -> 125 ;
126 [label="convfrac <= 25.865\ngini = 0.245\nsamples = 14\nvalue = [12, 2]\nclass = com raios"] ;
125 -> 126 ;
127 [label="meanvil <= 0.365\ngini = 0.142\nsamples = 13\nvalue = [12, 1]\nclass = com raios"] ;
126 -> 127 ;
128 [label="gini = 0.0\nsamples = 10\nvalue = [10, 0]\nclass = com raios"] ;
127 -> 128 ;
129 [label="maxprec <= 4.655\ngini = 0.444\nsamples = 3\nvalue = [2, 1]\nclass = com raios"] ;
127 -> 129 ;
130 [label="gini = 0.0\nsamples = 1\nvalue = [0, 1]\nclass = sem raios"] ;
129 -> 130 ;
131 [label="gini = 0.0\nsamples = 2\nvalue = [2, 0]\nclass = com raios"] ;
129 -> 131 ;
132 [label="gini = 0.0\nsamples = 1\nvalue = [0, 1]\nclass = sem raios"] ;
126 -> 132 ;
133 [label="gini = 0.0\nsamples = 28\nvalue = [28, 0]\nclass = com raios"] ;
125 -> 133 ;
134 [label="gini = 0.0\nsamples = 1\nvalue = [0, 1]\nclass = sem raios"] ;
124 -> 134 ;
135 [label="maxprec <= 13.025\ngini = 0.468\nsamples = 396\nvalue = [248, 148]\nclass = com raios"] ;
123 -> 135 ;
136 [label="convfrac <= 18.26\ngini = 0.45\nsamples = 41\nvalue = [14, 27]\nclass = sem raios"] ;
135 -> 136 ;
137 [label="meanvil <= 0.435\ngini = 0.165\nsamples = 11\nvalue = [1, 10]\nclass = sem raios"] ;
136 -> 137 ;
138 [label="maxprec <= 4.645\ngini = 0.5\nsamples = 2\nvalue = [1, 1]\nclass = com raios"] ;
137 -> 138 ;
139 [label="gini = 0.0\nsamples = 1\nvalue = [0, 1]\nclass = sem raios"] ;
138 -> 139 ;
140 [label="gini = 0.0\nsamples = 1\nvalue = [1, 0]\nclass = com raios"] ;
138 -> 140 ;
141 [label="gini = 0.0\nsamples = 9\nvalue = [0, 9]\nclass = sem raios"] ;
137 -> 141 ;
142 [label="convfrac <= 90.895\ngini = 0.491\nsamples = 30\nvalue = [13, 17]\nclass = sem raios"] ;
136 -> 142 ;
143 [label="meanvil <= 0.73\ngini = 0.477\nsamples = 28\nvalue = [11, 17]\nclass = sem raios"] ;
142 -> 143 ;
144 [label="ttvil <= 56.355\ngini = 0.5\nsamples = 22\nvalue = [11, 11]\nclass = com raios"] ;
143 -> 144 ;
145 [label="ttvil <= 24.79\ngini = 0.469\nsamples = 16\nvalue = [6, 10]\nclass = sem raios"] ;
144 -> 145 ;
146 [label="gini = 0.0\nsamples = 2\nvalue = [2, 0]\nclass = com raios"] ;
145 -> 146 ;
147 [label="meanprec <= 2.825\ngini = 0.408\nsamples = 14\nvalue = [4, 10]\nclass = sem raios"] ;
145 -> 147 ;
148 [label="maxz <= 27.28\ngini = 0.298\nsamples = 11\nvalue = [2, 9]\nclass = sem raios"] ;
147 -> 148 ;
149 [label="gini = 0.0\nsamples = 1\nvalue = [1, 0]\nclass = com raios"] ;
148 -> 149 ;
150 [label="convfrac <= 20.36\ngini = 0.18\nsamples = 10\nvalue = [1, 9]\nclass = sem raios"] ;
148 -> 150 ;
151 [label="maxprec <= 9.465\ngini = 0.5\nsamples = 2\nvalue = [1, 1]\nclass = com raios"] ;
150 -> 151 ;
152 [label="gini = 0.0\nsamples = 1\nvalue = [1, 0]\nclass = com raios"] ;
151 -> 152 ;
153 [label="gini = 0.0\nsamples = 1\nvalue = [0, 1]\nclass = sem raios"] ;
151 -> 153 ;
154 [label="gini = 0.0\nsamples = 8\nvalue = [0, 8]\nclass = sem raios"] ;
150 -> 154 ;
155 [label="strafrac <= 60.09\ngini = 0.444\nsamples = 3\nvalue = [2, 1]\nclass = com raios"] ;
147 -> 155 ;
156 [label="gini = 0.0\nsamples = 2\nvalue = [2, 0]\nclass = com raios"] ;
155 -> 156 ;
157 [label="gini = 0.0\nsamples = 1\nvalue = [0, 1]\nclass = sem raios"] ;
155 -> 157 ;
158 [label="meanvil <= 0.485\ngini = 0.278\nsamples = 6\nvalue = [5, 1]\nclass = com raios"] ;
144 -> 158 ;
159 [label="gini = 0.0\nsamples = 1\nvalue = [0, 1]\nclass = sem raios"] ;
158 -> 159 ;
160 [label="gini = 0.0\nsamples = 5\nvalue = [5, 0]\nclass = com raios"] ;
158 -> 160 ;
161 [label="gini = 0.0\nsamples = 6\nvalue = [0, 6]\nclass = sem raios"] ;
143 -> 161 ;
162 [label="gini = 0.0\nsamples = 2\nvalue = [2, 0]\nclass = com raios"] ;
142 -> 162 ;
163 [label="maxprec <= 78.685\ngini = 0.449\nsamples = 355\nvalue = [234, 121]\nclass = com raios"] ;
135 -> 163 ;
164 [label="maxprec <= 25.9\ngini = 0.427\nsamples = 311\nvalue = [215, 96]\nclass = com raios"] ;
163 -> 164 ;
165 [label="maxz <= 39.705\ngini = 0.484\nsamples = 85\nvalue = [50, 35]\nclass = com raios"] ;
164 -> 165 ;
166 [label="meanvil <= 1.105\ngini = 0.471\nsamples = 79\nvalue = [49, 30]\nclass = com raios"] ;
165 -> 166 ;
167 [label="maxprec <= 15.045\ngini = 0.489\nsamples = 68\nvalue = [39, 29]\nclass = com raios"] ;
166 -> 167 ;
168 [label="riverfrac <= 4.45\ngini = 0.32\nsamples = 15\nvalue = [12, 3]\nclass = com raios"] ;
167 -> 168 ;
169 [label="maxz <= 35.965\ngini = 0.5\nsamples = 6\nvalue = [3, 3]\nclass = com raios"] ;
168 -> 169 ;
170 [label="strafrac <= 17.71\ngini = 0.375\nsamples = 4\nvalue = [1, 3]\nclass = sem raios"] ;
169 -> 170 ;
171 [label="gini = 0.0\nsamples = 1\nvalue = [1, 0]\nclass = com raios"] ;
170 -> 171 ;
172 [label="gini = 0.0\nsamples = 3\nvalue = [0, 3]\nclass = sem raios"] ;
170 -> 172 ;
173 [label="gini = 0.0\nsamples = 2\nvalue = [2, 0]\nclass = com raios"] ;
169 -> 173 ;
174 [label="gini = 0.0\nsamples = 9\nvalue = [9, 0]\nclass = com raios"] ;
168 -> 174 ;
175 [label="meanz <= 27.28\ngini = 0.5\nsamples = 53\nvalue = [27, 26]\nclass = com raios"] ;
167 -> 175 ;
176 [label="meanprec <= 2.7\ngini = 0.278\nsamples = 6\nvalue = [1, 5]\nclass = sem raios"] ;
175 -> 176 ;
177 [label="maxz <= 38.33\ngini = 0.5\nsamples = 2\nvalue = [1, 1]\nclass = com raios"] ;
176 -> 177 ;
178 [label="gini = 0.0\nsamples = 1\nvalue = [1, 0]\nclass = com raios"] ;
177 -> 178 ;
179 [label="gini = 0.0\nsamples = 1\nvalue = [0, 1]\nclass = sem raios"] ;
177 -> 179 ;
180 [label="gini = 0.0\nsamples = 4\nvalue = [0, 4]\nclass = sem raios"] ;
176 -> 180 ;
181 [label="meanvil <= 0.995\ngini = 0.494\nsamples = 47\nvalue = [26, 21]\nclass = com raios"] ;
175 -> 181 ;
182 [label="meanz <= 27.65\ngini = 0.482\nsamples = 42\nvalue = [25, 17]\nclass = com raios"] ;
181 -> 182 ;
183 [label="gini = 0.0\nsamples = 3\nvalue = [3, 0]\nclass = com raios"] ;
182 -> 183 ;
184 [label="meanprec <= 3.5\ngini = 0.492\nsamples = 39\nvalue = [22, 17]\nclass = com raios"] ;
182 -> 184 ;
185 [label="riverfrac <= 21.16\ngini = 0.375\nsamples = 4\nvalue = [1, 3]\nclass = sem raios"] ;
184 -> 185 ;
186 [label="gini = 0.0\nsamples = 3\nvalue = [0, 3]\nclass = sem raios"] ;
185 -> 186 ;
187 [label="gini = 0.0\nsamples = 1\nvalue = [1, 0]\nclass = com raios"] ;
185 -> 187 ;
188 [label="meanvil <= 0.605\ngini = 0.48\nsamples = 35\nvalue = [21, 14]\nclass = com raios"] ;
184 -> 188 ;
189 [label="gini = 0.0\nsamples = 7\nvalue = [7, 0]\nclass = com raios"] ;
188 -> 189 ;
190 [label="riverfrac <= 2.89\ngini = 0.5\nsamples = 28\nvalue = [14, 14]\nclass = com raios"] ;
188 -> 190 ;
191 [label="meanvil <= 0.725\ngini = 0.48\nsamples = 20\nvalue = [12, 8]\nclass = com raios"] ;
190 -> 191 ;
192 [label="meanz <= 29.645\ngini = 0.48\nsamples = 10\nvalue = [4, 6]\nclass = sem raios"] ;
191 -> 192 ;
193 [label="maxz <= 37.795\ngini = 0.375\nsamples = 8\nvalue = [2, 6]\nclass = sem raios"] ;
192 -> 193 ;
194 [label="meanprec <= 4.12\ngini = 0.444\nsamples = 3\nvalue = [2, 1]\nclass = com raios"] ;
193 -> 194 ;
195 [label="gini = 0.0\nsamples = 2\nvalue = [2, 0]\nclass = com raios"] ;
194 -> 195 ;
196 [label="gini = 0.0\nsamples = 1\nvalue = [0, 1]\nclass = sem raios"] ;
194 -> 196 ;
197 [label="gini = 0.0\nsamples = 5\nvalue = [0, 5]\nclass = sem raios"] ;
193 -> 197 ;
198 [label="gini = 0.0\nsamples = 2\nvalue = [2, 0]\nclass = com raios"] ;
192 -> 198 ;
199 [label="convfrac <= 15.51\ngini = 0.32\nsamples = 10\nvalue = [8, 2]\nclass = com raios"] ;
191 -> 199 ;
200 [label="gini = 0.0\nsamples = 1\nvalue = [0, 1]\nclass = sem raios"] ;
199 -> 200 ;
201 [label="ttvil <= 22.86\ngini = 0.198\nsamples = 9\nvalue = [8, 1]\nclass = com raios"] ;
199 -> 201 ;
202 [label="gini = 0.0\nsamples = 1\nvalue = [0, 1]\nclass = sem raios"] ;
201 -> 202 ;
203 [label="gini = 0.0\nsamples = 8\nvalue = [8, 0]\nclass = com raios"] ;
201 -> 203 ;
204 [label="meanvil <= 0.7\ngini = 0.375\nsamples = 8\nvalue = [2, 6]\nclass = sem raios"] ;
190 -> 204 ;
205 [label="gini = 0.0\nsamples = 2\nvalue = [2, 0]\nclass = com raios"] ;
204 -> 205 ;
206 [label="gini = 0.0\nsamples = 6\nvalue = [0, 6]\nclass = sem raios"] ;
204 -> 206 ;
207 [label="meanz <= 29.235\ngini = 0.32\nsamples = 5\nvalue = [1, 4]\nclass = sem raios"] ;
181 -> 207 ;
208 [label="gini = 0.0\nsamples = 1\nvalue = [1, 0]\nclass = com raios"] ;
207 -> 208 ;
209 [label="gini = 0.0\nsamples = 4\nvalue = [0, 4]\nclass = sem raios"] ;
207 -> 209 ;
210 [label="convfrac <= 92.95\ngini = 0.165\nsamples = 11\nvalue = [10, 1]\nclass = com raios"] ;
166 -> 210 ;
211 [label="gini = 0.0\nsamples = 9\nvalue = [9, 0]\nclass = com raios"] ;
210 -> 211 ;
212 [label="meanvil <= 1.425\ngini = 0.5\nsamples = 2\nvalue = [1, 1]\nclass = com raios"] ;
210 -> 212 ;
213 [label="gini = 0.0\nsamples = 1\nvalue = [0, 1]\nclass = sem raios"] ;
212 -> 213 ;
214 [label="gini = 0.0\nsamples = 1\nvalue = [1, 0]\nclass = com raios"] ;
212 -> 214 ;
215 [label="maxz <= 39.83\ngini = 0.278\nsamples = 6\nvalue = [1, 5]\nclass = sem raios"] ;
165 -> 215 ;
216 [label="gini = 0.0\nsamples = 4\nvalue = [0, 4]\nclass = sem raios"] ;
215 -> 216 ;
217 [label="meanvil <= 0.89\ngini = 0.5\nsamples = 2\nvalue = [1, 1]\nclass = com raios"] ;
215 -> 217 ;
218 [label="gini = 0.0\nsamples = 1\nvalue = [0, 1]\nclass = sem raios"] ;
217 -> 218 ;
219 [label="gini = 0.0\nsamples = 1\nvalue = [1, 0]\nclass = com raios"] ;
217 -> 219 ;
220 [label="meanprec <= 7.15\ngini = 0.394\nsamples = 226\nvalue = [165, 61]\nclass = com raios"] ;
164 -> 220 ;
221 [label="meanprec <= 6.6\ngini = 0.298\nsamples = 88\nvalue = [72, 16]\nclass = com raios"] ;
220 -> 221 ;
222 [label="ttvil <= 51.075\ngini = 0.375\nsamples = 60\nvalue = [45, 15]\nclass = com raios"] ;
221 -> 222 ;
223 [label="riverfrac <= 58.335\ngini = 0.204\nsamples = 26\nvalue = [23, 3]\nclass = com raios"] ;
222 -> 223 ;
224 [label="meanprec <= 5.055\ngini = 0.147\nsamples = 25\nvalue = [23, 2]\nclass = com raios"] ;
223 -> 224 ;
225 [label="maxz <= 40.59\ngini = 0.32\nsamples = 10\nvalue = [8, 2]\nclass = com raios"] ;
224 -> 225 ;
226 [label="gini = 0.0\nsamples = 1\nvalue = [0, 1]\nclass = sem raios"] ;
225 -> 226 ;
227 [label="maxprec <= 34.205\ngini = 0.198\nsamples = 9\nvalue = [8, 1]\nclass = com raios"] ;
225 -> 227 ;
228 [label="gini = 0.0\nsamples = 7\nvalue = [7, 0]\nclass = com raios"] ;
227 -> 228 ;
229 [label="strafrac <= 78.94\ngini = 0.5\nsamples = 2\nvalue = [1, 1]\nclass = com raios"] ;
227 -> 229 ;
230 [label="gini = 0.0\nsamples = 1\nvalue = [1, 0]\nclass = com raios"] ;
229 -> 230 ;
231 [label="gini = 0.0\nsamples = 1\nvalue = [0, 1]\nclass = sem raios"] ;
229 -> 231 ;
232 [label="gini = 0.0\nsamples = 15\nvalue = [15, 0]\nclass = com raios"] ;
224 -> 232 ;
233 [label="gini = 0.0\nsamples = 1\nvalue = [0, 1]\nclass = sem raios"] ;
223 -> 233 ;
234 [label="meanz <= 31.41\ngini = 0.457\nsamples = 34\nvalue = [22, 12]\nclass = com raios"] ;
222 -> 234 ;
235 [label="strafrac <= 65.375\ngini = 0.412\nsamples = 31\nvalue = [22, 9]\nclass = com raios"] ;
234 -> 235 ;
236 [label="riverfrac <= 1.96\ngini = 0.375\nsamples = 4\nvalue = [1, 3]\nclass = sem raios"] ;
235 -> 236 ;
237 [label="gini = 0.0\nsamples = 1\nvalue = [1, 0]\nclass = com raios"] ;
236 -> 237 ;
238 [label="gini = 0.0\nsamples = 3\nvalue = [0, 3]\nclass = sem raios"] ;
236 -> 238 ;
239 [label="maxz <= 42.255\ngini = 0.346\nsamples = 27\nvalue = [21, 6]\nclass = com raios"] ;
235 -> 239 ;
240 [label="meanvil <= 1.055\ngini = 0.198\nsamples = 18\nvalue = [16, 2]\nclass = com raios"] ;
239 -> 240 ;
241 [label="gini = 0.0\nsamples = 13\nvalue = [13, 0]\nclass = com raios"] ;
240 -> 241 ;
242 [label="meanvil <= 1.09\ngini = 0.48\nsamples = 5\nvalue = [3, 2]\nclass = com raios"] ;
240 -> 242 ;
243 [label="gini = 0.0\nsamples = 2\nvalue = [0, 2]\nclass = sem raios"] ;
242 -> 243 ;
244 [label="gini = 0.0\nsamples = 3\nvalue = [3, 0]\nclass = com raios"] ;
242 -> 244 ;
245 [label="ttvil <= 91.19\ngini = 0.494\nsamples = 9\nvalue = [5, 4]\nclass = com raios"] ;
239 -> 245 ;
246 [label="strafrac <= 73.21\ngini = 0.408\nsamples = 7\nvalue = [5, 2]\nclass = com raios"] ;
245 -> 246 ;
247 [label="gini = 0.0\nsamples = 1\nvalue = [0, 1]\nclass = sem raios"] ;
246 -> 247 ;
248 [label="meanz <= 28.75\ngini = 0.278\nsamples = 6\nvalue = [5, 1]\nclass = com raios"] ;
246 -> 248 ;
249 [label="ttvil <= 77.535\ngini = 0.5\nsamples = 2\nvalue = [1, 1]\nclass = com raios"] ;
248 -> 249 ;
250 [label="gini = 0.0\nsamples = 1\nvalue = [0, 1]\nclass = sem raios"] ;
249 -> 250 ;
251 [label="gini = 0.0\nsamples = 1\nvalue = [1, 0]\nclass = com raios"] ;
249 -> 251 ;
252 [label="gini = 0.0\nsamples = 4\nvalue = [4, 0]\nclass = com raios"] ;
248 -> 252 ;
253 [label="gini = 0.0\nsamples = 2\nvalue = [0, 2]\nclass = sem raios"] ;
245 -> 253 ;
254 [label="gini = 0.0\nsamples = 3\nvalue = [0, 3]\nclass = sem raios"] ;
234 -> 254 ;
255 [label="maxz <= 40.335\ngini = 0.069\nsamples = 28\nvalue = [27, 1]\nclass = com raios"] ;
221 -> 255 ;
256 [label="gini = 0.0\nsamples = 1\nvalue = [0, 1]\nclass = sem raios"] ;
255 -> 256 ;
257 [label="gini = 0.0\nsamples = 27\nvalue = [27, 0]\nclass = com raios"] ;
255 -> 257 ;
258 [label="meanz <= 33.835\ngini = 0.44\nsamples = 138\nvalue = [93, 45]\nclass = com raios"] ;
220 -> 258 ;
259 [label="maxz <= 45.82\ngini = 0.49\nsamples = 70\nvalue = [40, 30]\nclass = com raios"] ;
258 -> 259 ;
260 [label="riverfrac <= 68.66\ngini = 0.476\nsamples = 64\nvalue = [39, 25]\nclass = com raios"] ;
259 -> 260 ;
261 [label="meanprec <= 7.175\ngini = 0.467\nsamples = 62\nvalue = [39, 23]\nclass = com raios"] ;
260 -> 261 ;
262 [label="gini = 0.0\nsamples = 2\nvalue = [0, 2]\nclass = sem raios"] ;
261 -> 262 ;
263 [label="meanvil <= 1.275\ngini = 0.455\nsamples = 60\nvalue = [39, 21]\nclass = com raios"] ;
261 -> 263 ;
264 [label="meanvil <= 1.155\ngini = 0.35\nsamples = 31\nvalue = [24, 7]\nclass = com raios"] ;
263 -> 264 ;
265 [label="riverfrac <= 35.14\ngini = 0.455\nsamples = 20\nvalue = [13, 7]\nclass = com raios"] ;
264 -> 265 ;
266 [label="meanprec <= 7.705\ngini = 0.401\nsamples = 18\nvalue = [13, 5]\nclass = com raios"] ;
265 -> 266 ;
267 [label="meanprec <= 7.225\ngini = 0.18\nsamples = 10\nvalue = [9, 1]\nclass = com raios"] ;
266 -> 267 ;
268 [label="meanz <= 31.71\ngini = 0.5\nsamples = 2\nvalue = [1, 1]\nclass = com raios"] ;
267 -> 268 ;
269 [label="gini = 0.0\nsamples = 1\nvalue = [1, 0]\nclass = com raios"] ;
268 -> 269 ;
270 [label="gini = 0.0\nsamples = 1\nvalue = [0, 1]\nclass = sem raios"] ;
268 -> 270 ;
271 [label="gini = 0.0\nsamples = 8\nvalue = [8, 0]\nclass = com raios"] ;
267 -> 271 ;
272 [label="meanvil <= 1.02\ngini = 0.5\nsamples = 8\nvalue = [4, 4]\nclass = com raios"] ;
266 -> 272 ;
273 [label="gini = 0.0\nsamples = 2\nvalue = [0, 2]\nclass = sem raios"] ;
272 -> 273 ;
274 [label="meanvil <= 1.115\ngini = 0.444\nsamples = 6\nvalue = [4, 2]\nclass = com raios"] ;
272 -> 274 ;
275 [label="gini = 0.0\nsamples = 3\nvalue = [3, 0]\nclass = com raios"] ;
274 -> 275 ;
276 [label="maxz <= 44.625\ngini = 0.444\nsamples = 3\nvalue = [1, 2]\nclass = sem raios"] ;
274 -> 276 ;
277 [label="gini = 0.0\nsamples = 2\nvalue = [0, 2]\nclass = sem raios"] ;
276 -> 277 ;
278 [label="gini = 0.0\nsamples = 1\nvalue = [1, 0]\nclass = com raios"] ;
276 -> 278 ;
279 [label="gini = 0.0\nsamples = 2\nvalue = [0, 2]\nclass = sem raios"] ;
265 -> 279 ;
280 [label="gini = 0.0\nsamples = 11\nvalue = [11, 0]\nclass = com raios"] ;
264 -> 280 ;
281 [label="riverfrac <= 7.77\ngini = 0.499\nsamples = 29\nvalue = [15, 14]\nclass = com raios"] ;
263 -> 281 ;
282 [label="ttvil <= 69.245\ngini = 0.486\nsamples = 24\nvalue = [10, 14]\nclass = sem raios"] ;
281 -> 282 ;
283 [label="ttvil <= 36.5\ngini = 0.355\nsamples = 13\nvalue = [3, 10]\nclass = sem raios"] ;
282 -> 283 ;
284 [label="maxprec <= 27.775\ngini = 0.375\nsamples = 4\nvalue = [3, 1]\nclass = com raios"] ;
283 -> 284 ;
285 [label="gini = 0.0\nsamples = 1\nvalue = [0, 1]\nclass = sem raios"] ;
284 -> 285 ;
286 [label="gini = 0.0\nsamples = 3\nvalue = [3, 0]\nclass = com raios"] ;
284 -> 286 ;
287 [label="gini = 0.0\nsamples = 9\nvalue = [0, 9]\nclass = sem raios"] ;
283 -> 287 ;
288 [label="maxprec <= 47.935\ngini = 0.463\nsamples = 11\nvalue = [7, 4]\nclass = com raios"] ;
282 -> 288 ;
289 [label="convfrac <= 23.98\ngini = 0.375\nsamples = 4\nvalue = [1, 3]\nclass = sem raios"] ;
288 -> 289 ;
290 [label="gini = 0.0\nsamples = 1\nvalue = [1, 0]\nclass = com raios"] ;
289 -> 290 ;
291 [label="gini = 0.0\nsamples = 3\nvalue = [0, 3]\nclass = sem raios"] ;
289 -> 291 ;
292 [label="riverfrac <= 4.205\ngini = 0.245\nsamples = 7\nvalue = [6, 1]\nclass = com raios"] ;
288 -> 292 ;
293 [label="gini = 0.0\nsamples = 6\nvalue = [6, 0]\nclass = com raios"] ;
292 -> 293 ;
294 [label="gini = 0.0\nsamples = 1\nvalue = [0, 1]\nclass = sem raios"] ;
292 -> 294 ;
295 [label="gini = 0.0\nsamples = 5\nvalue = [5, 0]\nclass = com raios"] ;
281 -> 295 ;
296 [label="gini = 0.0\nsamples = 2\nvalue = [0, 2]\nclass = sem raios"] ;
260 -> 296 ;
297 [label="meanvil <= 1.05\ngini = 0.278\nsamples = 6\nvalue = [1, 5]\nclass = sem raios"] ;
259 -> 297 ;
298 [label="gini = 0.0\nsamples = 1\nvalue = [1, 0]\nclass = com raios"] ;
297 -> 298 ;
299 [label="gini = 0.0\nsamples = 5\nvalue = [0, 5]\nclass = sem raios"] ;
297 -> 299 ;
300 [label="ttvil <= 71.725\ngini = 0.344\nsamples = 68\nvalue = [53, 15]\nclass = com raios"] ;
258 -> 300 ;
301 [label="meanz <= 35.165\ngini = 0.278\nsamples = 54\nvalue = [45, 9]\nclass = com raios"] ;
300 -> 301 ;
302 [label="meanvil <= 1.21\ngini = 0.124\nsamples = 30\nvalue = [28, 2]\nclass = com raios"] ;
301 -> 302 ;
303 [label="maxprec <= 56.695\ngini = 0.5\nsamples = 2\nvalue = [1, 1]\nclass = com raios"] ;
302 -> 303 ;
304 [label="gini = 0.0\nsamples = 1\nvalue = [1, 0]\nclass = com raios"] ;
303 -> 304 ;
305 [label="gini = 0.0\nsamples = 1\nvalue = [0, 1]\nclass = sem raios"] ;
303 -> 305 ;
306 [label="meanprec <= 9.305\ngini = 0.069\nsamples = 28\nvalue = [27, 1]\nclass = com raios"] ;
302 -> 306 ;
307 [label="maxprec <= 38.125\ngini = 0.444\nsamples = 3\nvalue = [2, 1]\nclass = com raios"] ;
306 -> 307 ;
308 [label="gini = 0.0\nsamples = 2\nvalue = [2, 0]\nclass = com raios"] ;
307 -> 308 ;
309 [label="gini = 0.0\nsamples = 1\nvalue = [0, 1]\nclass = sem raios"] ;
307 -> 309 ;
310 [label="gini = 0.0\nsamples = 25\nvalue = [25, 0]\nclass = com raios"] ;
306 -> 310 ;
311 [label="meanprec <= 13.18\ngini = 0.413\nsamples = 24\nvalue = [17, 7]\nclass = com raios"] ;
301 -> 311 ;
312 [label="meanprec <= 12.89\ngini = 0.444\nsamples = 6\nvalue = [2, 4]\nclass = sem raios"] ;
311 -> 312 ;
313 [label="ttvil <= 51.12\ngini = 0.444\nsamples = 3\nvalue = [2, 1]\nclass = com raios"] ;
312 -> 313 ;
314 [label="gini = 0.0\nsamples = 2\nvalue = [2, 0]\nclass = com raios"] ;
313 -> 314 ;
315 [label="gini = 0.0\nsamples = 1\nvalue = [0, 1]\nclass = sem raios"] ;
313 -> 315 ;
316 [label="gini = 0.0\nsamples = 3\nvalue = [0, 3]\nclass = sem raios"] ;
312 -> 316 ;
317 [label="maxprec <= 56.075\ngini = 0.278\nsamples = 18\nvalue = [15, 3]\nclass = com raios"] ;
311 -> 317 ;
318 [label="meanz <= 35.635\ngini = 0.5\nsamples = 6\nvalue = [3, 3]\nclass = com raios"] ;
317 -> 318 ;
319 [label="gini = 0.0\nsamples = 2\nvalue = [2, 0]\nclass = com raios"] ;
318 -> 319 ;
320 [label="maxprec <= 30.795\ngini = 0.375\nsamples = 4\nvalue = [1, 3]\nclass = sem raios"] ;
318 -> 320 ;
321 [label="gini = 0.0\nsamples = 1\nvalue = [1, 0]\nclass = com raios"] ;
320 -> 321 ;
322 [label="gini = 0.0\nsamples = 3\nvalue = [0, 3]\nclass = sem raios"] ;
320 -> 322 ;
323 [label="gini = 0.0\nsamples = 12\nvalue = [12, 0]\nclass = com raios"] ;
317 -> 323 ;
324 [label="riverfrac <= 0.98\ngini = 0.49\nsamples = 14\nvalue = [8, 6]\nclass = com raios"] ;
300 -> 324 ;
325 [label="gini = 0.0\nsamples = 6\nvalue = [6, 0]\nclass = com raios"] ;
324 -> 325 ;
326 [label="maxprec <= 69.27\ngini = 0.375\nsamples = 8\nvalue = [2, 6]\nclass = sem raios"] ;
324 -> 326 ;
327 [label="gini = 0.0\nsamples = 6\nvalue = [0, 6]\nclass = sem raios"] ;
326 -> 327 ;
328 [label="gini = 0.0\nsamples = 2\nvalue = [2, 0]\nclass = com raios"] ;
326 -> 328 ;
329 [label="riverfrac <= 46.245\ngini = 0.491\nsamples = 44\nvalue = [19, 25]\nclass = sem raios"] ;
163 -> 329 ;
330 [label="meanprec <= 10.08\ngini = 0.476\nsamples = 41\nvalue = [16, 25]\nclass = sem raios"] ;
329 -> 330 ;
331 [label="gini = 0.0\nsamples = 7\nvalue = [0, 7]\nclass = sem raios"] ;
330 -> 331 ;
332 [label="meanz <= 34.05\ngini = 0.498\nsamples = 34\nvalue = [16, 18]\nclass = sem raios"] ;
330 -> 332 ;
333 [label="gini = 0.0\nsamples = 3\nvalue = [3, 0]\nclass = com raios"] ;
332 -> 333 ;
334 [label="convfrac <= 32.99\ngini = 0.487\nsamples = 31\nvalue = [13, 18]\nclass = sem raios"] ;
332 -> 334 ;
335 [label="meanprec <= 11.03\ngini = 0.463\nsamples = 11\nvalue = [7, 4]\nclass = com raios"] ;
334 -> 335 ;
336 [label="gini = 0.0\nsamples = 2\nvalue = [0, 2]\nclass = sem raios"] ;
335 -> 336 ;
337 [label="meanz <= 35.91\ngini = 0.346\nsamples = 9\nvalue = [7, 2]\nclass = com raios"] ;
335 -> 337 ;
338 [label="gini = 0.0\nsamples = 3\nvalue = [3, 0]\nclass = com raios"] ;
337 -> 338 ;
339 [label="meanvil <= 2.16\ngini = 0.444\nsamples = 6\nvalue = [4, 2]\nclass = com raios"] ;
337 -> 339 ;
340 [label="ttvil <= 94.835\ngini = 0.444\nsamples = 3\nvalue = [1, 2]\nclass = sem raios"] ;
339 -> 340 ;
341 [label="gini = 0.0\nsamples = 2\nvalue = [0, 2]\nclass = sem raios"] ;
340 -> 341 ;
342 [label="gini = 0.0\nsamples = 1\nvalue = [1, 0]\nclass = com raios"] ;
340 -> 342 ;
343 [label="gini = 0.0\nsamples = 3\nvalue = [3, 0]\nclass = com raios"] ;
339 -> 343 ;
344 [label="convfrac <= 92.71\ngini = 0.42\nsamples = 20\nvalue = [6, 14]\nclass = sem raios"] ;
334 -> 344 ;
345 [label="maxprec <= 98.56\ngini = 0.26\nsamples = 13\nvalue = [2, 11]\nclass = sem raios"] ;
344 -> 345 ;
346 [label="gini = 0.0\nsamples = 7\nvalue = [0, 7]\nclass = sem raios"] ;
345 -> 346 ;
347 [label="maxprec <= 99.53\ngini = 0.444\nsamples = 6\nvalue = [2, 4]\nclass = sem raios"] ;
345 -> 347 ;
348 [label="gini = 0.0\nsamples = 2\nvalue = [2, 0]\nclass = com raios"] ;
347 -> 348 ;
349 [label="gini = 0.0\nsamples = 4\nvalue = [0, 4]\nclass = sem raios"] ;
347 -> 349 ;
350 [label="meanvil <= 2.865\ngini = 0.49\nsamples = 7\nvalue = [4, 3]\nclass = com raios"] ;
344 -> 350 ;
351 [label="meanz <= 37.27\ngini = 0.375\nsamples = 4\nvalue = [1, 3]\nclass = sem raios"] ;
350 -> 351 ;
352 [label="gini = 0.0\nsamples = 2\nvalue = [0, 2]\nclass = sem raios"] ;
351 -> 352 ;
353 [label="maxprec <= 107.165\ngini = 0.5\nsamples = 2\nvalue = [1, 1]\nclass = com raios"] ;
351 -> 353 ;
354 [label="gini = 0.0\nsamples = 1\nvalue = [1, 0]\nclass = com raios"] ;
353 -> 354 ;
355 [label="gini = 0.0\nsamples = 1\nvalue = [0, 1]\nclass = sem raios"] ;
353 -> 355 ;
356 [label="gini = 0.0\nsamples = 3\nvalue = [3, 0]\nclass = com raios"] ;
350 -> 356 ;
357 [label="gini = 0.0\nsamples = 3\nvalue = [3, 0]\nclass = com raios"] ;
329 -> 357 ;
358 [label="ttvil <= 271.065\ngini = 0.251\nsamples = 700\nvalue = [103, 597]\nclass = sem raios"] ;
0 -> 358 [labeldistance=2.5, labelangle=-45, headlabel="False"] ;
359 [label="meanvil <= 0.595\ngini = 0.431\nsamples = 232\nvalue = [73, 159]\nclass = sem raios"] ;
358 -> 359 ;
360 [label="strafrac <= 76.99\ngini = 0.245\nsamples = 7\nvalue = [6, 1]\nclass = com raios"] ;
359 -> 360 ;
361 [label="gini = 0.0\nsamples = 6\nvalue = [6, 0]\nclass = com raios"] ;
360 -> 361 ;
362 [label="gini = 0.0\nsamples = 1\nvalue = [0, 1]\nclass = sem raios"] ;
360 -> 362 ;
363 [label="convfrac <= 74.23\ngini = 0.418\nsamples = 225\nvalue = [67, 158]\nclass = sem raios"] ;
359 -> 363 ;
364 [label="meanprec <= 13.64\ngini = 0.443\nsamples = 190\nvalue = [63, 127]\nclass = sem raios"] ;
363 -> 364 ;
365 [label="meanvil <= 1.695\ngini = 0.394\nsamples = 126\nvalue = [34, 92]\nclass = sem raios"] ;
364 -> 365 ;
366 [label="meanprec <= 12.015\ngini = 0.454\nsamples = 86\nvalue = [30, 56]\nclass = sem raios"] ;
365 -> 366 ;
367 [label="strafrac <= 39.955\ngini = 0.436\nsamples = 81\nvalue = [26, 55]\nclass = sem raios"] ;
366 -> 367 ;
368 [label="gini = 0.0\nsamples = 2\nvalue = [2, 0]\nclass = com raios"] ;
367 -> 368 ;
369 [label="ttvil <= 248.99\ngini = 0.423\nsamples = 79\nvalue = [24, 55]\nclass = sem raios"] ;
367 -> 369 ;
370 [label="convfrac <= 30.265\ngini = 0.392\nsamples = 71\nvalue = [19, 52]\nclass = sem raios"] ;
369 -> 370 ;
371 [label="meanz <= 33.905\ngini = 0.32\nsamples = 45\nvalue = [9, 36]\nclass = sem raios"] ;
370 -> 371 ;
372 [label="convfrac <= 23.38\ngini = 0.239\nsamples = 36\nvalue = [5, 31]\nclass = sem raios"] ;
371 -> 372 ;
373 [label="convfrac <= 23.01\ngini = 0.32\nsamples = 25\nvalue = [5, 20]\nclass = sem raios"] ;
372 -> 373 ;
374 [label="maxz <= 47.785\ngini = 0.278\nsamples = 24\nvalue = [4, 20]\nclass = sem raios"] ;
373 -> 374 ;
375 [label="meanvil <= 1.235\ngini = 0.188\nsamples = 19\nvalue = [2, 17]\nclass = sem raios"] ;
374 -> 375 ;
376 [label="meanvil <= 0.685\ngini = 0.111\nsamples = 17\nvalue = [1, 16]\nclass = sem raios"] ;
375 -> 376 ;
377 [label="meanz <= 27.82\ngini = 0.444\nsamples = 3\nvalue = [1, 2]\nclass = sem raios"] ;
376 -> 377 ;
378 [label="gini = 0.0\nsamples = 2\nvalue = [0, 2]\nclass = sem raios"] ;
377 -> 378 ;
379 [label="gini = 0.0\nsamples = 1\nvalue = [1, 0]\nclass = com raios"] ;
377 -> 379 ;
380 [label="gini = 0.0\nsamples = 14\nvalue = [0, 14]\nclass = sem raios"] ;
376 -> 380 ;
381 [label="strafrac <= 79.51\ngini = 0.5\nsamples = 2\nvalue = [1, 1]\nclass = com raios"] ;
375 -> 381 ;
382 [label="gini = 0.0\nsamples = 1\nvalue = [1, 0]\nclass = com raios"] ;
381 -> 382 ;
383 [label="gini = 0.0\nsamples = 1\nvalue = [0, 1]\nclass = sem raios"] ;
381 -> 383 ;
384 [label="riverfrac <= 3.81\ngini = 0.48\nsamples = 5\nvalue = [2, 3]\nclass = sem raios"] ;
374 -> 384 ;
385 [label="gini = 0.0\nsamples = 3\nvalue = [0, 3]\nclass = sem raios"] ;
384 -> 385 ;
386 [label="gini = 0.0\nsamples = 2\nvalue = [2, 0]\nclass = com raios"] ;
384 -> 386 ;
387 [label="gini = 0.0\nsamples = 1\nvalue = [1, 0]\nclass = com raios"] ;
373 -> 387 ;
388 [label="gini = 0.0\nsamples = 11\nvalue = [0, 11]\nclass = sem raios"] ;
372 -> 388 ;
389 [label="ttvil <= 143.415\ngini = 0.494\nsamples = 9\nvalue = [4, 5]\nclass = sem raios"] ;
371 -> 389 ;
390 [label="gini = 0.0\nsamples = 4\nvalue = [4, 0]\nclass = com raios"] ;
389 -> 390 ;
391 [label="gini = 0.0\nsamples = 5\nvalue = [0, 5]\nclass = sem raios"] ;
389 -> 391 ;
392 [label="meanvil <= 1.345\ngini = 0.473\nsamples = 26\nvalue = [10, 16]\nclass = sem raios"] ;
370 -> 392 ;
393 [label="meanvil <= 0.835\ngini = 0.49\nsamples = 14\nvalue = [8, 6]\nclass = com raios"] ;
392 -> 393 ;
394 [label="gini = 0.0\nsamples = 4\nvalue = [0, 4]\nclass = sem raios"] ;
393 -> 394 ;
395 [label="meanprec <= 9.955\ngini = 0.32\nsamples = 10\nvalue = [8, 2]\nclass = com raios"] ;
393 -> 395 ;
396 [label="maxz <= 48.16\ngini = 0.198\nsamples = 9\nvalue = [8, 1]\nclass = com raios"] ;
395 -> 396 ;
397 [label="gini = 0.0\nsamples = 7\nvalue = [7, 0]\nclass = com raios"] ;
396 -> 397 ;
398 [label="maxz <= 50.23\ngini = 0.5\nsamples = 2\nvalue = [1, 1]\nclass = com raios"] ;
396 -> 398 ;
399 [label="gini = 0.0\nsamples = 1\nvalue = [0, 1]\nclass = sem raios"] ;
398 -> 399 ;
400 [label="gini = 0.0\nsamples = 1\nvalue = [1, 0]\nclass = com raios"] ;
398 -> 400 ;
401 [label="gini = 0.0\nsamples = 1\nvalue = [0, 1]\nclass = sem raios"] ;
395 -> 401 ;
402 [label="meanprec <= 11.745\ngini = 0.278\nsamples = 12\nvalue = [2, 10]\nclass = sem raios"] ;
392 -> 402 ;
403 [label="meanz <= 33.905\ngini = 0.165\nsamples = 11\nvalue = [1, 10]\nclass = sem raios"] ;
402 -> 403 ;
404 [label="gini = 0.0\nsamples = 6\nvalue = [0, 6]\nclass = sem raios"] ;
403 -> 404 ;
405 [label="meanprec <= 10.575\ngini = 0.32\nsamples = 5\nvalue = [1, 4]\nclass = sem raios"] ;
403 -> 405 ;
406 [label="gini = 0.0\nsamples = 1\nvalue = [1, 0]\nclass = com raios"] ;
405 -> 406 ;
407 [label="gini = 0.0\nsamples = 4\nvalue = [0, 4]\nclass = sem raios"] ;
405 -> 407 ;
408 [label="gini = 0.0\nsamples = 1\nvalue = [1, 0]\nclass = com raios"] ;
402 -> 408 ;
409 [label="meanprec <= 10.91\ngini = 0.469\nsamples = 8\nvalue = [5, 3]\nclass = com raios"] ;
369 -> 409 ;
410 [label="maxz <= 44.74\ngini = 0.278\nsamples = 6\nvalue = [5, 1]\nclass = com raios"] ;
409 -> 410 ;
411 [label="gini = 0.0\nsamples = 1\nvalue = [0, 1]\nclass = sem raios"] ;
410 -> 411 ;
412 [label="gini = 0.0\nsamples = 5\nvalue = [5, 0]\nclass = com raios"] ;
410 -> 412 ;
413 [label="gini = 0.0\nsamples = 2\nvalue = [0, 2]\nclass = sem raios"] ;
409 -> 413 ;
414 [label="ttvil <= 197.64\ngini = 0.32\nsamples = 5\nvalue = [4, 1]\nclass = com raios"] ;
366 -> 414 ;
415 [label="gini = 0.0\nsamples = 4\nvalue = [4, 0]\nclass = com raios"] ;
414 -> 415 ;
416 [label="gini = 0.0\nsamples = 1\nvalue = [0, 1]\nclass = sem raios"] ;
414 -> 416 ;
417 [label="meanvil <= 2.235\ngini = 0.18\nsamples = 40\nvalue = [4, 36]\nclass = sem raios"] ;
365 -> 417 ;
418 [label="strafrac <= 49.69\ngini = 0.057\nsamples = 34\nvalue = [1, 33]\nclass = sem raios"] ;
417 -> 418 ;
419 [label="convfrac <= 51.375\ngini = 0.278\nsamples = 6\nvalue = [1, 5]\nclass = sem raios"] ;
418 -> 419 ;
420 [label="gini = 0.0\nsamples = 1\nvalue = [1, 0]\nclass = com raios"] ;
419 -> 420 ;
421 [label="gini = 0.0\nsamples = 5\nvalue = [0, 5]\nclass = sem raios"] ;
419 -> 421 ;
422 [label="gini = 0.0\nsamples = 28\nvalue = [0, 28]\nclass = sem raios"] ;
418 -> 422 ;
423 [label="meanz <= 34.53\ngini = 0.5\nsamples = 6\nvalue = [3, 3]\nclass = com raios"] ;
417 -> 423 ;
424 [label="gini = 0.0\nsamples = 3\nvalue = [0, 3]\nclass = sem raios"] ;
423 -> 424 ;
425 [label="gini = 0.0\nsamples = 3\nvalue = [3, 0]\nclass = com raios"] ;
423 -> 425 ;
426 [label="meanprec <= 14.075\ngini = 0.496\nsamples = 64\nvalue = [29, 35]\nclass = sem raios"] ;
364 -> 426 ;
427 [label="gini = 0.0\nsamples = 6\nvalue = [6, 0]\nclass = com raios"] ;
426 -> 427 ;
428 [label="meanprec <= 14.77\ngini = 0.479\nsamples = 58\nvalue = [23, 35]\nclass = sem raios"] ;
426 -> 428 ;
429 [label="gini = 0.0\nsamples = 8\nvalue = [0, 8]\nclass = sem raios"] ;
428 -> 429 ;
430 [label="meanvil <= 2.105\ngini = 0.497\nsamples = 50\nvalue = [23, 27]\nclass = sem raios"] ;
428 -> 430 ;
431 [label="ttvil <= 115.275\ngini = 0.219\nsamples = 8\nvalue = [7, 1]\nclass = com raios"] ;
430 -> 431 ;
432 [label="gini = 0.0\nsamples = 1\nvalue = [0, 1]\nclass = sem raios"] ;
431 -> 432 ;
433 [label="gini = 0.0\nsamples = 7\nvalue = [7, 0]\nclass = com raios"] ;
431 -> 433 ;
434 [label="ttvil <= 131.78\ngini = 0.472\nsamples = 42\nvalue = [16, 26]\nclass = sem raios"] ;
430 -> 434 ;
435 [label="gini = 0.0\nsamples = 3\nvalue = [3, 0]\nclass = com raios"] ;
434 -> 435 ;
436 [label="meanprec <= 21.19\ngini = 0.444\nsamples = 39\nvalue = [13, 26]\nclass = sem raios"] ;
434 -> 436 ;
437 [label="strafrac <= 73.875\ngini = 0.311\nsamples = 26\nvalue = [5, 21]\nclass = sem raios"] ;
436 -> 437 ;
438 [label="convfrac <= 70.9\ngini = 0.172\nsamples = 21\nvalue = [2, 19]\nclass = sem raios"] ;
437 -> 438 ;
439 [label="ttvil <= 158.33\ngini = 0.095\nsamples = 20\nvalue = [1, 19]\nclass = sem raios"] ;
438 -> 439 ;
440 [label="ttvil <= 157.145\ngini = 0.32\nsamples = 5\nvalue = [1, 4]\nclass = sem raios"] ;
439 -> 440 ;
441 [label="gini = 0.0\nsamples = 4\nvalue = [0, 4]\nclass = sem raios"] ;
440 -> 441 ;
442 [label="gini = 0.0\nsamples = 1\nvalue = [1, 0]\nclass = com raios"] ;
440 -> 442 ;
443 [label="gini = 0.0\nsamples = 15\nvalue = [0, 15]\nclass = sem raios"] ;
439 -> 443 ;
444 [label="gini = 0.0\nsamples = 1\nvalue = [1, 0]\nclass = com raios"] ;
438 -> 444 ;
445 [label="meanz <= 37.095\ngini = 0.48\nsamples = 5\nvalue = [3, 2]\nclass = com raios"] ;
437 -> 445 ;
446 [label="gini = 0.0\nsamples = 2\nvalue = [0, 2]\nclass = sem raios"] ;
445 -> 446 ;
447 [label="gini = 0.0\nsamples = 3\nvalue = [3, 0]\nclass = com raios"] ;
445 -> 447 ;
448 [label="ttvil <= 261.535\ngini = 0.473\nsamples = 13\nvalue = [8, 5]\nclass = com raios"] ;
436 -> 448 ;
449 [label="meanvil <= 3.325\ngini = 0.397\nsamples = 11\nvalue = [8, 3]\nclass = com raios"] ;
448 -> 449 ;
450 [label="gini = 0.0\nsamples = 7\nvalue = [7, 0]\nclass = com raios"] ;
449 -> 450 ;
451 [label="meanvil <= 5.105\ngini = 0.375\nsamples = 4\nvalue = [1, 3]\nclass = sem raios"] ;
449 -> 451 ;
452 [label="gini = 0.0\nsamples = 3\nvalue = [0, 3]\nclass = sem raios"] ;
451 -> 452 ;
453 [label="gini = 0.0\nsamples = 1\nvalue = [1, 0]\nclass = com raios"] ;
451 -> 453 ;
454 [label="gini = 0.0\nsamples = 2\nvalue = [0, 2]\nclass = sem raios"] ;
448 -> 454 ;
455 [label="meanz <= 32.245\ngini = 0.202\nsamples = 35\nvalue = [4, 31]\nclass = sem raios"] ;
363 -> 455 ;
456 [label="gini = 0.0\nsamples = 1\nvalue = [1, 0]\nclass = com raios"] ;
455 -> 456 ;
457 [label="convfrac <= 97.565\ngini = 0.161\nsamples = 34\nvalue = [3, 31]\nclass = sem raios"] ;
455 -> 457 ;
458 [label="gini = 0.0\nsamples = 26\nvalue = [0, 26]\nclass = sem raios"] ;
457 -> 458 ;
459 [label="meanvil <= 4.165\ngini = 0.469\nsamples = 8\nvalue = [3, 5]\nclass = sem raios"] ;
457 -> 459 ;
460 [label="maxprec <= 132.52\ngini = 0.48\nsamples = 5\nvalue = [3, 2]\nclass = com raios"] ;
459 -> 460 ;
461 [label="gini = 0.0\nsamples = 2\nvalue = [0, 2]\nclass = sem raios"] ;
460 -> 461 ;
462 [label="gini = 0.0\nsamples = 3\nvalue = [3, 0]\nclass = com raios"] ;
460 -> 462 ;
463 [label="gini = 0.0\nsamples = 3\nvalue = [0, 3]\nclass = sem raios"] ;
459 -> 463 ;
464 [label="meanvil <= 1.075\ngini = 0.12\nsamples = 468\nvalue = [30, 438]\nclass = sem raios"] ;
358 -> 464 ;
465 [label="meanprec <= 5.21\ngini = 0.496\nsamples = 22\nvalue = [12, 10]\nclass = com raios"] ;
464 -> 465 ;
466 [label="strafrac <= 80.145\ngini = 0.219\nsamples = 8\nvalue = [1, 7]\nclass = sem raios"] ;
465 -> 466 ;
467 [label="gini = 0.0\nsamples = 6\nvalue = [0, 6]\nclass = sem raios"] ;
466 -> 467 ;
468 [label="convfrac <= 18.365\ngini = 0.5\nsamples = 2\nvalue = [1, 1]\nclass = com raios"] ;
466 -> 468 ;
469 [label="gini = 0.0\nsamples = 1\nvalue = [0, 1]\nclass = sem raios"] ;
468 -> 469 ;
470 [label="gini = 0.0\nsamples = 1\nvalue = [1, 0]\nclass = com raios"] ;
468 -> 470 ;
471 [label="riverfrac <= 23.14\ngini = 0.337\nsamples = 14\nvalue = [11, 3]\nclass = com raios"] ;
465 -> 471 ;
472 [label="maxprec <= 92.72\ngini = 0.26\nsamples = 13\nvalue = [11, 2]\nclass = com raios"] ;
471 -> 472 ;
473 [label="gini = 0.0\nsamples = 7\nvalue = [7, 0]\nclass = com raios"] ;
472 -> 473 ;
474 [label="meanprec <= 8.155\ngini = 0.444\nsamples = 6\nvalue = [4, 2]\nclass = com raios"] ;
472 -> 474 ;
475 [label="meanvil <= 0.69\ngini = 0.444\nsamples = 3\nvalue = [1, 2]\nclass = sem raios"] ;
474 -> 475 ;
476 [label="gini = 0.0\nsamples = 1\nvalue = [1, 0]\nclass = com raios"] ;
475 -> 476 ;
477 [label="gini = 0.0\nsamples = 2\nvalue = [0, 2]\nclass = sem raios"] ;
475 -> 477 ;
478 [label="gini = 0.0\nsamples = 3\nvalue = [3, 0]\nclass = com raios"] ;
474 -> 478 ;
479 [label="gini = 0.0\nsamples = 1\nvalue = [0, 1]\nclass = sem raios"] ;
471 -> 479 ;
480 [label="maxprec <= 387.68\ngini = 0.077\nsamples = 446\nvalue = [18, 428]\nclass = sem raios"] ;
464 -> 480 ;
481 [label="ttvil <= 340.48\ngini = 0.066\nsamples = 442\nvalue = [15, 427]\nclass = sem raios"] ;
480 -> 481 ;
482 [label="maxprec <= 265.89\ngini = 0.206\nsamples = 77\nvalue = [9, 68]\nclass = sem raios"] ;
481 -> 482 ;
483 [label="convfrac <= 16.555\ngini = 0.169\nsamples = 75\nvalue = [7, 68]\nclass = sem raios"] ;
482 -> 483 ;
484 [label="gini = 0.0\nsamples = 1\nvalue = [1, 0]\nclass = com raios"] ;
483 -> 484 ;
485 [label="meanvil <= 1.245\ngini = 0.149\nsamples = 74\nvalue = [6, 68]\nclass = sem raios"] ;
483 -> 485 ;
486 [label="meanprec <= 7.01\ngini = 0.5\nsamples = 4\nvalue = [2, 2]\nclass = com raios"] ;
485 -> 486 ;
487 [label="gini = 0.0\nsamples = 2\nvalue = [0, 2]\nclass = sem raios"] ;
486 -> 487 ;
488 [label="gini = 0.0\nsamples = 2\nvalue = [2, 0]\nclass = com raios"] ;
486 -> 488 ;
489 [label="meanprec <= 21.115\ngini = 0.108\nsamples = 70\nvalue = [4, 66]\nclass = sem raios"] ;
485 -> 489 ;
490 [label="maxprec <= 70.235\ngini = 0.039\nsamples = 50\nvalue = [1, 49]\nclass = sem raios"] ;
489 -> 490 ;
491 [label="maxprec <= 68.275\ngini = 0.219\nsamples = 8\nvalue = [1, 7]\nclass = sem raios"] ;
490 -> 491 ;
492 [label="gini = 0.0\nsamples = 7\nvalue = [0, 7]\nclass = sem raios"] ;
491 -> 492 ;
493 [label="gini = 0.0\nsamples = 1\nvalue = [1, 0]\nclass = com raios"] ;
491 -> 493 ;
494 [label="gini = 0.0\nsamples = 42\nvalue = [0, 42]\nclass = sem raios"] ;
490 -> 494 ;
495 [label="meanprec <= 21.815\ngini = 0.255\nsamples = 20\nvalue = [3, 17]\nclass = sem raios"] ;
489 -> 495 ;
496 [label="gini = 0.0\nsamples = 1\nvalue = [1, 0]\nclass = com raios"] ;
495 -> 496 ;
497 [label="meanvil <= 2.2\ngini = 0.188\nsamples = 19\nvalue = [2, 17]\nclass = sem raios"] ;
495 -> 497 ;
498 [label="gini = 0.0\nsamples = 1\nvalue = [1, 0]\nclass = com raios"] ;
497 -> 498 ;
499 [label="ttvil <= 278.945\ngini = 0.105\nsamples = 18\nvalue = [1, 17]\nclass = sem raios"] ;
497 -> 499 ;
500 [label="ttvil <= 276.385\ngini = 0.444\nsamples = 3\nvalue = [1, 2]\nclass = sem raios"] ;
499 -> 500 ;
501 [label="gini = 0.0\nsamples = 2\nvalue = [0, 2]\nclass = sem raios"] ;
500 -> 501 ;
502 [label="gini = 0.0\nsamples = 1\nvalue = [1, 0]\nclass = com raios"] ;
500 -> 502 ;
503 [label="gini = 0.0\nsamples = 15\nvalue = [0, 15]\nclass = sem raios"] ;
499 -> 503 ;
504 [label="gini = 0.0\nsamples = 2\nvalue = [2, 0]\nclass = com raios"] ;
482 -> 504 ;
505 [label="meanprec <= 6.35\ngini = 0.032\nsamples = 365\nvalue = [6, 359]\nclass = sem raios"] ;
481 -> 505 ;
506 [label="maxz <= 50.19\ngini = 0.278\nsamples = 6\nvalue = [1, 5]\nclass = sem raios"] ;
505 -> 506 ;
507 [label="gini = 0.0\nsamples = 5\nvalue = [0, 5]\nclass = sem raios"] ;
506 -> 507 ;
508 [label="gini = 0.0\nsamples = 1\nvalue = [1, 0]\nclass = com raios"] ;
506 -> 508 ;
509 [label="ttvil <= 822.455\ngini = 0.027\nsamples = 359\nvalue = [5, 354]\nclass = sem raios"] ;
505 -> 509 ;
510 [label="ttvil <= 814.94\ngini = 0.052\nsamples = 188\nvalue = [5, 183]\nclass = sem raios"] ;
509 -> 510 ;
511 [label="meanvil <= 2.33\ngini = 0.042\nsamples = 187\nvalue = [4, 183]\nclass = sem raios"] ;
510 -> 511 ;
512 [label="meanz <= 37.545\ngini = 0.097\nsamples = 78\nvalue = [4, 74]\nclass = sem raios"] ;
511 -> 512 ;
513 [label="meanvil <= 2.315\ngini = 0.075\nsamples = 77\nvalue = [3, 74]\nclass = sem raios"] ;
512 -> 513 ;
514 [label="meanz <= 36.965\ngini = 0.052\nsamples = 75\nvalue = [2, 73]\nclass = sem raios"] ;
513 -> 514 ;
515 [label="strafrac <= 55.49\ngini = 0.029\nsamples = 68\nvalue = [1, 67]\nclass = sem raios"] ;
514 -> 515 ;
516 [label="convfrac <= 45.195\ngini = 0.219\nsamples = 8\nvalue = [1, 7]\nclass = sem raios"] ;
515 -> 516 ;
517 [label="gini = 0.0\nsamples = 1\nvalue = [1, 0]\nclass = com raios"] ;
516 -> 517 ;
518 [label="gini = 0.0\nsamples = 7\nvalue = [0, 7]\nclass = sem raios"] ;
516 -> 518 ;
519 [label="gini = 0.0\nsamples = 60\nvalue = [0, 60]\nclass = sem raios"] ;
515 -> 519 ;
520 [label="meanprec <= 16.525\ngini = 0.245\nsamples = 7\nvalue = [1, 6]\nclass = sem raios"] ;
514 -> 520 ;
521 [label="gini = 0.0\nsamples = 1\nvalue = [1, 0]\nclass = com raios"] ;
520 -> 521 ;
522 [label="gini = 0.0\nsamples = 6\nvalue = [0, 6]\nclass = sem raios"] ;
520 -> 522 ;
523 [label="maxprec <= 217.635\ngini = 0.5\nsamples = 2\nvalue = [1, 1]\nclass = com raios"] ;
513 -> 523 ;
524 [label="gini = 0.0\nsamples = 1\nvalue = [1, 0]\nclass = com raios"] ;
523 -> 524 ;
525 [label="gini = 0.0\nsamples = 1\nvalue = [0, 1]\nclass = sem raios"] ;
523 -> 525 ;
526 [label="gini = 0.0\nsamples = 1\nvalue = [1, 0]\nclass = com raios"] ;
512 -> 526 ;
527 [label="gini = 0.0\nsamples = 109\nvalue = [0, 109]\nclass = sem raios"] ;
511 -> 527 ;
528 [label="gini = 0.0\nsamples = 1\nvalue = [1, 0]\nclass = com raios"] ;
510 -> 528 ;
529 [label="gini = 0.0\nsamples = 171\nvalue = [0, 171]\nclass = sem raios"] ;
509 -> 529 ;
530 [label="meanprec <= 14.71\ngini = 0.375\nsamples = 4\nvalue = [3, 1]\nclass = com raios"] ;
480 -> 530 ;
531 [label="gini = 0.0\nsamples = 1\nvalue = [0, 1]\nclass = sem raios"] ;
530 -> 531 ;
532 [label="gini = 0.0\nsamples = 3\nvalue = [3, 0]\nclass = com raios"] ;
530 -> 532 ;
}