digraph Tree {
node [shape=box] ;
0 [label="ttvil <= 85.245\ngini = 0.5\nsamples = 1600\nvalue = [800, 800]\nclass = com raios"] ;
1 [label="meanvil <= 0.435\ngini = 0.353\nsamples = 861\nvalue = [664, 197]\nclass = com raios"] ;
0 -> 1 [labeldistance=2.5, labelangle=45, headlabel="True"] ;
2 [label="strafrac <= 80.605\ngini = 0.151\nsamples = 304\nvalue = [279, 25]\nclass = com raios"] ;
1 -> 2 ;
3 [label="meanprec <= 2.115\ngini = 0.094\nsamples = 243\nvalue = [231, 12]\nclass = com raios"] ;
2 -> 3 ;
4 [label="meanvil <= 0.205\ngini = 0.053\nsamples = 182\nvalue = [177, 5]\nclass = com raios"] ;
3 -> 4 ;
5 [label="strafrac <= 77.125\ngini = 0.278\nsamples = 6\nvalue = [5, 1]\nclass = com raios"] ;
4 -> 5 ;
6 [label="gini = 0.0\nsamples = 5\nvalue = [5, 0]\nclass = com raios"] ;
5 -> 6 ;
7 [label="gini = 0.0\nsamples = 1\nvalue = [0, 1]\nclass = sem raios"] ;
5 -> 7 ;
8 [label="meanvil <= 0.375\ngini = 0.044\nsamples = 176\nvalue = [172, 4]\nclass = com raios"] ;
4 -> 8 ;
9 [label="riverfrac <= 10.315\ngini = 0.025\nsamples = 155\nvalue = [153, 2]\nclass = com raios"] ;
8 -> 9 ;
10 [label="gini = 0.0\nsamples = 119\nvalue = [119, 0]\nclass = com raios"] ;
9 -> 10 ;
11 [label="riverfrac <= 11.535\ngini = 0.105\nsamples = 36\nvalue = [34, 2]\nclass = com raios"] ;
9 -> 11 ;
12 [label="gini = 0.0\nsamples = 1\nvalue = [0, 1]\nclass = sem raios"] ;
11 -> 12 ;
13 [label="convfrac <= 24.62\ngini = 0.056\nsamples = 35\nvalue = [34, 1]\nclass = com raios"] ;
11 -> 13 ;
14 [label="meanprec <= 1.45\ngini = 0.444\nsamples = 3\nvalue = [2, 1]\nclass = com raios"] ;
13 -> 14 ;
15 [label="gini = 0.0\nsamples = 2\nvalue = [2, 0]\nclass = com raios"] ;
14 -> 15 ;
16 [label="gini = 0.0\nsamples = 1\nvalue = [0, 1]\nclass = sem raios"] ;
14 -> 16 ;
17 [label="gini = 0.0\nsamples = 32\nvalue = [32, 0]\nclass = com raios"] ;
13 -> 17 ;
18 [label="ttvil <= 6.79\ngini = 0.172\nsamples = 21\nvalue = [19, 2]\nclass = com raios"] ;
8 -> 18 ;
19 [label="ttvil <= 6.36\ngini = 0.408\nsamples = 7\nvalue = [5, 2]\nclass = com raios"] ;
18 -> 19 ;
20 [label="ttvil <= 5.345\ngini = 0.278\nsamples = 6\nvalue = [5, 1]\nclass = com raios"] ;
19 -> 20 ;
21 [label="maxz <= 27.83\ngini = 0.5\nsamples = 2\nvalue = [1, 1]\nclass = com raios"] ;
20 -> 21 ;
22 [label="gini = 0.0\nsamples = 1\nvalue = [0, 1]\nclass = sem raios"] ;
21 -> 22 ;
23 [label="gini = 0.0\nsamples = 1\nvalue = [1, 0]\nclass = com raios"] ;
21 -> 23 ;
24 [label="gini = 0.0\nsamples = 4\nvalue = [4, 0]\nclass = com raios"] ;
20 -> 24 ;
25 [label="gini = 0.0\nsamples = 1\nvalue = [0, 1]\nclass = sem raios"] ;
19 -> 25 ;
26 [label="gini = 0.0\nsamples = 14\nvalue = [14, 0]\nclass = com raios"] ;
18 -> 26 ;
27 [label="meanprec <= 2.125\ngini = 0.203\nsamples = 61\nvalue = [54, 7]\nclass = com raios"] ;
3 -> 27 ;
28 [label="gini = 0.0\nsamples = 1\nvalue = [0, 1]\nclass = sem raios"] ;
27 -> 28 ;
29 [label="ttvil <= 15.455\ngini = 0.18\nsamples = 60\nvalue = [54, 6]\nclass = com raios"] ;
27 -> 29 ;
30 [label="ttvil <= 14.355\ngini = 0.291\nsamples = 34\nvalue = [28, 6]\nclass = com raios"] ;
29 -> 30 ;
31 [label="meanvil <= 0.365\ngini = 0.219\nsamples = 32\nvalue = [28, 4]\nclass = com raios"] ;
30 -> 31 ;
32 [label="gini = 0.0\nsamples = 13\nvalue = [13, 0]\nclass = com raios"] ;
31 -> 32 ;
33 [label="meanvil <= 0.38\ngini = 0.332\nsamples = 19\nvalue = [15, 4]\nclass = com raios"] ;
31 -> 33 ;
34 [label="gini = 0.0\nsamples = 1\nvalue = [0, 1]\nclass = sem raios"] ;
33 -> 34 ;
35 [label="ttvil <= 4.925\ngini = 0.278\nsamples = 18\nvalue = [15, 3]\nclass = com raios"] ;
33 -> 35 ;
36 [label="gini = 0.0\nsamples = 1\nvalue = [0, 1]\nclass = sem raios"] ;
35 -> 36 ;
37 [label="maxz <= 32.55\ngini = 0.208\nsamples = 17\nvalue = [15, 2]\nclass = com raios"] ;
35 -> 37 ;
38 [label="gini = 0.0\nsamples = 12\nvalue = [12, 0]\nclass = com raios"] ;
37 -> 38 ;
39 [label="ttvil <= 9.015\ngini = 0.48\nsamples = 5\nvalue = [3, 2]\nclass = com raios"] ;
37 -> 39 ;
40 [label="gini = 0.0\nsamples = 3\nvalue = [3, 0]\nclass = com raios"] ;
39 -> 40 ;
41 [label="gini = 0.0\nsamples = 2\nvalue = [0, 2]\nclass = sem raios"] ;
39 -> 41 ;
42 [label="gini = 0.0\nsamples = 2\nvalue = [0, 2]\nclass = sem raios"] ;
30 -> 42 ;
43 [label="gini = 0.0\nsamples = 26\nvalue = [26, 0]\nclass = com raios"] ;
29 -> 43 ;
44 [label="maxprec <= 1.17\ngini = 0.335\nsamples = 61\nvalue = [48, 13]\nclass = com raios"] ;
2 -> 44 ;
45 [label="meanz <= 20.995\ngini = 0.444\nsamples = 3\nvalue = [1, 2]\nclass = sem raios"] ;
44 -> 45 ;
46 [label="gini = 0.0\nsamples = 1\nvalue = [1, 0]\nclass = com raios"] ;
45 -> 46 ;
47 [label="gini = 0.0\nsamples = 2\nvalue = [0, 2]\nclass = sem raios"] ;
45 -> 47 ;
48 [label="strafrac <= 82.29\ngini = 0.307\nsamples = 58\nvalue = [47, 11]\nclass = com raios"] ;
44 -> 48 ;
49 [label="meanz <= 23.975\ngini = 0.444\nsamples = 3\nvalue = [1, 2]\nclass = sem raios"] ;
48 -> 49 ;
50 [label="gini = 0.0\nsamples = 2\nvalue = [0, 2]\nclass = sem raios"] ;
49 -> 50 ;
51 [label="gini = 0.0\nsamples = 1\nvalue = [1, 0]\nclass = com raios"] ;
49 -> 51 ;
52 [label="ttvil <= 2.675\ngini = 0.274\nsamples = 55\nvalue = [46, 9]\nclass = com raios"] ;
48 -> 52 ;
53 [label="gini = 0.0\nsamples = 1\nvalue = [0, 1]\nclass = sem raios"] ;
52 -> 53 ;
54 [label="riverfrac <= 4.835\ngini = 0.252\nsamples = 54\nvalue = [46, 8]\nclass = com raios"] ;
52 -> 54 ;
55 [label="strafrac <= 97.915\ngini = 0.334\nsamples = 33\nvalue = [26, 7]\nclass = com raios"] ;
54 -> 55 ;
56 [label="riverfrac <= 3.445\ngini = 0.278\nsamples = 30\nvalue = [25, 5]\nclass = com raios"] ;
55 -> 56 ;
57 [label="meanprec <= 1.415\ngini = 0.238\nsamples = 29\nvalue = [25, 4]\nclass = com raios"] ;
56 -> 57 ;
58 [label="strafrac <= 84.595\ngini = 0.111\nsamples = 17\nvalue = [16, 1]\nclass = com raios"] ;
57 -> 58 ;
59 [label="maxz <= 23.92\ngini = 0.5\nsamples = 2\nvalue = [1, 1]\nclass = com raios"] ;
58 -> 59 ;
60 [label="gini = 0.0\nsamples = 1\nvalue = [0, 1]\nclass = sem raios"] ;
59 -> 60 ;
61 [label="gini = 0.0\nsamples = 1\nvalue = [1, 0]\nclass = com raios"] ;
59 -> 61 ;
62 [label="gini = 0.0\nsamples = 15\nvalue = [15, 0]\nclass = com raios"] ;
58 -> 62 ;
63 [label="meanprec <= 1.53\ngini = 0.375\nsamples = 12\nvalue = [9, 3]\nclass = com raios"] ;
57 -> 63 ;
64 [label="gini = 0.0\nsamples = 3\nvalue = [0, 3]\nclass = sem raios"] ;
63 -> 64 ;
65 [label="gini = 0.0\nsamples = 9\nvalue = [9, 0]\nclass = com raios"] ;
63 -> 65 ;
66 [label="gini = 0.0\nsamples = 1\nvalue = [0, 1]\nclass = sem raios"] ;
56 -> 66 ;
67 [label="maxprec <= 1.295\ngini = 0.444\nsamples = 3\nvalue = [1, 2]\nclass = sem raios"] ;
55 -> 67 ;
68 [label="gini = 0.0\nsamples = 1\nvalue = [1, 0]\nclass = com raios"] ;
67 -> 68 ;
69 [label="gini = 0.0\nsamples = 2\nvalue = [0, 2]\nclass = sem raios"] ;
67 -> 69 ;
70 [label="riverfrac <= 43.835\ngini = 0.091\nsamples = 21\nvalue = [20, 1]\nclass = com raios"] ;
54 -> 70 ;
71 [label="gini = 0.0\nsamples = 17\nvalue = [17, 0]\nclass = com raios"] ;
70 -> 71 ;
72 [label="riverfrac <= 64.62\ngini = 0.375\nsamples = 4\nvalue = [3, 1]\nclass = com raios"] ;
70 -> 72 ;
73 [label="gini = 0.0\nsamples = 1\nvalue = [0, 1]\nclass = sem raios"] ;
72 -> 73 ;
74 [label="gini = 0.0\nsamples = 3\nvalue = [3, 0]\nclass = com raios"] ;
72 -> 74 ;
75 [label="ttvil <= 29.13\ngini = 0.427\nsamples = 557\nvalue = [385, 172]\nclass = com raios"] ;
1 -> 75 ;
76 [label="riverfrac <= 5.795\ngini = 0.361\nsamples = 266\nvalue = [203, 63]\nclass = com raios"] ;
75 -> 76 ;
77 [label="maxz <= 34.26\ngini = 0.296\nsamples = 183\nvalue = [150, 33]\nclass = com raios"] ;
76 -> 77 ;
78 [label="meanvil <= 0.595\ngini = 0.417\nsamples = 71\nvalue = [50, 21]\nclass = com raios"] ;
77 -> 78 ;
79 [label="meanprec <= 1.75\ngini = 0.287\nsamples = 46\nvalue = [38, 8]\nclass = com raios"] ;
78 -> 79 ;
80 [label="maxprec <= 3.465\ngini = 0.48\nsamples = 5\nvalue = [2, 3]\nclass = sem raios"] ;
79 -> 80 ;
81 [label="gini = 0.0\nsamples = 2\nvalue = [2, 0]\nclass = com raios"] ;
80 -> 81 ;
82 [label="gini = 0.0\nsamples = 3\nvalue = [0, 3]\nclass = sem raios"] ;
80 -> 82 ;
83 [label="maxz <= 31.41\ngini = 0.214\nsamples = 41\nvalue = [36, 5]\nclass = com raios"] ;
79 -> 83 ;
84 [label="gini = 0.0\nsamples = 14\nvalue = [14, 0]\nclass = com raios"] ;
83 -> 84 ;
85 [label="maxprec <= 7.38\ngini = 0.302\nsamples = 27\nvalue = [22, 5]\nclass = com raios"] ;
83 -> 85 ;
86 [label="maxprec <= 7.185\ngini = 0.48\nsamples = 5\nvalue = [2, 3]\nclass = sem raios"] ;
85 -> 86 ;
87 [label="strafrac <= 75.255\ngini = 0.444\nsamples = 3\nvalue = [2, 1]\nclass = com raios"] ;
86 -> 87 ;
88 [label="gini = 0.0\nsamples = 2\nvalue = [2, 0]\nclass = com raios"] ;
87 -> 88 ;
89 [label="gini = 0.0\nsamples = 1\nvalue = [0, 1]\nclass = sem raios"] ;
87 -> 89 ;
90 [label="gini = 0.0\nsamples = 2\nvalue = [0, 2]\nclass = sem raios"] ;
86 -> 90 ;
91 [label="maxprec <= 9.645\ngini = 0.165\nsamples = 22\nvalue = [20, 2]\nclass = com raios"] ;
85 -> 91 ;
92 [label="gini = 0.0\nsamples = 15\nvalue = [15, 0]\nclass = com raios"] ;
91 -> 92 ;
93 [label="strafrac <= 71.715\ngini = 0.408\nsamples = 7\nvalue = [5, 2]\nclass = com raios"] ;
91 -> 93 ;
94 [label="gini = 0.0\nsamples = 4\nvalue = [4, 0]\nclass = com raios"] ;
93 -> 94 ;
95 [label="meanz <= 27.28\ngini = 0.444\nsamples = 3\nvalue = [1, 2]\nclass = sem raios"] ;
93 -> 95 ;
96 [label="gini = 0.0\nsamples = 1\nvalue = [1, 0]\nclass = com raios"] ;
95 -> 96 ;
97 [label="gini = 0.0\nsamples = 2\nvalue = [0, 2]\nclass = sem raios"] ;
95 -> 97 ;
98 [label="ttvil <= 24.06\ngini = 0.499\nsamples = 25\nvalue = [12, 13]\nclass = sem raios"] ;
78 -> 98 ;
99 [label="convfrac <= 36.25\ngini = 0.483\nsamples = 22\nvalue = [9, 13]\nclass = sem raios"] ;
98 -> 99 ;
100 [label="convfrac <= 27.53\ngini = 0.486\nsamples = 12\nvalue = [7, 5]\nclass = com raios"] ;
99 -> 100 ;
101 [label="ttvil <= 10.715\ngini = 0.469\nsamples = 8\nvalue = [3, 5]\nclass = sem raios"] ;
100 -> 101 ;
102 [label="gini = 0.0\nsamples = 1\nvalue = [1, 0]\nclass = com raios"] ;
101 -> 102 ;
103 [label="meanprec <= 2.785\ngini = 0.408\nsamples = 7\nvalue = [2, 5]\nclass = sem raios"] ;
101 -> 103 ;
104 [label="gini = 0.0\nsamples = 4\nvalue = [0, 4]\nclass = sem raios"] ;
103 -> 104 ;
105 [label="maxz <= 33.285\ngini = 0.444\nsamples = 3\nvalue = [2, 1]\nclass = com raios"] ;
103 -> 105 ;
106 [label="gini = 0.0\nsamples = 2\nvalue = [2, 0]\nclass = com raios"] ;
105 -> 106 ;
107 [label="gini = 0.0\nsamples = 1\nvalue = [0, 1]\nclass = sem raios"] ;
105 -> 107 ;
108 [label="gini = 0.0\nsamples = 4\nvalue = [4, 0]\nclass = com raios"] ;
100 -> 108 ;
109 [label="maxz <= 32.895\ngini = 0.32\nsamples = 10\nvalue = [2, 8]\nclass = sem raios"] ;
99 -> 109 ;
110 [label="convfrac <= 60.075\ngini = 0.5\nsamples = 4\nvalue = [2, 2]\nclass = com raios"] ;
109 -> 110 ;
111 [label="gini = 0.0\nsamples = 2\nvalue = [0, 2]\nclass = sem raios"] ;
110 -> 111 ;
112 [label="gini = 0.0\nsamples = 2\nvalue = [2, 0]\nclass = com raios"] ;
110 -> 112 ;
113 [label="gini = 0.0\nsamples = 6\nvalue = [0, 6]\nclass = sem raios"] ;
109 -> 113 ;
114 [label="gini = 0.0\nsamples = 3\nvalue = [3, 0]\nclass = com raios"] ;
98 -> 114 ;
115 [label="meanz <= 28.645\ngini = 0.191\nsamples = 112\nvalue = [100, 12]\nclass = com raios"] ;
77 -> 115 ;
116 [label="riverfrac <= 2.91\ngini = 0.289\nsamples = 40\nvalue = [33, 7]\nclass = com raios"] ;
115 -> 116 ;
117 [label="meanprec <= 3.885\ngini = 0.202\nsamples = 35\nvalue = [31, 4]\nclass = com raios"] ;
116 -> 117 ;
118 [label="ttvil <= 10.805\ngini = 0.074\nsamples = 26\nvalue = [25, 1]\nclass = com raios"] ;
117 -> 118 ;
119 [label="maxprec <= 11.245\ngini = 0.444\nsamples = 3\nvalue = [2, 1]\nclass = com raios"] ;
118 -> 119 ;
120 [label="gini = 0.0\nsamples = 2\nvalue = [2, 0]\nclass = com raios"] ;
119 -> 120 ;
121 [label="gini = 0.0\nsamples = 1\nvalue = [0, 1]\nclass = sem raios"] ;
119 -> 121 ;
122 [label="gini = 0.0\nsamples = 23\nvalue = [23, 0]\nclass = com raios"] ;
118 -> 122 ;
123 [label="maxz <= 35.28\ngini = 0.444\nsamples = 9\nvalue = [6, 3]\nclass = com raios"] ;
117 -> 123 ;
124 [label="gini = 0.0\nsamples = 3\nvalue = [3, 0]\nclass = com raios"] ;
123 -> 124 ;
125 [label="maxprec <= 15.49\ngini = 0.5\nsamples = 6\nvalue = [3, 3]\nclass = com raios"] ;
123 -> 125 ;
126 [label="gini = 0.0\nsamples = 3\nvalue = [0, 3]\nclass = sem raios"] ;
125 -> 126 ;
127 [label="gini = 0.0\nsamples = 3\nvalue = [3, 0]\nclass = com raios"] ;
125 -> 127 ;
128 [label="meanvil <= 0.65\ngini = 0.48\nsamples = 5\nvalue = [2, 3]\nclass = sem raios"] ;
116 -> 128 ;
129 [label="maxprec <= 12.275\ngini = 0.444\nsamples = 3\nvalue = [2, 1]\nclass = com raios"] ;
128 -> 129 ;
130 [label="gini = 0.0\nsamples = 1\nvalue = [0, 1]\nclass = sem raios"] ;
129 -> 130 ;
131 [label="gini = 0.0\nsamples = 2\nvalue = [2, 0]\nclass = com raios"] ;
129 -> 131 ;
132 [label="gini = 0.0\nsamples = 2\nvalue = [0, 2]\nclass = sem raios"] ;
128 -> 132 ;
133 [label="strafrac <= 63.89\ngini = 0.129\nsamples = 72\nvalue = [67, 5]\nclass = com raios"] ;
115 -> 133 ;
134 [label="meanvil <= 1.385\ngini = 0.042\nsamples = 47\nvalue = [46, 1]\nclass = com raios"] ;
133 -> 134 ;
135 [label="gini = 0.0\nsamples = 37\nvalue = [37, 0]\nclass = com raios"] ;
134 -> 135 ;
136 [label="ttvil <= 18.455\ngini = 0.18\nsamples = 10\nvalue = [9, 1]\nclass = com raios"] ;
134 -> 136 ;
137 [label="gini = 0.0\nsamples = 1\nvalue = [0, 1]\nclass = sem raios"] ;
136 -> 137 ;
138 [label="gini = 0.0\nsamples = 9\nvalue = [9, 0]\nclass = com raios"] ;
136 -> 138 ;
139 [label="ttvil <= 24.035\ngini = 0.269\nsamples = 25\nvalue = [21, 4]\nclass = com raios"] ;
133 -> 139 ;
140 [label="strafrac <= 68.335\ngini = 0.105\nsamples = 18\nvalue = [17, 1]\nclass = com raios"] ;
139 -> 140 ;
141 [label="maxz <= 37.205\ngini = 0.5\nsamples = 2\nvalue = [1, 1]\nclass = com raios"] ;
140 -> 141 ;
142 [label="gini = 0.0\nsamples = 1\nvalue = [1, 0]\nclass = com raios"] ;
141 -> 142 ;
143 [label="gini = 0.0\nsamples = 1\nvalue = [0, 1]\nclass = sem raios"] ;
141 -> 143 ;
144 [label="gini = 0.0\nsamples = 16\nvalue = [16, 0]\nclass = com raios"] ;
140 -> 144 ;
145 [label="meanprec <= 4.765\ngini = 0.49\nsamples = 7\nvalue = [4, 3]\nclass = com raios"] ;
139 -> 145 ;
146 [label="gini = 0.0\nsamples = 3\nvalue = [3, 0]\nclass = com raios"] ;
145 -> 146 ;
147 [label="convfrac <= 30.665\ngini = 0.375\nsamples = 4\nvalue = [1, 3]\nclass = sem raios"] ;
145 -> 147 ;
148 [label="gini = 0.0\nsamples = 3\nvalue = [0, 3]\nclass = sem raios"] ;
147 -> 148 ;
149 [label="gini = 0.0\nsamples = 1\nvalue = [1, 0]\nclass = com raios"] ;
147 -> 149 ;
150 [label="riverfrac <= 7.505\ngini = 0.462\nsamples = 83\nvalue = [53, 30]\nclass = com raios"] ;
76 -> 150 ;
151 [label="gini = 0.0\nsamples = 7\nvalue = [0, 7]\nclass = sem raios"] ;
150 -> 151 ;
152 [label="strafrac <= 67.16\ngini = 0.422\nsamples = 76\nvalue = [53, 23]\nclass = com raios"] ;
150 -> 152 ;
153 [label="riverfrac <= 17.5\ngini = 0.303\nsamples = 43\nvalue = [35, 8]\nclass = com raios"] ;
152 -> 153 ;
154 [label="riverfrac <= 11.515\ngini = 0.494\nsamples = 9\nvalue = [5, 4]\nclass = com raios"] ;
153 -> 154 ;
155 [label="gini = 0.0\nsamples = 4\nvalue = [4, 0]\nclass = com raios"] ;
154 -> 155 ;
156 [label="meanz <= 26.685\ngini = 0.32\nsamples = 5\nvalue = [1, 4]\nclass = sem raios"] ;
154 -> 156 ;
157 [label="gini = 0.0\nsamples = 1\nvalue = [1, 0]\nclass = com raios"] ;
156 -> 157 ;
158 [label="gini = 0.0\nsamples = 4\nvalue = [0, 4]\nclass = sem raios"] ;
156 -> 158 ;
159 [label="maxprec <= 4.42\ngini = 0.208\nsamples = 34\nvalue = [30, 4]\nclass = com raios"] ;
153 -> 159 ;
160 [label="gini = 0.0\nsamples = 1\nvalue = [0, 1]\nclass = sem raios"] ;
159 -> 160 ;
161 [label="riverfrac <= 45.705\ngini = 0.165\nsamples = 33\nvalue = [30, 3]\nclass = com raios"] ;
159 -> 161 ;
162 [label="gini = 0.0\nsamples = 17\nvalue = [17, 0]\nclass = com raios"] ;
161 -> 162 ;
163 [label="riverfrac <= 55.76\ngini = 0.305\nsamples = 16\nvalue = [13, 3]\nclass = com raios"] ;
161 -> 163 ;
164 [label="maxz <= 36.525\ngini = 0.48\nsamples = 5\nvalue = [2, 3]\nclass = sem raios"] ;
163 -> 164 ;
165 [label="gini = 0.0\nsamples = 2\nvalue = [0, 2]\nclass = sem raios"] ;
164 -> 165 ;
166 [label="strafrac <= 21.875\ngini = 0.444\nsamples = 3\nvalue = [2, 1]\nclass = com raios"] ;
164 -> 166 ;
167 [label="gini = 0.0\nsamples = 1\nvalue = [0, 1]\nclass = sem raios"] ;
166 -> 167 ;
168 [label="gini = 0.0\nsamples = 2\nvalue = [2, 0]\nclass = com raios"] ;
166 -> 168 ;
169 [label="gini = 0.0\nsamples = 11\nvalue = [11, 0]\nclass = com raios"] ;
163 -> 169 ;
170 [label="ttvil <= 18.965\ngini = 0.496\nsamples = 33\nvalue = [18, 15]\nclass = com raios"] ;
152 -> 170 ;
171 [label="riverfrac <= 11.035\ngini = 0.423\nsamples = 23\nvalue = [16, 7]\nclass = com raios"] ;
170 -> 171 ;
172 [label="riverfrac <= 10.395\ngini = 0.49\nsamples = 7\nvalue = [3, 4]\nclass = sem raios"] ;
171 -> 172 ;
173 [label="meanvil <= 0.635\ngini = 0.48\nsamples = 5\nvalue = [3, 2]\nclass = com raios"] ;
172 -> 173 ;
174 [label="gini = 0.0\nsamples = 2\nvalue = [2, 0]\nclass = com raios"] ;
173 -> 174 ;
175 [label="meanvil <= 0.985\ngini = 0.444\nsamples = 3\nvalue = [1, 2]\nclass = sem raios"] ;
173 -> 175 ;
176 [label="gini = 0.0\nsamples = 2\nvalue = [0, 2]\nclass = sem raios"] ;
175 -> 176 ;
177 [label="gini = 0.0\nsamples = 1\nvalue = [1, 0]\nclass = com raios"] ;
175 -> 177 ;
178 [label="gini = 0.0\nsamples = 2\nvalue = [0, 2]\nclass = sem raios"] ;
172 -> 178 ;
179 [label="maxz <= 37.185\ngini = 0.305\nsamples = 16\nvalue = [13, 3]\nclass = com raios"] ;
171 -> 179 ;
180 [label="strafrac <= 74.04\ngini = 0.133\nsamples = 14\nvalue = [13, 1]\nclass = com raios"] ;
179 -> 180 ;
181 [label="strafrac <= 72.255\ngini = 0.5\nsamples = 2\nvalue = [1, 1]\nclass = com raios"] ;
180 -> 181 ;
182 [label="gini = 0.0\nsamples = 1\nvalue = [1, 0]\nclass = com raios"] ;
181 -> 182 ;
183 [label="gini = 0.0\nsamples = 1\nvalue = [0, 1]\nclass = sem raios"] ;
181 -> 183 ;
184 [label="gini = 0.0\nsamples = 12\nvalue = [12, 0]\nclass = com raios"] ;
180 -> 184 ;
185 [label="gini = 0.0\nsamples = 2\nvalue = [0, 2]\nclass = sem raios"] ;
179 -> 185 ;
186 [label="riverfrac <= 10.555\ngini = 0.32\nsamples = 10\nvalue = [2, 8]\nclass = sem raios"] ;
170 -> 186 ;
187 [label="gini = 0.0\nsamples = 1\nvalue = [1, 0]\nclass = com raios"] ;
186 -> 187 ;
188 [label="riverfrac <= 92.65\ngini = 0.198\nsamples = 9\nvalue = [1, 8]\nclass = sem raios"] ;
186 -> 188 ;
189 [label="gini = 0.0\nsamples = 8\nvalue = [0, 8]\nclass = sem raios"] ;
188 -> 189 ;
190 [label="gini = 0.0\nsamples = 1\nvalue = [1, 0]\nclass = com raios"] ;
188 -> 190 ;
191 [label="maxprec <= 18.3\ngini = 0.469\nsamples = 291\nvalue = [182, 109]\nclass = com raios"] ;
75 -> 191 ;
192 [label="strafrac <= 31.26\ngini = 0.488\nsamples = 57\nvalue = [24, 33]\nclass = sem raios"] ;
191 -> 192 ;
193 [label="meanvil <= 0.5\ngini = 0.153\nsamples = 12\nvalue = [1, 11]\nclass = sem raios"] ;
192 -> 193 ;
194 [label="convfrac <= 81.4\ngini = 0.5\nsamples = 2\nvalue = [1, 1]\nclass = com raios"] ;
193 -> 194 ;
195 [label="gini = 0.0\nsamples = 1\nvalue = [0, 1]\nclass = sem raios"] ;
194 -> 195 ;
196 [label="gini = 0.0\nsamples = 1\nvalue = [1, 0]\nclass = com raios"] ;
194 -> 196 ;
197 [label="gini = 0.0\nsamples = 10\nvalue = [0, 10]\nclass = sem raios"] ;
193 -> 197 ;
198 [label="ttvil <= 31.09\ngini = 0.5\nsamples = 45\nvalue = [23, 22]\nclass = com raios"] ;
192 -> 198 ;
199 [label="gini = 0.0\nsamples = 4\nvalue = [0, 4]\nclass = sem raios"] ;
198 -> 199 ;
200 [label="ttvil <= 35.4\ngini = 0.493\nsamples = 41\nvalue = [23, 18]\nclass = com raios"] ;
198 -> 200 ;
201 [label="maxprec <= 16.88\ngini = 0.278\nsamples = 12\nvalue = [10, 2]\nclass = com raios"] ;
200 -> 201 ;
202 [label="gini = 0.0\nsamples = 9\nvalue = [9, 0]\nclass = com raios"] ;
201 -> 202 ;
203 [label="ttvil <= 32.86\ngini = 0.444\nsamples = 3\nvalue = [1, 2]\nclass = sem raios"] ;
201 -> 203 ;
204 [label="gini = 0.0\nsamples = 2\nvalue = [0, 2]\nclass = sem raios"] ;
203 -> 204 ;
205 [label="gini = 0.0\nsamples = 1\nvalue = [1, 0]\nclass = com raios"] ;
203 -> 205 ;
206 [label="riverfrac <= 9.755\ngini = 0.495\nsamples = 29\nvalue = [13, 16]\nclass = sem raios"] ;
200 -> 206 ;
207 [label="riverfrac <= 0.88\ngini = 0.488\nsamples = 19\nvalue = [11, 8]\nclass = com raios"] ;
206 -> 207 ;
208 [label="ttvil <= 40.81\ngini = 0.463\nsamples = 11\nvalue = [4, 7]\nclass = sem raios"] ;
207 -> 208 ;
209 [label="gini = 0.0\nsamples = 2\nvalue = [2, 0]\nclass = com raios"] ;
208 -> 209 ;
210 [label="meanz <= 28.315\ngini = 0.346\nsamples = 9\nvalue = [2, 7]\nclass = sem raios"] ;
208 -> 210 ;
211 [label="meanvil <= 0.56\ngini = 0.219\nsamples = 8\nvalue = [1, 7]\nclass = sem raios"] ;
210 -> 211 ;
212 [label="gini = 0.0\nsamples = 5\nvalue = [0, 5]\nclass = sem raios"] ;
211 -> 212 ;
213 [label="maxz <= 33.485\ngini = 0.444\nsamples = 3\nvalue = [1, 2]\nclass = sem raios"] ;
211 -> 213 ;
214 [label="gini = 0.0\nsamples = 1\nvalue = [1, 0]\nclass = com raios"] ;
213 -> 214 ;
215 [label="gini = 0.0\nsamples = 2\nvalue = [0, 2]\nclass = sem raios"] ;
213 -> 215 ;
216 [label="gini = 0.0\nsamples = 1\nvalue = [1, 0]\nclass = com raios"] ;
210 -> 216 ;
217 [label="maxprec <= 3.01\ngini = 0.219\nsamples = 8\nvalue = [7, 1]\nclass = com raios"] ;
207 -> 217 ;
218 [label="gini = 0.0\nsamples = 1\nvalue = [0, 1]\nclass = sem raios"] ;
217 -> 218 ;
219 [label="gini = 0.0\nsamples = 7\nvalue = [7, 0]\nclass = com raios"] ;
217 -> 219 ;
220 [label="riverfrac <= 21.29\ngini = 0.32\nsamples = 10\nvalue = [2, 8]\nclass = sem raios"] ;
206 -> 220 ;
221 [label="ttvil <= 81.39\ngini = 0.198\nsamples = 9\nvalue = [1, 8]\nclass = sem raios"] ;
220 -> 221 ;
222 [label="gini = 0.0\nsamples = 7\nvalue = [0, 7]\nclass = sem raios"] ;
221 -> 222 ;
223 [label="meanprec <= 3.36\ngini = 0.5\nsamples = 2\nvalue = [1, 1]\nclass = com raios"] ;
221 -> 223 ;
224 [label="gini = 0.0\nsamples = 1\nvalue = [1, 0]\nclass = com raios"] ;
223 -> 224 ;
225 [label="gini = 0.0\nsamples = 1\nvalue = [0, 1]\nclass = sem raios"] ;
223 -> 225 ;
226 [label="gini = 0.0\nsamples = 1\nvalue = [1, 0]\nclass = com raios"] ;
220 -> 226 ;
227 [label="convfrac <= 97.37\ngini = 0.439\nsamples = 234\nvalue = [158, 76]\nclass = com raios"] ;
191 -> 227 ;
228 [label="convfrac <= 64.175\ngini = 0.461\nsamples = 205\nvalue = [131, 74]\nclass = com raios"] ;
227 -> 228 ;
229 [label="strafrac <= 56.35\ngini = 0.434\nsamples = 157\nvalue = [107, 50]\nclass = com raios"] ;
228 -> 229 ;
230 [label="meanz <= 29.515\ngini = 0.271\nsamples = 31\nvalue = [26, 5]\nclass = com raios"] ;
229 -> 230 ;
231 [label="convfrac <= 46.795\ngini = 0.5\nsamples = 6\nvalue = [3, 3]\nclass = com raios"] ;
230 -> 231 ;
232 [label="gini = 0.0\nsamples = 3\nvalue = [3, 0]\nclass = com raios"] ;
231 -> 232 ;
233 [label="gini = 0.0\nsamples = 3\nvalue = [0, 3]\nclass = sem raios"] ;
231 -> 233 ;
234 [label="ttvil <= 82.915\ngini = 0.147\nsamples = 25\nvalue = [23, 2]\nclass = com raios"] ;
230 -> 234 ;
235 [label="maxprec <= 39.29\ngini = 0.083\nsamples = 23\nvalue = [22, 1]\nclass = com raios"] ;
234 -> 235 ;
236 [label="meanprec <= 8.97\ngini = 0.32\nsamples = 5\nvalue = [4, 1]\nclass = com raios"] ;
235 -> 236 ;
237 [label="gini = 0.0\nsamples = 4\nvalue = [4, 0]\nclass = com raios"] ;
236 -> 237 ;
238 [label="gini = 0.0\nsamples = 1\nvalue = [0, 1]\nclass = sem raios"] ;
236 -> 238 ;
239 [label="gini = 0.0\nsamples = 18\nvalue = [18, 0]\nclass = com raios"] ;
235 -> 239 ;
240 [label="maxz <= 45.79\ngini = 0.5\nsamples = 2\nvalue = [1, 1]\nclass = com raios"] ;
234 -> 240 ;
241 [label="gini = 0.0\nsamples = 1\nvalue = [1, 0]\nclass = com raios"] ;
240 -> 241 ;
242 [label="gini = 0.0\nsamples = 1\nvalue = [0, 1]\nclass = sem raios"] ;
240 -> 242 ;
243 [label="meanprec <= 14.74\ngini = 0.459\nsamples = 126\nvalue = [81, 45]\nclass = com raios"] ;
229 -> 243 ;
244 [label="convfrac <= 42.64\ngini = 0.45\nsamples = 123\nvalue = [81, 42]\nclass = com raios"] ;
243 -> 244 ;
245 [label="ttvil <= 30.585\ngini = 0.443\nsamples = 121\nvalue = [81, 40]\nclass = com raios"] ;
244 -> 245 ;
246 [label="gini = 0.0\nsamples = 6\nvalue = [6, 0]\nclass = com raios"] ;
245 -> 246 ;
247 [label="maxprec <= 40.94\ngini = 0.454\nsamples = 115\nvalue = [75, 40]\nclass = com raios"] ;
245 -> 247 ;
248 [label="ttvil <= 64.79\ngini = 0.483\nsamples = 66\nvalue = [39, 27]\nclass = com raios"] ;
247 -> 248 ;
249 [label="convfrac <= 22.19\ngini = 0.444\nsamples = 54\nvalue = [36, 18]\nclass = com raios"] ;
248 -> 249 ;
250 [label="maxprec <= 23.43\ngini = 0.5\nsamples = 20\nvalue = [10, 10]\nclass = com raios"] ;
249 -> 250 ;
251 [label="meanvil <= 0.855\ngini = 0.346\nsamples = 9\nvalue = [2, 7]\nclass = sem raios"] ;
250 -> 251 ;
252 [label="gini = 0.0\nsamples = 5\nvalue = [0, 5]\nclass = sem raios"] ;
251 -> 252 ;
253 [label="riverfrac <= 4.84\ngini = 0.5\nsamples = 4\nvalue = [2, 2]\nclass = com raios"] ;
251 -> 253 ;
254 [label="gini = 0.0\nsamples = 2\nvalue = [0, 2]\nclass = sem raios"] ;
253 -> 254 ;
255 [label="gini = 0.0\nsamples = 2\nvalue = [2, 0]\nclass = com raios"] ;
253 -> 255 ;
256 [label="maxprec <= 36.285\ngini = 0.397\nsamples = 11\nvalue = [8, 3]\nclass = com raios"] ;
250 -> 256 ;
257 [label="riverfrac <= 18.625\ngini = 0.198\nsamples = 9\nvalue = [8, 1]\nclass = com raios"] ;
256 -> 257 ;
258 [label="gini = 0.0\nsamples = 8\nvalue = [8, 0]\nclass = com raios"] ;
257 -> 258 ;
259 [label="gini = 0.0\nsamples = 1\nvalue = [0, 1]\nclass = sem raios"] ;
257 -> 259 ;
260 [label="gini = 0.0\nsamples = 2\nvalue = [0, 2]\nclass = sem raios"] ;
256 -> 260 ;
261 [label="maxprec <= 22.015\ngini = 0.36\nsamples = 34\nvalue = [26, 8]\nclass = com raios"] ;
249 -> 261 ;
262 [label="gini = 0.0\nsamples = 9\nvalue = [9, 0]\nclass = com raios"] ;
261 -> 262 ;
263 [label="meanprec <= 4.915\ngini = 0.435\nsamples = 25\nvalue = [17, 8]\nclass = com raios"] ;
261 -> 263 ;
264 [label="strafrac <= 74.04\ngini = 0.444\nsamples = 9\nvalue = [3, 6]\nclass = sem raios"] ;
263 -> 264 ;
265 [label="ttvil <= 59.87\ngini = 0.245\nsamples = 7\nvalue = [1, 6]\nclass = sem raios"] ;
264 -> 265 ;
266 [label="gini = 0.0\nsamples = 6\nvalue = [0, 6]\nclass = sem raios"] ;
265 -> 266 ;
267 [label="gini = 0.0\nsamples = 1\nvalue = [1, 0]\nclass = com raios"] ;
265 -> 267 ;
268 [label="gini = 0.0\nsamples = 2\nvalue = [2, 0]\nclass = com raios"] ;
264 -> 268 ;
269 [label="convfrac <= 24.795\ngini = 0.219\nsamples = 16\nvalue = [14, 2]\nclass = com raios"] ;
263 -> 269 ;
270 [label="gini = 0.0\nsamples = 1\nvalue = [0, 1]\nclass = sem raios"] ;
269 -> 270 ;
271 [label="meanprec <= 8.41\ngini = 0.124\nsamples = 15\nvalue = [14, 1]\nclass = com raios"] ;
269 -> 271 ;
272 [label="gini = 0.0\nsamples = 13\nvalue = [13, 0]\nclass = com raios"] ;
271 -> 272 ;
273 [label="ttvil <= 43.09\ngini = 0.5\nsamples = 2\nvalue = [1, 1]\nclass = com raios"] ;
271 -> 273 ;
274 [label="gini = 0.0\nsamples = 1\nvalue = [0, 1]\nclass = sem raios"] ;
273 -> 274 ;
275 [label="gini = 0.0\nsamples = 1\nvalue = [1, 0]\nclass = com raios"] ;
273 -> 275 ;
276 [label="maxz <= 39.01\ngini = 0.375\nsamples = 12\nvalue = [3, 9]\nclass = sem raios"] ;
248 -> 276 ;
277 [label="gini = 0.0\nsamples = 2\nvalue = [2, 0]\nclass = com raios"] ;
276 -> 277 ;
278 [label="strafrac <= 60.77\ngini = 0.18\nsamples = 10\nvalue = [1, 9]\nclass = sem raios"] ;
276 -> 278 ;
279 [label="maxz <= 42.445\ngini = 0.5\nsamples = 2\nvalue = [1, 1]\nclass = com raios"] ;
278 -> 279 ;
280 [label="gini = 0.0\nsamples = 1\nvalue = [0, 1]\nclass = sem raios"] ;
279 -> 280 ;
281 [label="gini = 0.0\nsamples = 1\nvalue = [1, 0]\nclass = com raios"] ;
279 -> 281 ;
282 [label="gini = 0.0\nsamples = 8\nvalue = [0, 8]\nclass = sem raios"] ;
278 -> 282 ;
283 [label="maxz <= 44.89\ngini = 0.39\nsamples = 49\nvalue = [36, 13]\nclass = com raios"] ;
247 -> 283 ;
284 [label="riverfrac <= 43.81\ngini = 0.219\nsamples = 24\nvalue = [21, 3]\nclass = com raios"] ;
283 -> 284 ;
285 [label="meanvil <= 1.975\ngini = 0.159\nsamples = 23\nvalue = [21, 2]\nclass = com raios"] ;
284 -> 285 ;
286 [label="ttvil <= 71.465\ngini = 0.087\nsamples = 22\nvalue = [21, 1]\nclass = com raios"] ;
285 -> 286 ;
287 [label="gini = 0.0\nsamples = 16\nvalue = [16, 0]\nclass = com raios"] ;
286 -> 287 ;
288 [label="ttvil <= 74.075\ngini = 0.278\nsamples = 6\nvalue = [5, 1]\nclass = com raios"] ;
286 -> 288 ;
289 [label="gini = 0.0\nsamples = 1\nvalue = [0, 1]\nclass = sem raios"] ;
288 -> 289 ;
290 [label="gini = 0.0\nsamples = 5\nvalue = [5, 0]\nclass = com raios"] ;
288 -> 290 ;
291 [label="gini = 0.0\nsamples = 1\nvalue = [0, 1]\nclass = sem raios"] ;
285 -> 291 ;
292 [label="gini = 0.0\nsamples = 1\nvalue = [0, 1]\nclass = sem raios"] ;
284 -> 292 ;
293 [label="ttvil <= 65.795\ngini = 0.48\nsamples = 25\nvalue = [15, 10]\nclass = com raios"] ;
283 -> 293 ;
294 [label="meanz <= 35.575\ngini = 0.397\nsamples = 11\nvalue = [3, 8]\nclass = sem raios"] ;
293 -> 294 ;
295 [label="gini = 0.0\nsamples = 8\nvalue = [0, 8]\nclass = sem raios"] ;
294 -> 295 ;
296 [label="gini = 0.0\nsamples = 3\nvalue = [3, 0]\nclass = com raios"] ;
294 -> 296 ;
297 [label="riverfrac <= 18.15\ngini = 0.245\nsamples = 14\nvalue = [12, 2]\nclass = com raios"] ;
293 -> 297 ;
298 [label="gini = 0.0\nsamples = 12\nvalue = [12, 0]\nclass = com raios"] ;
297 -> 298 ;
299 [label="gini = 0.0\nsamples = 2\nvalue = [0, 2]\nclass = sem raios"] ;
297 -> 299 ;
300 [label="gini = 0.0\nsamples = 2\nvalue = [0, 2]\nclass = sem raios"] ;
244 -> 300 ;
301 [label="gini = 0.0\nsamples = 3\nvalue = [0, 3]\nclass = sem raios"] ;
243 -> 301 ;
302 [label="meanvil <= 0.805\ngini = 0.5\nsamples = 48\nvalue = [24, 24]\nclass = com raios"] ;
228 -> 302 ;
303 [label="gini = 0.0\nsamples = 7\nvalue = [7, 0]\nclass = com raios"] ;
302 -> 303 ;
304 [label="maxz <= 45.75\ngini = 0.485\nsamples = 41\nvalue = [17, 24]\nclass = sem raios"] ;
302 -> 304 ;
305 [label="riverfrac <= 62.815\ngini = 0.42\nsamples = 30\nvalue = [9, 21]\nclass = sem raios"] ;
304 -> 305 ;
306 [label="strafrac <= 22.05\ngini = 0.375\nsamples = 28\nvalue = [7, 21]\nclass = sem raios"] ;
305 -> 306 ;
307 [label="meanprec <= 8.53\ngini = 0.465\nsamples = 19\nvalue = [7, 12]\nclass = sem raios"] ;
306 -> 307 ;
308 [label="meanz <= 29.895\ngini = 0.444\nsamples = 6\nvalue = [4, 2]\nclass = com raios"] ;
307 -> 308 ;
309 [label="gini = 0.0\nsamples = 2\nvalue = [0, 2]\nclass = sem raios"] ;
308 -> 309 ;
310 [label="gini = 0.0\nsamples = 4\nvalue = [4, 0]\nclass = com raios"] ;
308 -> 310 ;
311 [label="riverfrac <= 10.155\ngini = 0.355\nsamples = 13\nvalue = [3, 10]\nclass = sem raios"] ;
307 -> 311 ;
312 [label="gini = 0.0\nsamples = 6\nvalue = [0, 6]\nclass = sem raios"] ;
311 -> 312 ;
313 [label="meanvil <= 1.655\ngini = 0.49\nsamples = 7\nvalue = [3, 4]\nclass = sem raios"] ;
311 -> 313 ;
314 [label="gini = 0.0\nsamples = 2\nvalue = [2, 0]\nclass = com raios"] ;
313 -> 314 ;
315 [label="convfrac <= 93.055\ngini = 0.32\nsamples = 5\nvalue = [1, 4]\nclass = sem raios"] ;
313 -> 315 ;
316 [label="gini = 0.0\nsamples = 4\nvalue = [0, 4]\nclass = sem raios"] ;
315 -> 316 ;
317 [label="gini = 0.0\nsamples = 1\nvalue = [1, 0]\nclass = com raios"] ;
315 -> 317 ;
318 [label="gini = 0.0\nsamples = 9\nvalue = [0, 9]\nclass = sem raios"] ;
306 -> 318 ;
319 [label="gini = 0.0\nsamples = 2\nvalue = [2, 0]\nclass = com raios"] ;
305 -> 319 ;
320 [label="strafrac <= 4.38\ngini = 0.397\nsamples = 11\nvalue = [8, 3]\nclass = com raios"] ;
304 -> 320 ;
321 [label="gini = 0.0\nsamples = 1\nvalue = [0, 1]\nclass = sem raios"] ;
320 -> 321 ;
322 [label="strafrac <= 19.155\ngini = 0.32\nsamples = 10\nvalue = [8, 2]\nclass = com raios"] ;
320 -> 322 ;
323 [label="maxz <= 47.53\ngini = 0.444\nsamples = 6\nvalue = [4, 2]\nclass = com raios"] ;
322 -> 323 ;
324 [label="maxprec <= 75.59\ngini = 0.32\nsamples = 5\nvalue = [4, 1]\nclass = com raios"] ;
323 -> 324 ;
325 [label="gini = 0.0\nsamples = 2\nvalue = [2, 0]\nclass = com raios"] ;
324 -> 325 ;
326 [label="meanprec <= 15.88\ngini = 0.444\nsamples = 3\nvalue = [2, 1]\nclass = com raios"] ;
324 -> 326 ;
327 [label="gini = 0.0\nsamples = 1\nvalue = [0, 1]\nclass = sem raios"] ;
326 -> 327 ;
328 [label="gini = 0.0\nsamples = 2\nvalue = [2, 0]\nclass = com raios"] ;
326 -> 328 ;
329 [label="gini = 0.0\nsamples = 1\nvalue = [0, 1]\nclass = sem raios"] ;
323 -> 329 ;
330 [label="gini = 0.0\nsamples = 4\nvalue = [4, 0]\nclass = com raios"] ;
322 -> 330 ;
331 [label="riverfrac <= 46.115\ngini = 0.128\nsamples = 29\nvalue = [27, 2]\nclass = com raios"] ;
227 -> 331 ;
332 [label="meanz <= 37.325\ngini = 0.074\nsamples = 26\nvalue = [25, 1]\nclass = com raios"] ;
331 -> 332 ;
333 [label="gini = 0.0\nsamples = 20\nvalue = [20, 0]\nclass = com raios"] ;
332 -> 333 ;
334 [label="meanprec <= 19.015\ngini = 0.278\nsamples = 6\nvalue = [5, 1]\nclass = com raios"] ;
332 -> 334 ;
335 [label="gini = 0.0\nsamples = 1\nvalue = [0, 1]\nclass = sem raios"] ;
334 -> 335 ;
336 [label="gini = 0.0\nsamples = 5\nvalue = [5, 0]\nclass = com raios"] ;
334 -> 336 ;
337 [label="meanvil <= 1.85\ngini = 0.444\nsamples = 3\nvalue = [2, 1]\nclass = com raios"] ;
331 -> 337 ;
338 [label="gini = 0.0\nsamples = 1\nvalue = [0, 1]\nclass = sem raios"] ;
337 -> 338 ;
339 [label="gini = 0.0\nsamples = 2\nvalue = [2, 0]\nclass = com raios"] ;
337 -> 339 ;
340 [label="meanvil <= 1.425\ngini = 0.3\nsamples = 739\nvalue = [136, 603]\nclass = sem raios"] ;
0 -> 340 [labeldistance=2.5, labelangle=-45, headlabel="False"] ;
341 [label="strafrac <= 72.435\ngini = 0.488\nsamples = 187\nvalue = [79, 108]\nclass = sem raios"] ;
340 -> 341 ;
342 [label="ttvil <= 519.635\ngini = 0.486\nsamples = 96\nvalue = [56, 40]\nclass = com raios"] ;
341 -> 342 ;
343 [label="riverfrac <= 23.5\ngini = 0.452\nsamples = 81\nvalue = [53, 28]\nclass = com raios"] ;
342 -> 343 ;
344 [label="meanvil <= 1.29\ngini = 0.403\nsamples = 68\nvalue = [49, 19]\nclass = com raios"] ;
343 -> 344 ;
345 [label="maxprec <= 75.51\ngini = 0.32\nsamples = 55\nvalue = [44, 11]\nclass = com raios"] ;
344 -> 345 ;
346 [label="convfrac <= 29.76\ngini = 0.405\nsamples = 39\nvalue = [28, 11]\nclass = com raios"] ;
345 -> 346 ;
347 [label="maxz <= 44.3\ngini = 0.408\nsamples = 7\nvalue = [2, 5]\nclass = sem raios"] ;
346 -> 347 ;
348 [label="gini = 0.0\nsamples = 2\nvalue = [2, 0]\nclass = com raios"] ;
347 -> 348 ;
349 [label="gini = 0.0\nsamples = 5\nvalue = [0, 5]\nclass = sem raios"] ;
347 -> 349 ;
350 [label="riverfrac <= 7.02\ngini = 0.305\nsamples = 32\nvalue = [26, 6]\nclass = com raios"] ;
346 -> 350 ;
351 [label="ttvil <= 346.015\ngini = 0.159\nsamples = 23\nvalue = [21, 2]\nclass = com raios"] ;
350 -> 351 ;
352 [label="maxprec <= 11.17\ngini = 0.091\nsamples = 21\nvalue = [20, 1]\nclass = com raios"] ;
351 -> 352 ;
353 [label="meanz <= 25.33\ngini = 0.5\nsamples = 2\nvalue = [1, 1]\nclass = com raios"] ;
352 -> 353 ;
354 [label="gini = 0.0\nsamples = 1\nvalue = [1, 0]\nclass = com raios"] ;
353 -> 354 ;
355 [label="gini = 0.0\nsamples = 1\nvalue = [0, 1]\nclass = sem raios"] ;
353 -> 355 ;
356 [label="gini = 0.0\nsamples = 19\nvalue = [19, 0]\nclass = com raios"] ;
352 -> 356 ;
357 [label="ttvil <= 380.67\ngini = 0.5\nsamples = 2\nvalue = [1, 1]\nclass = com raios"] ;
351 -> 357 ;
358 [label="gini = 0.0\nsamples = 1\nvalue = [0, 1]\nclass = sem raios"] ;
357 -> 358 ;
359 [label="gini = 0.0\nsamples = 1\nvalue = [1, 0]\nclass = com raios"] ;
357 -> 359 ;
360 [label="riverfrac <= 8.015\ngini = 0.494\nsamples = 9\nvalue = [5, 4]\nclass = com raios"] ;
350 -> 360 ;
361 [label="gini = 0.0\nsamples = 3\nvalue = [0, 3]\nclass = sem raios"] ;
360 -> 361 ;
362 [label="meanvil <= 0.675\ngini = 0.278\nsamples = 6\nvalue = [5, 1]\nclass = com raios"] ;
360 -> 362 ;
363 [label="gini = 0.0\nsamples = 1\nvalue = [0, 1]\nclass = sem raios"] ;
362 -> 363 ;
364 [label="gini = 0.0\nsamples = 5\nvalue = [5, 0]\nclass = com raios"] ;
362 -> 364 ;
365 [label="gini = 0.0\nsamples = 16\nvalue = [16, 0]\nclass = com raios"] ;
345 -> 365 ;
366 [label="meanvil <= 1.415\ngini = 0.473\nsamples = 13\nvalue = [5, 8]\nclass = sem raios"] ;
344 -> 366 ;
367 [label="convfrac <= 30.52\ngini = 0.397\nsamples = 11\nvalue = [3, 8]\nclass = sem raios"] ;
366 -> 367 ;
368 [label="ttvil <= 309.79\ngini = 0.444\nsamples = 3\nvalue = [2, 1]\nclass = com raios"] ;
367 -> 368 ;
369 [label="gini = 0.0\nsamples = 2\nvalue = [2, 0]\nclass = com raios"] ;
368 -> 369 ;
370 [label="gini = 0.0\nsamples = 1\nvalue = [0, 1]\nclass = sem raios"] ;
368 -> 370 ;
371 [label="ttvil <= 240.01\ngini = 0.219\nsamples = 8\nvalue = [1, 7]\nclass = sem raios"] ;
367 -> 371 ;
372 [label="gini = 0.0\nsamples = 6\nvalue = [0, 6]\nclass = sem raios"] ;
371 -> 372 ;
373 [label="meanvil <= 1.395\ngini = 0.5\nsamples = 2\nvalue = [1, 1]\nclass = com raios"] ;
371 -> 373 ;
374 [label="gini = 0.0\nsamples = 1\nvalue = [1, 0]\nclass = com raios"] ;
373 -> 374 ;
375 [label="gini = 0.0\nsamples = 1\nvalue = [0, 1]\nclass = sem raios"] ;
373 -> 375 ;
376 [label="gini = 0.0\nsamples = 2\nvalue = [2, 0]\nclass = com raios"] ;
366 -> 376 ;
377 [label="maxz <= 45.455\ngini = 0.426\nsamples = 13\nvalue = [4, 9]\nclass = sem raios"] ;
343 -> 377 ;
378 [label="gini = 0.0\nsamples = 8\nvalue = [0, 8]\nclass = sem raios"] ;
377 -> 378 ;
379 [label="convfrac <= 30.505\ngini = 0.32\nsamples = 5\nvalue = [4, 1]\nclass = com raios"] ;
377 -> 379 ;
380 [label="gini = 0.0\nsamples = 1\nvalue = [0, 1]\nclass = sem raios"] ;
379 -> 380 ;
381 [label="gini = 0.0\nsamples = 4\nvalue = [4, 0]\nclass = com raios"] ;
379 -> 381 ;
382 [label="maxprec <= 220.275\ngini = 0.32\nsamples = 15\nvalue = [3, 12]\nclass = sem raios"] ;
342 -> 382 ;
383 [label="strafrac <= 71.425\ngini = 0.142\nsamples = 13\nvalue = [1, 12]\nclass = sem raios"] ;
382 -> 383 ;
384 [label="gini = 0.0\nsamples = 12\nvalue = [0, 12]\nclass = sem raios"] ;
383 -> 384 ;
385 [label="gini = 0.0\nsamples = 1\nvalue = [1, 0]\nclass = com raios"] ;
383 -> 385 ;
386 [label="gini = 0.0\nsamples = 2\nvalue = [2, 0]\nclass = com raios"] ;
382 -> 386 ;
387 [label="meanvil <= 0.655\ngini = 0.378\nsamples = 91\nvalue = [23, 68]\nclass = sem raios"] ;
341 -> 387 ;
388 [label="riverfrac <= 9.525\ngini = 0.408\nsamples = 7\nvalue = [5, 2]\nclass = com raios"] ;
387 -> 388 ;
389 [label="gini = 0.0\nsamples = 5\nvalue = [5, 0]\nclass = com raios"] ;
388 -> 389 ;
390 [label="gini = 0.0\nsamples = 2\nvalue = [0, 2]\nclass = sem raios"] ;
388 -> 390 ;
391 [label="meanprec <= 9.33\ngini = 0.337\nsamples = 84\nvalue = [18, 66]\nclass = sem raios"] ;
387 -> 391 ;
392 [label="convfrac <= 12.88\ngini = 0.275\nsamples = 73\nvalue = [12, 61]\nclass = sem raios"] ;
391 -> 392 ;
393 [label="convfrac <= 10.02\ngini = 0.5\nsamples = 6\nvalue = [3, 3]\nclass = com raios"] ;
392 -> 393 ;
394 [label="meanvil <= 0.82\ngini = 0.375\nsamples = 4\nvalue = [1, 3]\nclass = sem raios"] ;
393 -> 394 ;
395 [label="gini = 0.0\nsamples = 2\nvalue = [0, 2]\nclass = sem raios"] ;
394 -> 395 ;
396 [label="meanz <= 31.485\ngini = 0.5\nsamples = 2\nvalue = [1, 1]\nclass = com raios"] ;
394 -> 396 ;
397 [label="gini = 0.0\nsamples = 1\nvalue = [1, 0]\nclass = com raios"] ;
396 -> 397 ;
398 [label="gini = 0.0\nsamples = 1\nvalue = [0, 1]\nclass = sem raios"] ;
396 -> 398 ;
399 [label="gini = 0.0\nsamples = 2\nvalue = [2, 0]\nclass = com raios"] ;
393 -> 399 ;
400 [label="ttvil <= 153.415\ngini = 0.233\nsamples = 67\nvalue = [9, 58]\nclass = sem raios"] ;
392 -> 400 ;
401 [label="meanvil <= 1.025\ngini = 0.444\nsamples = 18\nvalue = [6, 12]\nclass = sem raios"] ;
400 -> 401 ;
402 [label="gini = 0.0\nsamples = 6\nvalue = [0, 6]\nclass = sem raios"] ;
401 -> 402 ;
403 [label="meanvil <= 1.26\ngini = 0.5\nsamples = 12\nvalue = [6, 6]\nclass = com raios"] ;
401 -> 403 ;
404 [label="meanprec <= 6.8\ngini = 0.444\nsamples = 9\nvalue = [6, 3]\nclass = com raios"] ;
403 -> 404 ;
405 [label="gini = 0.0\nsamples = 3\nvalue = [3, 0]\nclass = com raios"] ;
404 -> 405 ;
406 [label="strafrac <= 75.05\ngini = 0.5\nsamples = 6\nvalue = [3, 3]\nclass = com raios"] ;
404 -> 406 ;
407 [label="gini = 0.0\nsamples = 2\nvalue = [2, 0]\nclass = com raios"] ;
406 -> 407 ;
408 [label="meanvil <= 1.205\ngini = 0.375\nsamples = 4\nvalue = [1, 3]\nclass = sem raios"] ;
406 -> 408 ;
409 [label="gini = 0.0\nsamples = 3\nvalue = [0, 3]\nclass = sem raios"] ;
408 -> 409 ;
410 [label="gini = 0.0\nsamples = 1\nvalue = [1, 0]\nclass = com raios"] ;
408 -> 410 ;
411 [label="gini = 0.0\nsamples = 3\nvalue = [0, 3]\nclass = sem raios"] ;
403 -> 411 ;
412 [label="convfrac <= 23.675\ngini = 0.115\nsamples = 49\nvalue = [3, 46]\nclass = sem raios"] ;
400 -> 412 ;
413 [label="gini = 0.0\nsamples = 28\nvalue = [0, 28]\nclass = sem raios"] ;
412 -> 413 ;
414 [label="strafrac <= 76.25\ngini = 0.245\nsamples = 21\nvalue = [3, 18]\nclass = sem raios"] ;
412 -> 414 ;
415 [label="meanvil <= 0.815\ngini = 0.18\nsamples = 20\nvalue = [2, 18]\nclass = sem raios"] ;
414 -> 415 ;
416 [label="gini = 0.0\nsamples = 1\nvalue = [1, 0]\nclass = com raios"] ;
415 -> 416 ;
417 [label="meanz <= 32.81\ngini = 0.1\nsamples = 19\nvalue = [1, 18]\nclass = sem raios"] ;
415 -> 417 ;
418 [label="gini = 0.0\nsamples = 15\nvalue = [0, 15]\nclass = sem raios"] ;
417 -> 418 ;
419 [label="meanz <= 33.065\ngini = 0.375\nsamples = 4\nvalue = [1, 3]\nclass = sem raios"] ;
417 -> 419 ;
420 [label="gini = 0.0\nsamples = 1\nvalue = [1, 0]\nclass = com raios"] ;
419 -> 420 ;
421 [label="gini = 0.0\nsamples = 3\nvalue = [0, 3]\nclass = sem raios"] ;
419 -> 421 ;
422 [label="gini = 0.0\nsamples = 1\nvalue = [1, 0]\nclass = com raios"] ;
414 -> 422 ;
423 [label="maxz <= 48.865\ngini = 0.496\nsamples = 11\nvalue = [6, 5]\nclass = com raios"] ;
391 -> 423 ;
424 [label="meanprec <= 9.575\ngini = 0.245\nsamples = 7\nvalue = [6, 1]\nclass = com raios"] ;
423 -> 424 ;
425 [label="maxz <= 46.72\ngini = 0.5\nsamples = 2\nvalue = [1, 1]\nclass = com raios"] ;
424 -> 425 ;
426 [label="gini = 0.0\nsamples = 1\nvalue = [1, 0]\nclass = com raios"] ;
425 -> 426 ;
427 [label="gini = 0.0\nsamples = 1\nvalue = [0, 1]\nclass = sem raios"] ;
425 -> 427 ;
428 [label="gini = 0.0\nsamples = 5\nvalue = [5, 0]\nclass = com raios"] ;
424 -> 428 ;
429 [label="gini = 0.0\nsamples = 4\nvalue = [0, 4]\nclass = sem raios"] ;
423 -> 429 ;
430 [label="ttvil <= 211.27\ngini = 0.185\nsamples = 552\nvalue = [57, 495]\nclass = sem raios"] ;
340 -> 430 ;
431 [label="meanvil <= 3.585\ngini = 0.421\nsamples = 116\nvalue = [35, 81]\nclass = sem raios"] ;
430 -> 431 ;
432 [label="riverfrac <= 27.57\ngini = 0.399\nsamples = 109\nvalue = [30, 79]\nclass = sem raios"] ;
431 -> 432 ;
433 [label="maxz <= 44.395\ngini = 0.442\nsamples = 85\nvalue = [28, 57]\nclass = sem raios"] ;
432 -> 433 ;
434 [label="gini = 0.0\nsamples = 10\nvalue = [0, 10]\nclass = sem raios"] ;
433 -> 434 ;
435 [label="meanvil <= 3.145\ngini = 0.468\nsamples = 75\nvalue = [28, 47]\nclass = sem raios"] ;
433 -> 435 ;
436 [label="maxprec <= 135.815\ngini = 0.482\nsamples = 69\nvalue = [28, 41]\nclass = sem raios"] ;
435 -> 436 ;
437 [label="riverfrac <= 4.43\ngini = 0.471\nsamples = 66\nvalue = [25, 41]\nclass = sem raios"] ;
436 -> 437 ;
438 [label="strafrac <= 78.155\ngini = 0.411\nsamples = 45\nvalue = [13, 32]\nclass = sem raios"] ;
437 -> 438 ;
439 [label="riverfrac <= 0.405\ngini = 0.349\nsamples = 40\nvalue = [9, 31]\nclass = sem raios"] ;
438 -> 439 ;
440 [label="meanprec <= 9.79\ngini = 0.42\nsamples = 30\nvalue = [9, 21]\nclass = sem raios"] ;
439 -> 440 ;
441 [label="gini = 0.0\nsamples = 2\nvalue = [2, 0]\nclass = com raios"] ;
440 -> 441 ;
442 [label="meanvil <= 1.775\ngini = 0.375\nsamples = 28\nvalue = [7, 21]\nclass = sem raios"] ;
440 -> 442 ;
443 [label="gini = 0.0\nsamples = 8\nvalue = [0, 8]\nclass = sem raios"] ;
442 -> 443 ;
444 [label="maxz <= 48.055\ngini = 0.455\nsamples = 20\nvalue = [7, 13]\nclass = sem raios"] ;
442 -> 444 ;
445 [label="meanvil <= 2.64\ngini = 0.469\nsamples = 8\nvalue = [5, 3]\nclass = com raios"] ;
444 -> 445 ;
446 [label="meanvil <= 1.875\ngini = 0.278\nsamples = 6\nvalue = [5, 1]\nclass = com raios"] ;
445 -> 446 ;
447 [label="meanz <= 35.34\ngini = 0.5\nsamples = 2\nvalue = [1, 1]\nclass = com raios"] ;
446 -> 447 ;
448 [label="gini = 0.0\nsamples = 1\nvalue = [1, 0]\nclass = com raios"] ;
447 -> 448 ;
449 [label="gini = 0.0\nsamples = 1\nvalue = [0, 1]\nclass = sem raios"] ;
447 -> 449 ;
450 [label="gini = 0.0\nsamples = 4\nvalue = [4, 0]\nclass = com raios"] ;
446 -> 450 ;
451 [label="gini = 0.0\nsamples = 2\nvalue = [0, 2]\nclass = sem raios"] ;
445 -> 451 ;
452 [label="maxz <= 49.96\ngini = 0.278\nsamples = 12\nvalue = [2, 10]\nclass = sem raios"] ;
444 -> 452 ;
453 [label="meanz <= 35.965\ngini = 0.165\nsamples = 11\nvalue = [1, 10]\nclass = sem raios"] ;
452 -> 453 ;
454 [label="convfrac <= 28.645\ngini = 0.5\nsamples = 2\nvalue = [1, 1]\nclass = com raios"] ;
453 -> 454 ;
455 [label="gini = 0.0\nsamples = 1\nvalue = [0, 1]\nclass = sem raios"] ;
454 -> 455 ;
456 [label="gini = 0.0\nsamples = 1\nvalue = [1, 0]\nclass = com raios"] ;
454 -> 456 ;
457 [label="gini = 0.0\nsamples = 9\nvalue = [0, 9]\nclass = sem raios"] ;
453 -> 457 ;
458 [label="gini = 0.0\nsamples = 1\nvalue = [1, 0]\nclass = com raios"] ;
452 -> 458 ;
459 [label="gini = 0.0\nsamples = 10\nvalue = [0, 10]\nclass = sem raios"] ;
439 -> 459 ;
460 [label="meanz <= 33.26\ngini = 0.32\nsamples = 5\nvalue = [4, 1]\nclass = com raios"] ;
438 -> 460 ;
461 [label="gini = 0.0\nsamples = 1\nvalue = [0, 1]\nclass = sem raios"] ;
460 -> 461 ;
462 [label="gini = 0.0\nsamples = 4\nvalue = [4, 0]\nclass = com raios"] ;
460 -> 462 ;
463 [label="ttvil <= 169.665\ngini = 0.49\nsamples = 21\nvalue = [12, 9]\nclass = com raios"] ;
437 -> 463 ;
464 [label="strafrac <= 6.93\ngini = 0.415\nsamples = 17\nvalue = [12, 5]\nclass = com raios"] ;
463 -> 464 ;
465 [label="gini = 0.0\nsamples = 2\nvalue = [0, 2]\nclass = sem raios"] ;
464 -> 465 ;
466 [label="strafrac <= 74.135\ngini = 0.32\nsamples = 15\nvalue = [12, 3]\nclass = com raios"] ;
464 -> 466 ;
467 [label="meanvil <= 2.68\ngini = 0.153\nsamples = 12\nvalue = [11, 1]\nclass = com raios"] ;
466 -> 467 ;
468 [label="gini = 0.0\nsamples = 9\nvalue = [9, 0]\nclass = com raios"] ;
467 -> 468 ;
469 [label="convfrac <= 58.49\ngini = 0.444\nsamples = 3\nvalue = [2, 1]\nclass = com raios"] ;
467 -> 469 ;
470 [label="gini = 0.0\nsamples = 1\nvalue = [0, 1]\nclass = sem raios"] ;
469 -> 470 ;
471 [label="gini = 0.0\nsamples = 2\nvalue = [2, 0]\nclass = com raios"] ;
469 -> 471 ;
472 [label="ttvil <= 130.725\ngini = 0.444\nsamples = 3\nvalue = [1, 2]\nclass = sem raios"] ;
466 -> 472 ;
473 [label="gini = 0.0\nsamples = 2\nvalue = [0, 2]\nclass = sem raios"] ;
472 -> 473 ;
474 [label="gini = 0.0\nsamples = 1\nvalue = [1, 0]\nclass = com raios"] ;
472 -> 474 ;
475 [label="gini = 0.0\nsamples = 4\nvalue = [0, 4]\nclass = sem raios"] ;
463 -> 475 ;
476 [label="gini = 0.0\nsamples = 3\nvalue = [3, 0]\nclass = com raios"] ;
436 -> 476 ;
477 [label="gini = 0.0\nsamples = 6\nvalue = [0, 6]\nclass = sem raios"] ;
435 -> 477 ;
478 [label="riverfrac <= 75.205\ngini = 0.153\nsamples = 24\nvalue = [2, 22]\nclass = sem raios"] ;
432 -> 478 ;
479 [label="gini = 0.0\nsamples = 21\nvalue = [0, 21]\nclass = sem raios"] ;
478 -> 479 ;
480 [label="meanvil <= 1.785\ngini = 0.444\nsamples = 3\nvalue = [2, 1]\nclass = com raios"] ;
478 -> 480 ;
481 [label="gini = 0.0\nsamples = 1\nvalue = [0, 1]\nclass = sem raios"] ;
480 -> 481 ;
482 [label="gini = 0.0\nsamples = 2\nvalue = [2, 0]\nclass = com raios"] ;
480 -> 482 ;
483 [label="meanprec <= 32.655\ngini = 0.408\nsamples = 7\nvalue = [5, 2]\nclass = com raios"] ;
431 -> 483 ;
484 [label="gini = 0.0\nsamples = 4\nvalue = [4, 0]\nclass = com raios"] ;
483 -> 484 ;
485 [label="convfrac <= 58.75\ngini = 0.444\nsamples = 3\nvalue = [1, 2]\nclass = sem raios"] ;
483 -> 485 ;
486 [label="gini = 0.0\nsamples = 1\nvalue = [1, 0]\nclass = com raios"] ;
485 -> 486 ;
487 [label="gini = 0.0\nsamples = 2\nvalue = [0, 2]\nclass = sem raios"] ;
485 -> 487 ;
488 [label="meanprec <= 44.5\ngini = 0.096\nsamples = 436\nvalue = [22, 414]\nclass = sem raios"] ;
430 -> 488 ;
489 [label="maxz <= 56.065\ngini = 0.088\nsamples = 434\nvalue = [20, 414]\nclass = sem raios"] ;
488 -> 489 ;
490 [label="maxz <= 41.06\ngini = 0.076\nsamples = 427\nvalue = [17, 410]\nclass = sem raios"] ;
489 -> 490 ;
491 [label="gini = 0.0\nsamples = 1\nvalue = [1, 0]\nclass = com raios"] ;
490 -> 491 ;
492 [label="ttvil <= 642.27\ngini = 0.072\nsamples = 426\nvalue = [16, 410]\nclass = sem raios"] ;
490 -> 492 ;
493 [label="ttvil <= 641.105\ngini = 0.118\nsamples = 223\nvalue = [14, 209]\nclass = sem raios"] ;
492 -> 493 ;
494 [label="meanvil <= 1.54\ngini = 0.11\nsamples = 222\nvalue = [13, 209]\nclass = sem raios"] ;
493 -> 494 ;
495 [label="convfrac <= 22.725\ngini = 0.42\nsamples = 10\nvalue = [3, 7]\nclass = sem raios"] ;
494 -> 495 ;
496 [label="gini = 0.0\nsamples = 2\nvalue = [2, 0]\nclass = com raios"] ;
495 -> 496 ;
497 [label="meanprec <= 10.535\ngini = 0.219\nsamples = 8\nvalue = [1, 7]\nclass = sem raios"] ;
495 -> 497 ;
498 [label="gini = 0.0\nsamples = 6\nvalue = [0, 6]\nclass = sem raios"] ;
497 -> 498 ;
499 [label="convfrac <= 26.74\ngini = 0.5\nsamples = 2\nvalue = [1, 1]\nclass = com raios"] ;
497 -> 499 ;
500 [label="gini = 0.0\nsamples = 1\nvalue = [0, 1]\nclass = sem raios"] ;
499 -> 500 ;
501 [label="gini = 0.0\nsamples = 1\nvalue = [1, 0]\nclass = com raios"] ;
499 -> 501 ;
502 [label="maxz <= 54.32\ngini = 0.09\nsamples = 212\nvalue = [10, 202]\nclass = sem raios"] ;
494 -> 502 ;
503 [label="riverfrac <= 47.095\ngini = 0.075\nsamples = 205\nvalue = [8, 197]\nclass = sem raios"] ;
502 -> 503 ;
504 [label="maxprec <= 126.195\ngini = 0.059\nsamples = 197\nvalue = [6, 191]\nclass = sem raios"] ;
503 -> 504 ;
505 [label="meanz <= 40.05\ngini = 0.12\nsamples = 78\nvalue = [5, 73]\nclass = sem raios"] ;
504 -> 505 ;
506 [label="maxprec <= 125.575\ngini = 0.098\nsamples = 77\nvalue = [4, 73]\nclass = sem raios"] ;
505 -> 506 ;
507 [label="meanvil <= 1.865\ngini = 0.077\nsamples = 75\nvalue = [3, 72]\nclass = sem raios"] ;
506 -> 507 ;
508 [label="strafrac <= 61.66\ngini = 0.219\nsamples = 24\nvalue = [3, 21]\nclass = sem raios"] ;
507 -> 508 ;
509 [label="meanz <= 34.665\ngini = 0.48\nsamples = 5\nvalue = [2, 3]\nclass = sem raios"] ;
508 -> 509 ;
510 [label="gini = 0.0\nsamples = 3\nvalue = [0, 3]\nclass = sem raios"] ;
509 -> 510 ;
511 [label="gini = 0.0\nsamples = 2\nvalue = [2, 0]\nclass = com raios"] ;
509 -> 511 ;
512 [label="ttvil <= 524.855\ngini = 0.1\nsamples = 19\nvalue = [1, 18]\nclass = sem raios"] ;
508 -> 512 ;
513 [label="gini = 0.0\nsamples = 17\nvalue = [0, 17]\nclass = sem raios"] ;
512 -> 513 ;
514 [label="meanvil <= 1.725\ngini = 0.5\nsamples = 2\nvalue = [1, 1]\nclass = com raios"] ;
512 -> 514 ;
515 [label="gini = 0.0\nsamples = 1\nvalue = [1, 0]\nclass = com raios"] ;
514 -> 515 ;
516 [label="gini = 0.0\nsamples = 1\nvalue = [0, 1]\nclass = sem raios"] ;
514 -> 516 ;
517 [label="gini = 0.0\nsamples = 51\nvalue = [0, 51]\nclass = sem raios"] ;
507 -> 517 ;
518 [label="meanvil <= 1.965\ngini = 0.5\nsamples = 2\nvalue = [1, 1]\nclass = com raios"] ;
506 -> 518 ;
519 [label="gini = 0.0\nsamples = 1\nvalue = [0, 1]\nclass = sem raios"] ;
518 -> 519 ;
520 [label="gini = 0.0\nsamples = 1\nvalue = [1, 0]\nclass = com raios"] ;
518 -> 520 ;
521 [label="gini = 0.0\nsamples = 1\nvalue = [1, 0]\nclass = com raios"] ;
505 -> 521 ;
522 [label="ttvil <= 255.33\ngini = 0.017\nsamples = 119\nvalue = [1, 118]\nclass = sem raios"] ;
504 -> 522 ;
523 [label="ttvil <= 254.49\ngini = 0.142\nsamples = 13\nvalue = [1, 12]\nclass = sem raios"] ;
522 -> 523 ;
524 [label="gini = 0.0\nsamples = 12\nvalue = [0, 12]\nclass = sem raios"] ;
523 -> 524 ;
525 [label="gini = 0.0\nsamples = 1\nvalue = [1, 0]\nclass = com raios"] ;
523 -> 525 ;
526 [label="gini = 0.0\nsamples = 106\nvalue = [0, 106]\nclass = sem raios"] ;
522 -> 526 ;
527 [label="strafrac <= 57.785\ngini = 0.375\nsamples = 8\nvalue = [2, 6]\nclass = sem raios"] ;
503 -> 527 ;
528 [label="gini = 0.0\nsamples = 6\nvalue = [0, 6]\nclass = sem raios"] ;
527 -> 528 ;
529 [label="gini = 0.0\nsamples = 2\nvalue = [2, 0]\nclass = com raios"] ;
527 -> 529 ;
530 [label="maxz <= 54.505\ngini = 0.408\nsamples = 7\nvalue = [2, 5]\nclass = sem raios"] ;
502 -> 530 ;
531 [label="strafrac <= 76.84\ngini = 0.444\nsamples = 3\nvalue = [2, 1]\nclass = com raios"] ;
530 -> 531 ;
532 [label="gini = 0.0\nsamples = 2\nvalue = [2, 0]\nclass = com raios"] ;
531 -> 532 ;
533 [label="gini = 0.0\nsamples = 1\nvalue = [0, 1]\nclass = sem raios"] ;
531 -> 533 ;
534 [label="gini = 0.0\nsamples = 4\nvalue = [0, 4]\nclass = sem raios"] ;
530 -> 534 ;
535 [label="gini = 0.0\nsamples = 1\nvalue = [1, 0]\nclass = com raios"] ;
493 -> 535 ;
536 [label="meanvil <= 2.46\ngini = 0.02\nsamples = 203\nvalue = [2, 201]\nclass = sem raios"] ;
492 -> 536 ;
537 [label="meanvil <= 2.435\ngini = 0.048\nsamples = 82\nvalue = [2, 80]\nclass = sem raios"] ;
536 -> 537 ;
538 [label="riverfrac <= 0.235\ngini = 0.024\nsamples = 81\nvalue = [1, 80]\nclass = sem raios"] ;
537 -> 538 ;
539 [label="convfrac <= 27.79\ngini = 0.278\nsamples = 6\nvalue = [1, 5]\nclass = sem raios"] ;
538 -> 539 ;
540 [label="gini = 0.0\nsamples = 1\nvalue = [1, 0]\nclass = com raios"] ;
539 -> 540 ;
541 [label="gini = 0.0\nsamples = 5\nvalue = [0, 5]\nclass = sem raios"] ;
539 -> 541 ;
542 [label="gini = 0.0\nsamples = 75\nvalue = [0, 75]\nclass = sem raios"] ;
538 -> 542 ;
543 [label="gini = 0.0\nsamples = 1\nvalue = [1, 0]\nclass = com raios"] ;
537 -> 543 ;
544 [label="gini = 0.0\nsamples = 121\nvalue = [0, 121]\nclass = sem raios"] ;
536 -> 544 ;
545 [label="convfrac <= 39.34\ngini = 0.49\nsamples = 7\nvalue = [3, 4]\nclass = sem raios"] ;
489 -> 545 ;
546 [label="meanz <= 39.555\ngini = 0.375\nsamples = 4\nvalue = [3, 1]\nclass = com raios"] ;
545 -> 546 ;
547 [label="gini = 0.0\nsamples = 1\nvalue = [0, 1]\nclass = sem raios"] ;
546 -> 547 ;
548 [label="gini = 0.0\nsamples = 3\nvalue = [3, 0]\nclass = com raios"] ;
546 -> 548 ;
549 [label="gini = 0.0\nsamples = 3\nvalue = [0, 3]\nclass = sem raios"] ;
545 -> 549 ;
550 [label="gini = 0.0\nsamples = 2\nvalue = [2, 0]\nclass = com raios"] ;
488 -> 550 ;
}