digraph Tree {
node [shape=box] ;
0 [label="ttvil <= 124.77\ngini = 0.5\nsamples = 1600\nvalue = [799, 801]\nclass = sem raios"] ;
1 [label="ttvil <= 39.525\ngini = 0.385\nsamples = 946\nvalue = [700, 246]\nclass = com raios"] ;
0 -> 1 [labeldistance=2.5, labelangle=45, headlabel="True"] ;
2 [label="meanvil <= 0.405\ngini = 0.298\nsamples = 625\nvalue = [511, 114]\nclass = com raios"] ;
1 -> 2 ;
3 [label="strafrac <= 74.68\ngini = 0.165\nsamples = 253\nvalue = [230, 23]\nclass = com raios"] ;
2 -> 3 ;
4 [label="strafrac <= 53.115\ngini = 0.075\nsamples = 180\nvalue = [173, 7]\nclass = com raios"] ;
3 -> 4 ;
5 [label="maxz <= 32.195\ngini = 0.019\nsamples = 106\nvalue = [105, 1]\nclass = com raios"] ;
4 -> 5 ;
6 [label="gini = 0.0\nsamples = 82\nvalue = [82, 0]\nclass = com raios"] ;
5 -> 6 ;
7 [label="maxprec <= 7.81\ngini = 0.08\nsamples = 24\nvalue = [23, 1]\nclass = com raios"] ;
5 -> 7 ;
8 [label="gini = 0.0\nsamples = 1\nvalue = [0, 1]\nclass = sem raios"] ;
7 -> 8 ;
9 [label="gini = 0.0\nsamples = 23\nvalue = [23, 0]\nclass = com raios"] ;
7 -> 9 ;
10 [label="meanprec <= 1.775\ngini = 0.149\nsamples = 74\nvalue = [68, 6]\nclass = com raios"] ;
4 -> 10 ;
11 [label="ttvil <= 4.19\ngini = 0.036\nsamples = 54\nvalue = [53, 1]\nclass = com raios"] ;
10 -> 11 ;
12 [label="ttvil <= 4.12\ngini = 0.219\nsamples = 8\nvalue = [7, 1]\nclass = com raios"] ;
11 -> 12 ;
13 [label="gini = 0.0\nsamples = 7\nvalue = [7, 0]\nclass = com raios"] ;
12 -> 13 ;
14 [label="gini = 0.0\nsamples = 1\nvalue = [0, 1]\nclass = sem raios"] ;
12 -> 14 ;
15 [label="gini = 0.0\nsamples = 46\nvalue = [46, 0]\nclass = com raios"] ;
11 -> 15 ;
16 [label="strafrac <= 54.945\ngini = 0.375\nsamples = 20\nvalue = [15, 5]\nclass = com raios"] ;
10 -> 16 ;
17 [label="gini = 0.0\nsamples = 2\nvalue = [0, 2]\nclass = sem raios"] ;
16 -> 17 ;
18 [label="meanprec <= 1.82\ngini = 0.278\nsamples = 18\nvalue = [15, 3]\nclass = com raios"] ;
16 -> 18 ;
19 [label="gini = 0.0\nsamples = 1\nvalue = [0, 1]\nclass = sem raios"] ;
18 -> 19 ;
20 [label="ttvil <= 4.915\ngini = 0.208\nsamples = 17\nvalue = [15, 2]\nclass = com raios"] ;
18 -> 20 ;
21 [label="gini = 0.0\nsamples = 1\nvalue = [0, 1]\nclass = sem raios"] ;
20 -> 21 ;
22 [label="meanvil <= 0.355\ngini = 0.117\nsamples = 16\nvalue = [15, 1]\nclass = com raios"] ;
20 -> 22 ;
23 [label="maxprec <= 8.89\ngini = 0.375\nsamples = 4\nvalue = [3, 1]\nclass = com raios"] ;
22 -> 23 ;
24 [label="gini = 0.0\nsamples = 2\nvalue = [2, 0]\nclass = com raios"] ;
23 -> 24 ;
25 [label="ttvil <= 22.835\ngini = 0.5\nsamples = 2\nvalue = [1, 1]\nclass = com raios"] ;
23 -> 25 ;
26 [label="gini = 0.0\nsamples = 1\nvalue = [0, 1]\nclass = sem raios"] ;
25 -> 26 ;
27 [label="gini = 0.0\nsamples = 1\nvalue = [1, 0]\nclass = com raios"] ;
25 -> 27 ;
28 [label="gini = 0.0\nsamples = 12\nvalue = [12, 0]\nclass = com raios"] ;
22 -> 28 ;
29 [label="maxprec <= 6.495\ngini = 0.342\nsamples = 73\nvalue = [57, 16]\nclass = com raios"] ;
3 -> 29 ;
30 [label="ttvil <= 36.0\ngini = 0.285\nsamples = 64\nvalue = [53, 11]\nclass = com raios"] ;
29 -> 30 ;
31 [label="maxprec <= 2.41\ngini = 0.267\nsamples = 63\nvalue = [53, 10]\nclass = com raios"] ;
30 -> 31 ;
32 [label="maxz <= 26.025\ngini = 0.391\nsamples = 30\nvalue = [22, 8]\nclass = com raios"] ;
31 -> 32 ;
33 [label="maxprec <= 2.38\ngini = 0.302\nsamples = 27\nvalue = [22, 5]\nclass = com raios"] ;
32 -> 33 ;
34 [label="ttvil <= 3.105\ngini = 0.26\nsamples = 26\nvalue = [22, 4]\nclass = com raios"] ;
33 -> 34 ;
35 [label="maxprec <= 2.165\ngini = 0.5\nsamples = 4\nvalue = [2, 2]\nclass = com raios"] ;
34 -> 35 ;
36 [label="gini = 0.0\nsamples = 2\nvalue = [2, 0]\nclass = com raios"] ;
35 -> 36 ;
37 [label="gini = 0.0\nsamples = 2\nvalue = [0, 2]\nclass = sem raios"] ;
35 -> 37 ;
38 [label="meanvil <= 0.235\ngini = 0.165\nsamples = 22\nvalue = [20, 2]\nclass = com raios"] ;
34 -> 38 ;
39 [label="meanvil <= 0.215\ngini = 0.5\nsamples = 2\nvalue = [1, 1]\nclass = com raios"] ;
38 -> 39 ;
40 [label="gini = 0.0\nsamples = 1\nvalue = [1, 0]\nclass = com raios"] ;
39 -> 40 ;
41 [label="gini = 0.0\nsamples = 1\nvalue = [0, 1]\nclass = sem raios"] ;
39 -> 41 ;
42 [label="meanprec <= 0.995\ngini = 0.095\nsamples = 20\nvalue = [19, 1]\nclass = com raios"] ;
38 -> 42 ;
43 [label="meanprec <= 0.985\ngini = 0.32\nsamples = 5\nvalue = [4, 1]\nclass = com raios"] ;
42 -> 43 ;
44 [label="gini = 0.0\nsamples = 4\nvalue = [4, 0]\nclass = com raios"] ;
43 -> 44 ;
45 [label="gini = 0.0\nsamples = 1\nvalue = [0, 1]\nclass = sem raios"] ;
43 -> 45 ;
46 [label="gini = 0.0\nsamples = 15\nvalue = [15, 0]\nclass = com raios"] ;
42 -> 46 ;
47 [label="gini = 0.0\nsamples = 1\nvalue = [0, 1]\nclass = sem raios"] ;
33 -> 47 ;
48 [label="gini = 0.0\nsamples = 3\nvalue = [0, 3]\nclass = sem raios"] ;
32 -> 48 ;
49 [label="ttvil <= 10.395\ngini = 0.114\nsamples = 33\nvalue = [31, 2]\nclass = com raios"] ;
31 -> 49 ;
50 [label="gini = 0.0\nsamples = 24\nvalue = [24, 0]\nclass = com raios"] ;
49 -> 50 ;
51 [label="ttvil <= 12.075\ngini = 0.346\nsamples = 9\nvalue = [7, 2]\nclass = com raios"] ;
49 -> 51 ;
52 [label="gini = 0.0\nsamples = 2\nvalue = [0, 2]\nclass = sem raios"] ;
51 -> 52 ;
53 [label="gini = 0.0\nsamples = 7\nvalue = [7, 0]\nclass = com raios"] ;
51 -> 53 ;
54 [label="gini = 0.0\nsamples = 1\nvalue = [0, 1]\nclass = sem raios"] ;
30 -> 54 ;
55 [label="convfrac <= 21.5\ngini = 0.494\nsamples = 9\nvalue = [4, 5]\nclass = sem raios"] ;
29 -> 55 ;
56 [label="convfrac <= 16.665\ngini = 0.444\nsamples = 6\nvalue = [4, 2]\nclass = com raios"] ;
55 -> 56 ;
57 [label="gini = 0.0\nsamples = 2\nvalue = [0, 2]\nclass = sem raios"] ;
56 -> 57 ;
58 [label="gini = 0.0\nsamples = 4\nvalue = [4, 0]\nclass = com raios"] ;
56 -> 58 ;
59 [label="gini = 0.0\nsamples = 3\nvalue = [0, 3]\nclass = sem raios"] ;
55 -> 59 ;
60 [label="meanvil <= 2.04\ngini = 0.37\nsamples = 372\nvalue = [281, 91]\nclass = com raios"] ;
2 -> 60 ;
61 [label="meanz <= 24.555\ngini = 0.364\nsamples = 368\nvalue = [280, 88]\nclass = com raios"] ;
60 -> 61 ;
62 [label="strafrac <= 61.045\ngini = 0.47\nsamples = 45\nvalue = [28, 17]\nclass = com raios"] ;
61 -> 62 ;
63 [label="maxprec <= 3.495\ngini = 0.465\nsamples = 19\nvalue = [7, 12]\nclass = sem raios"] ;
62 -> 63 ;
64 [label="gini = 0.0\nsamples = 7\nvalue = [0, 7]\nclass = sem raios"] ;
63 -> 64 ;
65 [label="ttvil <= 15.48\ngini = 0.486\nsamples = 12\nvalue = [7, 5]\nclass = com raios"] ;
63 -> 65 ;
66 [label="maxz <= 29.225\ngini = 0.245\nsamples = 7\nvalue = [6, 1]\nclass = com raios"] ;
65 -> 66 ;
67 [label="gini = 0.0\nsamples = 6\nvalue = [6, 0]\nclass = com raios"] ;
66 -> 67 ;
68 [label="gini = 0.0\nsamples = 1\nvalue = [0, 1]\nclass = sem raios"] ;
66 -> 68 ;
69 [label="meanprec <= 1.985\ngini = 0.32\nsamples = 5\nvalue = [1, 4]\nclass = sem raios"] ;
65 -> 69 ;
70 [label="gini = 0.0\nsamples = 4\nvalue = [0, 4]\nclass = sem raios"] ;
69 -> 70 ;
71 [label="gini = 0.0\nsamples = 1\nvalue = [1, 0]\nclass = com raios"] ;
69 -> 71 ;
72 [label="maxz <= 30.26\ngini = 0.311\nsamples = 26\nvalue = [21, 5]\nclass = com raios"] ;
62 -> 72 ;
73 [label="meanvil <= 1.065\ngini = 0.159\nsamples = 23\nvalue = [21, 2]\nclass = com raios"] ;
72 -> 73 ;
74 [label="ttvil <= 23.975\ngini = 0.087\nsamples = 22\nvalue = [21, 1]\nclass = com raios"] ;
73 -> 74 ;
75 [label="gini = 0.0\nsamples = 17\nvalue = [17, 0]\nclass = com raios"] ;
74 -> 75 ;
76 [label="ttvil <= 25.205\ngini = 0.32\nsamples = 5\nvalue = [4, 1]\nclass = com raios"] ;
74 -> 76 ;
77 [label="gini = 0.0\nsamples = 1\nvalue = [0, 1]\nclass = sem raios"] ;
76 -> 77 ;
78 [label="gini = 0.0\nsamples = 4\nvalue = [4, 0]\nclass = com raios"] ;
76 -> 78 ;
79 [label="gini = 0.0\nsamples = 1\nvalue = [0, 1]\nclass = sem raios"] ;
73 -> 79 ;
80 [label="gini = 0.0\nsamples = 3\nvalue = [0, 3]\nclass = sem raios"] ;
72 -> 80 ;
81 [label="strafrac <= 73.505\ngini = 0.343\nsamples = 323\nvalue = [252, 71]\nclass = com raios"] ;
61 -> 81 ;
82 [label="riverfrac <= 34.165\ngini = 0.291\nsamples = 221\nvalue = [182, 39]\nclass = com raios"] ;
81 -> 82 ;
83 [label="riverfrac <= 3.285\ngini = 0.319\nsamples = 196\nvalue = [157, 39]\nclass = com raios"] ;
82 -> 83 ;
84 [label="maxprec <= 31.89\ngini = 0.27\nsamples = 143\nvalue = [120, 23]\nclass = com raios"] ;
83 -> 84 ;
85 [label="maxprec <= 31.43\ngini = 0.31\nsamples = 120\nvalue = [97, 23]\nclass = com raios"] ;
84 -> 85 ;
86 [label="convfrac <= 80.625\ngini = 0.295\nsamples = 117\nvalue = [96, 21]\nclass = com raios"] ;
85 -> 86 ;
87 [label="maxz <= 32.725\ngini = 0.242\nsamples = 85\nvalue = [73, 12]\nclass = com raios"] ;
86 -> 87 ;
88 [label="gini = 0.0\nsamples = 15\nvalue = [15, 0]\nclass = com raios"] ;
87 -> 88 ;
89 [label="ttvil <= 10.615\ngini = 0.284\nsamples = 70\nvalue = [58, 12]\nclass = com raios"] ;
87 -> 89 ;
90 [label="maxprec <= 10.81\ngini = 0.5\nsamples = 8\nvalue = [4, 4]\nclass = com raios"] ;
89 -> 90 ;
91 [label="gini = 0.0\nsamples = 4\nvalue = [0, 4]\nclass = sem raios"] ;
90 -> 91 ;
92 [label="gini = 0.0\nsamples = 4\nvalue = [4, 0]\nclass = com raios"] ;
90 -> 92 ;
93 [label="strafrac <= 72.455\ngini = 0.225\nsamples = 62\nvalue = [54, 8]\nclass = com raios"] ;
89 -> 93 ;
94 [label="meanprec <= 2.305\ngini = 0.183\nsamples = 59\nvalue = [53, 6]\nclass = com raios"] ;
93 -> 94 ;
95 [label="gini = 0.0\nsamples = 1\nvalue = [0, 1]\nclass = sem raios"] ;
94 -> 95 ;
96 [label="meanprec <= 8.66\ngini = 0.158\nsamples = 58\nvalue = [53, 5]\nclass = com raios"] ;
94 -> 96 ;
97 [label="convfrac <= 41.56\ngini = 0.133\nsamples = 56\nvalue = [52, 4]\nclass = com raios"] ;
96 -> 97 ;
98 [label="convfrac <= 40.31\ngini = 0.231\nsamples = 30\nvalue = [26, 4]\nclass = com raios"] ;
97 -> 98 ;
99 [label="ttvil <= 12.11\ngini = 0.185\nsamples = 29\nvalue = [26, 3]\nclass = com raios"] ;
98 -> 99 ;
100 [label="gini = 0.0\nsamples = 1\nvalue = [0, 1]\nclass = sem raios"] ;
99 -> 100 ;
101 [label="ttvil <= 34.99\ngini = 0.133\nsamples = 28\nvalue = [26, 2]\nclass = com raios"] ;
99 -> 101 ;
102 [label="meanvil <= 0.505\ngini = 0.074\nsamples = 26\nvalue = [25, 1]\nclass = com raios"] ;
101 -> 102 ;
103 [label="meanprec <= 3.05\ngini = 0.375\nsamples = 4\nvalue = [3, 1]\nclass = com raios"] ;
102 -> 103 ;
104 [label="gini = 0.0\nsamples = 3\nvalue = [3, 0]\nclass = com raios"] ;
103 -> 104 ;
105 [label="gini = 0.0\nsamples = 1\nvalue = [0, 1]\nclass = sem raios"] ;
103 -> 105 ;
106 [label="gini = 0.0\nsamples = 22\nvalue = [22, 0]\nclass = com raios"] ;
102 -> 106 ;
107 [label="ttvil <= 36.915\ngini = 0.5\nsamples = 2\nvalue = [1, 1]\nclass = com raios"] ;
101 -> 107 ;
108 [label="gini = 0.0\nsamples = 1\nvalue = [0, 1]\nclass = sem raios"] ;
107 -> 108 ;
109 [label="gini = 0.0\nsamples = 1\nvalue = [1, 0]\nclass = com raios"] ;
107 -> 109 ;
110 [label="gini = 0.0\nsamples = 1\nvalue = [0, 1]\nclass = sem raios"] ;
98 -> 110 ;
111 [label="gini = 0.0\nsamples = 26\nvalue = [26, 0]\nclass = com raios"] ;
97 -> 111 ;
112 [label="ttvil <= 19.675\ngini = 0.5\nsamples = 2\nvalue = [1, 1]\nclass = com raios"] ;
96 -> 112 ;
113 [label="gini = 0.0\nsamples = 1\nvalue = [0, 1]\nclass = sem raios"] ;
112 -> 113 ;
114 [label="gini = 0.0\nsamples = 1\nvalue = [1, 0]\nclass = com raios"] ;
112 -> 114 ;
115 [label="maxprec <= 19.16\ngini = 0.444\nsamples = 3\nvalue = [1, 2]\nclass = sem raios"] ;
93 -> 115 ;
116 [label="gini = 0.0\nsamples = 1\nvalue = [1, 0]\nclass = com raios"] ;
115 -> 116 ;
117 [label="gini = 0.0\nsamples = 2\nvalue = [0, 2]\nclass = sem raios"] ;
115 -> 117 ;
118 [label="maxprec <= 19.91\ngini = 0.404\nsamples = 32\nvalue = [23, 9]\nclass = com raios"] ;
86 -> 118 ;
119 [label="meanvil <= 0.61\ngini = 0.469\nsamples = 24\nvalue = [15, 9]\nclass = com raios"] ;
118 -> 119 ;
120 [label="ttvil <= 29.51\ngini = 0.337\nsamples = 14\nvalue = [11, 3]\nclass = com raios"] ;
119 -> 120 ;
121 [label="ttvil <= 8.26\ngini = 0.26\nsamples = 13\nvalue = [11, 2]\nclass = com raios"] ;
120 -> 121 ;
122 [label="meanprec <= 2.93\ngini = 0.444\nsamples = 6\nvalue = [4, 2]\nclass = com raios"] ;
121 -> 122 ;
123 [label="gini = 0.0\nsamples = 3\nvalue = [3, 0]\nclass = com raios"] ;
122 -> 123 ;
124 [label="ttvil <= 7.065\ngini = 0.444\nsamples = 3\nvalue = [1, 2]\nclass = sem raios"] ;
122 -> 124 ;
125 [label="gini = 0.0\nsamples = 1\nvalue = [1, 0]\nclass = com raios"] ;
124 -> 125 ;
126 [label="gini = 0.0\nsamples = 2\nvalue = [0, 2]\nclass = sem raios"] ;
124 -> 126 ;
127 [label="gini = 0.0\nsamples = 7\nvalue = [7, 0]\nclass = com raios"] ;
121 -> 127 ;
128 [label="gini = 0.0\nsamples = 1\nvalue = [0, 1]\nclass = sem raios"] ;
120 -> 128 ;
129 [label="meanprec <= 4.605\ngini = 0.48\nsamples = 10\nvalue = [4, 6]\nclass = sem raios"] ;
119 -> 129 ;
130 [label="gini = 0.0\nsamples = 4\nvalue = [0, 4]\nclass = sem raios"] ;
129 -> 130 ;
131 [label="convfrac <= 90.455\ngini = 0.444\nsamples = 6\nvalue = [4, 2]\nclass = com raios"] ;
129 -> 131 ;
132 [label="gini = 0.0\nsamples = 2\nvalue = [0, 2]\nclass = sem raios"] ;
131 -> 132 ;
133 [label="gini = 0.0\nsamples = 4\nvalue = [4, 0]\nclass = com raios"] ;
131 -> 133 ;
134 [label="gini = 0.0\nsamples = 8\nvalue = [8, 0]\nclass = com raios"] ;
118 -> 134 ;
135 [label="meanvil <= 0.85\ngini = 0.444\nsamples = 3\nvalue = [1, 2]\nclass = sem raios"] ;
85 -> 135 ;
136 [label="gini = 0.0\nsamples = 1\nvalue = [1, 0]\nclass = com raios"] ;
135 -> 136 ;
137 [label="gini = 0.0\nsamples = 2\nvalue = [0, 2]\nclass = sem raios"] ;
135 -> 137 ;
138 [label="gini = 0.0\nsamples = 23\nvalue = [23, 0]\nclass = com raios"] ;
84 -> 138 ;
139 [label="ttvil <= 23.2\ngini = 0.422\nsamples = 53\nvalue = [37, 16]\nclass = com raios"] ;
83 -> 139 ;
140 [label="strafrac <= 18.335\ngini = 0.264\nsamples = 32\nvalue = [27, 5]\nclass = com raios"] ;
139 -> 140 ;
141 [label="gini = 0.0\nsamples = 13\nvalue = [13, 0]\nclass = com raios"] ;
140 -> 141 ;
142 [label="ttvil <= 16.09\ngini = 0.388\nsamples = 19\nvalue = [14, 5]\nclass = com raios"] ;
140 -> 142 ;
143 [label="ttvil <= 9.35\ngini = 0.5\nsamples = 8\nvalue = [4, 4]\nclass = com raios"] ;
142 -> 143 ;
144 [label="gini = 0.0\nsamples = 2\nvalue = [2, 0]\nclass = com raios"] ;
143 -> 144 ;
145 [label="maxprec <= 12.64\ngini = 0.444\nsamples = 6\nvalue = [2, 4]\nclass = sem raios"] ;
143 -> 145 ;
146 [label="gini = 0.0\nsamples = 3\nvalue = [0, 3]\nclass = sem raios"] ;
145 -> 146 ;
147 [label="convfrac <= 77.5\ngini = 0.444\nsamples = 3\nvalue = [2, 1]\nclass = com raios"] ;
145 -> 147 ;
148 [label="gini = 0.0\nsamples = 2\nvalue = [2, 0]\nclass = com raios"] ;
147 -> 148 ;
149 [label="gini = 0.0\nsamples = 1\nvalue = [0, 1]\nclass = sem raios"] ;
147 -> 149 ;
150 [label="meanvil <= 0.81\ngini = 0.165\nsamples = 11\nvalue = [10, 1]\nclass = com raios"] ;
142 -> 150 ;
151 [label="gini = 0.0\nsamples = 6\nvalue = [6, 0]\nclass = com raios"] ;
150 -> 151 ;
152 [label="meanvil <= 0.92\ngini = 0.32\nsamples = 5\nvalue = [4, 1]\nclass = com raios"] ;
150 -> 152 ;
153 [label="gini = 0.0\nsamples = 1\nvalue = [0, 1]\nclass = sem raios"] ;
152 -> 153 ;
154 [label="gini = 0.0\nsamples = 4\nvalue = [4, 0]\nclass = com raios"] ;
152 -> 154 ;
155 [label="ttvil <= 34.73\ngini = 0.499\nsamples = 21\nvalue = [10, 11]\nclass = sem raios"] ;
139 -> 155 ;
156 [label="meanvil <= 1.83\ngini = 0.408\nsamples = 14\nvalue = [4, 10]\nclass = sem raios"] ;
155 -> 156 ;
157 [label="strafrac <= 66.76\ngini = 0.278\nsamples = 12\nvalue = [2, 10]\nclass = sem raios"] ;
156 -> 157 ;
158 [label="riverfrac <= 22.685\ngini = 0.165\nsamples = 11\nvalue = [1, 10]\nclass = sem raios"] ;
157 -> 158 ;
159 [label="gini = 0.0\nsamples = 9\nvalue = [0, 9]\nclass = sem raios"] ;
158 -> 159 ;
160 [label="convfrac <= 77.78\ngini = 0.5\nsamples = 2\nvalue = [1, 1]\nclass = com raios"] ;
158 -> 160 ;
161 [label="gini = 0.0\nsamples = 1\nvalue = [1, 0]\nclass = com raios"] ;
160 -> 161 ;
162 [label="gini = 0.0\nsamples = 1\nvalue = [0, 1]\nclass = sem raios"] ;
160 -> 162 ;
163 [label="gini = 0.0\nsamples = 1\nvalue = [1, 0]\nclass = com raios"] ;
157 -> 163 ;
164 [label="gini = 0.0\nsamples = 2\nvalue = [2, 0]\nclass = com raios"] ;
156 -> 164 ;
165 [label="riverfrac <= 22.16\ngini = 0.245\nsamples = 7\nvalue = [6, 1]\nclass = com raios"] ;
155 -> 165 ;
166 [label="gini = 0.0\nsamples = 6\nvalue = [6, 0]\nclass = com raios"] ;
165 -> 166 ;
167 [label="gini = 0.0\nsamples = 1\nvalue = [0, 1]\nclass = sem raios"] ;
165 -> 167 ;
168 [label="gini = 0.0\nsamples = 25\nvalue = [25, 0]\nclass = com raios"] ;
82 -> 168 ;
169 [label="maxprec <= 6.76\ngini = 0.431\nsamples = 102\nvalue = [70, 32]\nclass = com raios"] ;
81 -> 169 ;
170 [label="ttvil <= 8.36\ngini = 0.142\nsamples = 13\nvalue = [12, 1]\nclass = com raios"] ;
169 -> 170 ;
171 [label="riverfrac <= 6.695\ngini = 0.375\nsamples = 4\nvalue = [3, 1]\nclass = com raios"] ;
170 -> 171 ;
172 [label="gini = 0.0\nsamples = 1\nvalue = [0, 1]\nclass = sem raios"] ;
171 -> 172 ;
173 [label="gini = 0.0\nsamples = 3\nvalue = [3, 0]\nclass = com raios"] ;
171 -> 173 ;
174 [label="gini = 0.0\nsamples = 9\nvalue = [9, 0]\nclass = com raios"] ;
170 -> 174 ;
175 [label="maxprec <= 7.66\ngini = 0.454\nsamples = 89\nvalue = [58, 31]\nclass = com raios"] ;
169 -> 175 ;
176 [label="gini = 0.0\nsamples = 4\nvalue = [0, 4]\nclass = sem raios"] ;
175 -> 176 ;
177 [label="riverfrac <= 2.99\ngini = 0.433\nsamples = 85\nvalue = [58, 27]\nclass = com raios"] ;
175 -> 177 ;
178 [label="meanprec <= 2.495\ngini = 0.334\nsamples = 52\nvalue = [41, 11]\nclass = com raios"] ;
177 -> 178 ;
179 [label="convfrac <= 15.625\ngini = 0.5\nsamples = 6\nvalue = [3, 3]\nclass = com raios"] ;
178 -> 179 ;
180 [label="gini = 0.0\nsamples = 3\nvalue = [3, 0]\nclass = com raios"] ;
179 -> 180 ;
181 [label="gini = 0.0\nsamples = 3\nvalue = [0, 3]\nclass = sem raios"] ;
179 -> 181 ;
182 [label="maxprec <= 16.815\ngini = 0.287\nsamples = 46\nvalue = [38, 8]\nclass = com raios"] ;
178 -> 182 ;
183 [label="maxprec <= 10.395\ngini = 0.159\nsamples = 23\nvalue = [21, 2]\nclass = com raios"] ;
182 -> 183 ;
184 [label="convfrac <= 23.335\ngini = 0.375\nsamples = 8\nvalue = [6, 2]\nclass = com raios"] ;
183 -> 184 ;
185 [label="maxprec <= 10.33\ngini = 0.245\nsamples = 7\nvalue = [6, 1]\nclass = com raios"] ;
184 -> 185 ;
186 [label="gini = 0.0\nsamples = 6\nvalue = [6, 0]\nclass = com raios"] ;
185 -> 186 ;
187 [label="gini = 0.0\nsamples = 1\nvalue = [0, 1]\nclass = sem raios"] ;
185 -> 187 ;
188 [label="gini = 0.0\nsamples = 1\nvalue = [0, 1]\nclass = sem raios"] ;
184 -> 188 ;
189 [label="gini = 0.0\nsamples = 15\nvalue = [15, 0]\nclass = com raios"] ;
183 -> 189 ;
190 [label="maxprec <= 17.17\ngini = 0.386\nsamples = 23\nvalue = [17, 6]\nclass = com raios"] ;
182 -> 190 ;
191 [label="gini = 0.0\nsamples = 3\nvalue = [0, 3]\nclass = sem raios"] ;
190 -> 191 ;
192 [label="ttvil <= 29.01\ngini = 0.255\nsamples = 20\nvalue = [17, 3]\nclass = com raios"] ;
190 -> 192 ;
193 [label="gini = 0.0\nsamples = 10\nvalue = [10, 0]\nclass = com raios"] ;
192 -> 193 ;
194 [label="ttvil <= 31.35\ngini = 0.42\nsamples = 10\nvalue = [7, 3]\nclass = com raios"] ;
192 -> 194 ;
195 [label="gini = 0.0\nsamples = 2\nvalue = [0, 2]\nclass = sem raios"] ;
194 -> 195 ;
196 [label="maxz <= 42.455\ngini = 0.219\nsamples = 8\nvalue = [7, 1]\nclass = com raios"] ;
194 -> 196 ;
197 [label="gini = 0.0\nsamples = 6\nvalue = [6, 0]\nclass = com raios"] ;
196 -> 197 ;
198 [label="ttvil <= 35.55\ngini = 0.5\nsamples = 2\nvalue = [1, 1]\nclass = com raios"] ;
196 -> 198 ;
199 [label="gini = 0.0\nsamples = 1\nvalue = [1, 0]\nclass = com raios"] ;
198 -> 199 ;
200 [label="gini = 0.0\nsamples = 1\nvalue = [0, 1]\nclass = sem raios"] ;
198 -> 200 ;
201 [label="maxprec <= 9.14\ngini = 0.5\nsamples = 33\nvalue = [17, 16]\nclass = com raios"] ;
177 -> 201 ;
202 [label="ttvil <= 10.21\ngini = 0.219\nsamples = 8\nvalue = [7, 1]\nclass = com raios"] ;
201 -> 202 ;
203 [label="gini = 0.0\nsamples = 1\nvalue = [0, 1]\nclass = sem raios"] ;
202 -> 203 ;
204 [label="gini = 0.0\nsamples = 7\nvalue = [7, 0]\nclass = com raios"] ;
202 -> 204 ;
205 [label="meanvil <= 0.49\ngini = 0.48\nsamples = 25\nvalue = [10, 15]\nclass = sem raios"] ;
201 -> 205 ;
206 [label="gini = 0.0\nsamples = 2\nvalue = [2, 0]\nclass = com raios"] ;
205 -> 206 ;
207 [label="meanprec <= 6.13\ngini = 0.454\nsamples = 23\nvalue = [8, 15]\nclass = sem raios"] ;
205 -> 207 ;
208 [label="maxz <= 36.495\ngini = 0.488\nsamples = 19\nvalue = [8, 11]\nclass = sem raios"] ;
207 -> 208 ;
209 [label="convfrac <= 24.965\ngini = 0.32\nsamples = 10\nvalue = [2, 8]\nclass = sem raios"] ;
208 -> 209 ;
210 [label="meanprec <= 2.595\ngini = 0.198\nsamples = 9\nvalue = [1, 8]\nclass = sem raios"] ;
209 -> 210 ;
211 [label="maxz <= 34.115\ngini = 0.5\nsamples = 2\nvalue = [1, 1]\nclass = com raios"] ;
210 -> 211 ;
212 [label="gini = 0.0\nsamples = 1\nvalue = [0, 1]\nclass = sem raios"] ;
211 -> 212 ;
213 [label="gini = 0.0\nsamples = 1\nvalue = [1, 0]\nclass = com raios"] ;
211 -> 213 ;
214 [label="gini = 0.0\nsamples = 7\nvalue = [0, 7]\nclass = sem raios"] ;
210 -> 214 ;
215 [label="gini = 0.0\nsamples = 1\nvalue = [1, 0]\nclass = com raios"] ;
209 -> 215 ;
216 [label="riverfrac <= 20.46\ngini = 0.444\nsamples = 9\nvalue = [6, 3]\nclass = com raios"] ;
208 -> 216 ;
217 [label="gini = 0.0\nsamples = 5\nvalue = [5, 0]\nclass = com raios"] ;
216 -> 217 ;
218 [label="maxz <= 37.495\ngini = 0.375\nsamples = 4\nvalue = [1, 3]\nclass = sem raios"] ;
216 -> 218 ;
219 [label="gini = 0.0\nsamples = 1\nvalue = [1, 0]\nclass = com raios"] ;
218 -> 219 ;
220 [label="gini = 0.0\nsamples = 3\nvalue = [0, 3]\nclass = sem raios"] ;
218 -> 220 ;
221 [label="gini = 0.0\nsamples = 4\nvalue = [0, 4]\nclass = sem raios"] ;
207 -> 221 ;
222 [label="strafrac <= 9.375\ngini = 0.375\nsamples = 4\nvalue = [1, 3]\nclass = sem raios"] ;
60 -> 222 ;
223 [label="gini = 0.0\nsamples = 1\nvalue = [1, 0]\nclass = com raios"] ;
222 -> 223 ;
224 [label="gini = 0.0\nsamples = 3\nvalue = [0, 3]\nclass = sem raios"] ;
222 -> 224 ;
225 [label="maxz <= 46.665\ngini = 0.484\nsamples = 321\nvalue = [189, 132]\nclass = com raios"] ;
1 -> 225 ;
226 [label="meanvil <= 0.505\ngini = 0.465\nsamples = 266\nvalue = [168, 98]\nclass = com raios"] ;
225 -> 226 ;
227 [label="maxz <= 31.3\ngini = 0.257\nsamples = 33\nvalue = [28, 5]\nclass = com raios"] ;
226 -> 227 ;
228 [label="meanvil <= 0.4\ngini = 0.49\nsamples = 7\nvalue = [3, 4]\nclass = sem raios"] ;
227 -> 228 ;
229 [label="riverfrac <= 4.055\ngini = 0.375\nsamples = 4\nvalue = [3, 1]\nclass = com raios"] ;
228 -> 229 ;
230 [label="gini = 0.0\nsamples = 3\nvalue = [3, 0]\nclass = com raios"] ;
229 -> 230 ;
231 [label="gini = 0.0\nsamples = 1\nvalue = [0, 1]\nclass = sem raios"] ;
229 -> 231 ;
232 [label="gini = 0.0\nsamples = 3\nvalue = [0, 3]\nclass = sem raios"] ;
228 -> 232 ;
233 [label="convfrac <= 54.05\ngini = 0.074\nsamples = 26\nvalue = [25, 1]\nclass = com raios"] ;
227 -> 233 ;
234 [label="gini = 0.0\nsamples = 22\nvalue = [22, 0]\nclass = com raios"] ;
233 -> 234 ;
235 [label="convfrac <= 62.515\ngini = 0.375\nsamples = 4\nvalue = [3, 1]\nclass = com raios"] ;
233 -> 235 ;
236 [label="gini = 0.0\nsamples = 1\nvalue = [0, 1]\nclass = sem raios"] ;
235 -> 236 ;
237 [label="gini = 0.0\nsamples = 3\nvalue = [3, 0]\nclass = com raios"] ;
235 -> 237 ;
238 [label="maxprec <= 28.845\ngini = 0.48\nsamples = 233\nvalue = [140, 93]\nclass = com raios"] ;
226 -> 238 ;
239 [label="riverfrac <= 9.86\ngini = 0.469\nsamples = 48\nvalue = [18, 30]\nclass = sem raios"] ;
238 -> 239 ;
240 [label="strafrac <= 79.515\ngini = 0.498\nsamples = 30\nvalue = [16, 14]\nclass = com raios"] ;
239 -> 240 ;
241 [label="meanprec <= 3.445\ngini = 0.444\nsamples = 24\nvalue = [16, 8]\nclass = com raios"] ;
240 -> 241 ;
242 [label="gini = 0.0\nsamples = 7\nvalue = [7, 0]\nclass = com raios"] ;
241 -> 242 ;
243 [label="meanprec <= 3.795\ngini = 0.498\nsamples = 17\nvalue = [9, 8]\nclass = com raios"] ;
241 -> 243 ;
244 [label="meanvil <= 0.615\ngini = 0.278\nsamples = 6\nvalue = [1, 5]\nclass = sem raios"] ;
243 -> 244 ;
245 [label="gini = 0.0\nsamples = 1\nvalue = [1, 0]\nclass = com raios"] ;
244 -> 245 ;
246 [label="gini = 0.0\nsamples = 5\nvalue = [0, 5]\nclass = sem raios"] ;
244 -> 246 ;
247 [label="meanprec <= 5.03\ngini = 0.397\nsamples = 11\nvalue = [8, 3]\nclass = com raios"] ;
243 -> 247 ;
248 [label="gini = 0.0\nsamples = 5\nvalue = [5, 0]\nclass = com raios"] ;
247 -> 248 ;
249 [label="strafrac <= 73.005\ngini = 0.5\nsamples = 6\nvalue = [3, 3]\nclass = com raios"] ;
247 -> 249 ;
250 [label="maxprec <= 20.51\ngini = 0.375\nsamples = 4\nvalue = [3, 1]\nclass = com raios"] ;
249 -> 250 ;
251 [label="gini = 0.0\nsamples = 1\nvalue = [0, 1]\nclass = sem raios"] ;
250 -> 251 ;
252 [label="gini = 0.0\nsamples = 3\nvalue = [3, 0]\nclass = com raios"] ;
250 -> 252 ;
253 [label="gini = 0.0\nsamples = 2\nvalue = [0, 2]\nclass = sem raios"] ;
249 -> 253 ;
254 [label="gini = 0.0\nsamples = 6\nvalue = [0, 6]\nclass = sem raios"] ;
240 -> 254 ;
255 [label="ttvil <= 43.28\ngini = 0.198\nsamples = 18\nvalue = [2, 16]\nclass = sem raios"] ;
239 -> 255 ;
256 [label="gini = 0.0\nsamples = 1\nvalue = [1, 0]\nclass = com raios"] ;
255 -> 256 ;
257 [label="strafrac <= 85.63\ngini = 0.111\nsamples = 17\nvalue = [1, 16]\nclass = sem raios"] ;
255 -> 257 ;
258 [label="gini = 0.0\nsamples = 16\nvalue = [0, 16]\nclass = sem raios"] ;
257 -> 258 ;
259 [label="gini = 0.0\nsamples = 1\nvalue = [1, 0]\nclass = com raios"] ;
257 -> 259 ;
260 [label="riverfrac <= 9.76\ngini = 0.449\nsamples = 185\nvalue = [122, 63]\nclass = com raios"] ;
238 -> 260 ;
261 [label="meanz <= 31.615\ngini = 0.484\nsamples = 124\nvalue = [73, 51]\nclass = com raios"] ;
260 -> 261 ;
262 [label="riverfrac <= 5.815\ngini = 0.332\nsamples = 38\nvalue = [30, 8]\nclass = com raios"] ;
261 -> 262 ;
263 [label="ttvil <= 117.6\ngini = 0.219\nsamples = 32\nvalue = [28, 4]\nclass = com raios"] ;
262 -> 263 ;
264 [label="meanz <= 30.285\ngini = 0.128\nsamples = 29\nvalue = [27, 2]\nclass = com raios"] ;
263 -> 264 ;
265 [label="maxprec <= 40.15\ngini = 0.346\nsamples = 9\nvalue = [7, 2]\nclass = com raios"] ;
264 -> 265 ;
266 [label="gini = 0.0\nsamples = 7\nvalue = [7, 0]\nclass = com raios"] ;
265 -> 266 ;
267 [label="gini = 0.0\nsamples = 2\nvalue = [0, 2]\nclass = sem raios"] ;
265 -> 267 ;
268 [label="gini = 0.0\nsamples = 20\nvalue = [20, 0]\nclass = com raios"] ;
264 -> 268 ;
269 [label="strafrac <= 55.24\ngini = 0.444\nsamples = 3\nvalue = [1, 2]\nclass = sem raios"] ;
263 -> 269 ;
270 [label="gini = 0.0\nsamples = 1\nvalue = [1, 0]\nclass = com raios"] ;
269 -> 270 ;
271 [label="gini = 0.0\nsamples = 2\nvalue = [0, 2]\nclass = sem raios"] ;
269 -> 271 ;
272 [label="meanprec <= 5.9\ngini = 0.444\nsamples = 6\nvalue = [2, 4]\nclass = sem raios"] ;
262 -> 272 ;
273 [label="gini = 0.0\nsamples = 4\nvalue = [0, 4]\nclass = sem raios"] ;
272 -> 273 ;
274 [label="gini = 0.0\nsamples = 2\nvalue = [2, 0]\nclass = com raios"] ;
272 -> 274 ;
275 [label="maxz <= 43.075\ngini = 0.5\nsamples = 86\nvalue = [43, 43]\nclass = com raios"] ;
261 -> 275 ;
276 [label="meanvil <= 2.21\ngini = 0.32\nsamples = 20\nvalue = [4, 16]\nclass = sem raios"] ;
275 -> 276 ;
277 [label="ttvil <= 97.46\ngini = 0.266\nsamples = 19\nvalue = [3, 16]\nclass = sem raios"] ;
276 -> 277 ;
278 [label="ttvil <= 61.885\ngini = 0.198\nsamples = 18\nvalue = [2, 16]\nclass = sem raios"] ;
277 -> 278 ;
279 [label="ttvil <= 43.91\ngini = 0.408\nsamples = 7\nvalue = [2, 5]\nclass = sem raios"] ;
278 -> 279 ;
280 [label="gini = 0.0\nsamples = 4\nvalue = [0, 4]\nclass = sem raios"] ;
279 -> 280 ;
281 [label="meanz <= 31.91\ngini = 0.444\nsamples = 3\nvalue = [2, 1]\nclass = com raios"] ;
279 -> 281 ;
282 [label="gini = 0.0\nsamples = 1\nvalue = [0, 1]\nclass = sem raios"] ;
281 -> 282 ;
283 [label="gini = 0.0\nsamples = 2\nvalue = [2, 0]\nclass = com raios"] ;
281 -> 283 ;
284 [label="gini = 0.0\nsamples = 11\nvalue = [0, 11]\nclass = sem raios"] ;
278 -> 284 ;
285 [label="gini = 0.0\nsamples = 1\nvalue = [1, 0]\nclass = com raios"] ;
277 -> 285 ;
286 [label="gini = 0.0\nsamples = 1\nvalue = [1, 0]\nclass = com raios"] ;
276 -> 286 ;
287 [label="meanvil <= 2.33\ngini = 0.483\nsamples = 66\nvalue = [39, 27]\nclass = com raios"] ;
275 -> 287 ;
288 [label="maxprec <= 46.72\ngini = 0.467\nsamples = 62\nvalue = [39, 23]\nclass = com raios"] ;
287 -> 288 ;
289 [label="gini = 0.0\nsamples = 7\nvalue = [7, 0]\nclass = com raios"] ;
288 -> 289 ;
290 [label="maxprec <= 48.35\ngini = 0.487\nsamples = 55\nvalue = [32, 23]\nclass = com raios"] ;
288 -> 290 ;
291 [label="gini = 0.0\nsamples = 4\nvalue = [0, 4]\nclass = sem raios"] ;
290 -> 291 ;
292 [label="ttvil <= 54.81\ngini = 0.468\nsamples = 51\nvalue = [32, 19]\nclass = com raios"] ;
290 -> 292 ;
293 [label="strafrac <= 74.34\ngini = 0.49\nsamples = 14\nvalue = [6, 8]\nclass = sem raios"] ;
292 -> 293 ;
294 [label="strafrac <= 64.73\ngini = 0.496\nsamples = 11\nvalue = [6, 5]\nclass = com raios"] ;
293 -> 294 ;
295 [label="maxprec <= 55.68\ngini = 0.408\nsamples = 7\nvalue = [2, 5]\nclass = sem raios"] ;
294 -> 295 ;
296 [label="gini = 0.0\nsamples = 4\nvalue = [0, 4]\nclass = sem raios"] ;
295 -> 296 ;
297 [label="maxprec <= 64.655\ngini = 0.444\nsamples = 3\nvalue = [2, 1]\nclass = com raios"] ;
295 -> 297 ;
298 [label="gini = 0.0\nsamples = 2\nvalue = [2, 0]\nclass = com raios"] ;
297 -> 298 ;
299 [label="gini = 0.0\nsamples = 1\nvalue = [0, 1]\nclass = sem raios"] ;
297 -> 299 ;
300 [label="gini = 0.0\nsamples = 4\nvalue = [4, 0]\nclass = com raios"] ;
294 -> 300 ;
301 [label="gini = 0.0\nsamples = 3\nvalue = [0, 3]\nclass = sem raios"] ;
293 -> 301 ;
302 [label="ttvil <= 72.4\ngini = 0.418\nsamples = 37\nvalue = [26, 11]\nclass = com raios"] ;
292 -> 302 ;
303 [label="maxz <= 45.995\ngini = 0.117\nsamples = 16\nvalue = [15, 1]\nclass = com raios"] ;
302 -> 303 ;
304 [label="gini = 0.0\nsamples = 12\nvalue = [12, 0]\nclass = com raios"] ;
303 -> 304 ;
305 [label="maxz <= 46.21\ngini = 0.375\nsamples = 4\nvalue = [3, 1]\nclass = com raios"] ;
303 -> 305 ;
306 [label="gini = 0.0\nsamples = 1\nvalue = [0, 1]\nclass = sem raios"] ;
305 -> 306 ;
307 [label="gini = 0.0\nsamples = 3\nvalue = [3, 0]\nclass = com raios"] ;
305 -> 307 ;
308 [label="maxprec <= 63.775\ngini = 0.499\nsamples = 21\nvalue = [11, 10]\nclass = com raios"] ;
302 -> 308 ;
309 [label="strafrac <= 70.21\ngini = 0.48\nsamples = 15\nvalue = [6, 9]\nclass = sem raios"] ;
308 -> 309 ;
310 [label="meanvil <= 1.79\ngini = 0.32\nsamples = 10\nvalue = [2, 8]\nclass = sem raios"] ;
309 -> 310 ;
311 [label="gini = 0.0\nsamples = 6\nvalue = [0, 6]\nclass = sem raios"] ;
310 -> 311 ;
312 [label="riverfrac <= 4.1\ngini = 0.5\nsamples = 4\nvalue = [2, 2]\nclass = com raios"] ;
310 -> 312 ;
313 [label="meanvil <= 1.875\ngini = 0.444\nsamples = 3\nvalue = [1, 2]\nclass = sem raios"] ;
312 -> 313 ;
314 [label="gini = 0.0\nsamples = 1\nvalue = [1, 0]\nclass = com raios"] ;
313 -> 314 ;
315 [label="gini = 0.0\nsamples = 2\nvalue = [0, 2]\nclass = sem raios"] ;
313 -> 315 ;
316 [label="gini = 0.0\nsamples = 1\nvalue = [1, 0]\nclass = com raios"] ;
312 -> 316 ;
317 [label="maxz <= 45.35\ngini = 0.32\nsamples = 5\nvalue = [4, 1]\nclass = com raios"] ;
309 -> 317 ;
318 [label="gini = 0.0\nsamples = 4\nvalue = [4, 0]\nclass = com raios"] ;
317 -> 318 ;
319 [label="gini = 0.0\nsamples = 1\nvalue = [0, 1]\nclass = sem raios"] ;
317 -> 319 ;
320 [label="maxz <= 46.025\ngini = 0.278\nsamples = 6\nvalue = [5, 1]\nclass = com raios"] ;
308 -> 320 ;
321 [label="gini = 0.0\nsamples = 4\nvalue = [4, 0]\nclass = com raios"] ;
320 -> 321 ;
322 [label="meanprec <= 14.275\ngini = 0.5\nsamples = 2\nvalue = [1, 1]\nclass = com raios"] ;
320 -> 322 ;
323 [label="gini = 0.0\nsamples = 1\nvalue = [0, 1]\nclass = sem raios"] ;
322 -> 323 ;
324 [label="gini = 0.0\nsamples = 1\nvalue = [1, 0]\nclass = com raios"] ;
322 -> 324 ;
325 [label="gini = 0.0\nsamples = 4\nvalue = [0, 4]\nclass = sem raios"] ;
287 -> 325 ;
326 [label="riverfrac <= 87.055\ngini = 0.316\nsamples = 61\nvalue = [49, 12]\nclass = com raios"] ;
260 -> 326 ;
327 [label="meanprec <= 4.915\ngini = 0.282\nsamples = 59\nvalue = [49, 10]\nclass = com raios"] ;
326 -> 327 ;
328 [label="meanvil <= 0.845\ngini = 0.48\nsamples = 5\nvalue = [2, 3]\nclass = sem raios"] ;
327 -> 328 ;
329 [label="gini = 0.0\nsamples = 2\nvalue = [2, 0]\nclass = com raios"] ;
328 -> 329 ;
330 [label="gini = 0.0\nsamples = 3\nvalue = [0, 3]\nclass = sem raios"] ;
328 -> 330 ;
331 [label="ttvil <= 82.82\ngini = 0.226\nsamples = 54\nvalue = [47, 7]\nclass = com raios"] ;
327 -> 331 ;
332 [label="meanvil <= 0.93\ngini = 0.105\nsamples = 36\nvalue = [34, 2]\nclass = com raios"] ;
331 -> 332 ;
333 [label="meanprec <= 8.055\ngini = 0.5\nsamples = 2\nvalue = [1, 1]\nclass = com raios"] ;
332 -> 333 ;
334 [label="gini = 0.0\nsamples = 1\nvalue = [0, 1]\nclass = sem raios"] ;
333 -> 334 ;
335 [label="gini = 0.0\nsamples = 1\nvalue = [1, 0]\nclass = com raios"] ;
333 -> 335 ;
336 [label="ttvil <= 72.925\ngini = 0.057\nsamples = 34\nvalue = [33, 1]\nclass = com raios"] ;
332 -> 336 ;
337 [label="gini = 0.0\nsamples = 28\nvalue = [28, 0]\nclass = com raios"] ;
336 -> 337 ;
338 [label="strafrac <= 37.965\ngini = 0.278\nsamples = 6\nvalue = [5, 1]\nclass = com raios"] ;
336 -> 338 ;
339 [label="gini = 0.0\nsamples = 1\nvalue = [0, 1]\nclass = sem raios"] ;
338 -> 339 ;
340 [label="gini = 0.0\nsamples = 5\nvalue = [5, 0]\nclass = com raios"] ;
338 -> 340 ;
341 [label="convfrac <= 29.51\ngini = 0.401\nsamples = 18\nvalue = [13, 5]\nclass = com raios"] ;
331 -> 341 ;
342 [label="ttvil <= 108.86\ngini = 0.49\nsamples = 7\nvalue = [3, 4]\nclass = sem raios"] ;
341 -> 342 ;
343 [label="gini = 0.0\nsamples = 3\nvalue = [0, 3]\nclass = sem raios"] ;
342 -> 343 ;
344 [label="riverfrac <= 22.33\ngini = 0.375\nsamples = 4\nvalue = [3, 1]\nclass = com raios"] ;
342 -> 344 ;
345 [label="gini = 0.0\nsamples = 3\nvalue = [3, 0]\nclass = com raios"] ;
344 -> 345 ;
346 [label="gini = 0.0\nsamples = 1\nvalue = [0, 1]\nclass = sem raios"] ;
344 -> 346 ;
347 [label="convfrac <= 77.285\ngini = 0.165\nsamples = 11\nvalue = [10, 1]\nclass = com raios"] ;
341 -> 347 ;
348 [label="gini = 0.0\nsamples = 9\nvalue = [9, 0]\nclass = com raios"] ;
347 -> 348 ;
349 [label="meanvil <= 2.205\ngini = 0.5\nsamples = 2\nvalue = [1, 1]\nclass = com raios"] ;
347 -> 349 ;
350 [label="gini = 0.0\nsamples = 1\nvalue = [0, 1]\nclass = sem raios"] ;
349 -> 350 ;
351 [label="gini = 0.0\nsamples = 1\nvalue = [1, 0]\nclass = com raios"] ;
349 -> 351 ;
352 [label="gini = 0.0\nsamples = 2\nvalue = [0, 2]\nclass = sem raios"] ;
326 -> 352 ;
353 [label="strafrac <= 1.35\ngini = 0.472\nsamples = 55\nvalue = [21, 34]\nclass = sem raios"] ;
225 -> 353 ;
354 [label="meanprec <= 28.93\ngini = 0.245\nsamples = 7\nvalue = [6, 1]\nclass = com raios"] ;
353 -> 354 ;
355 [label="gini = 0.0\nsamples = 6\nvalue = [6, 0]\nclass = com raios"] ;
354 -> 355 ;
356 [label="gini = 0.0\nsamples = 1\nvalue = [0, 1]\nclass = sem raios"] ;
354 -> 356 ;
357 [label="ttvil <= 111.69\ngini = 0.43\nsamples = 48\nvalue = [15, 33]\nclass = sem raios"] ;
353 -> 357 ;
358 [label="meanvil <= 1.895\ngini = 0.375\nsamples = 40\nvalue = [10, 30]\nclass = sem raios"] ;
357 -> 358 ;
359 [label="maxz <= 46.795\ngini = 0.18\nsamples = 20\nvalue = [2, 18]\nclass = sem raios"] ;
358 -> 359 ;
360 [label="gini = 0.0\nsamples = 1\nvalue = [1, 0]\nclass = com raios"] ;
359 -> 360 ;
361 [label="meanvil <= 1.24\ngini = 0.1\nsamples = 19\nvalue = [1, 18]\nclass = sem raios"] ;
359 -> 361 ;
362 [label="meanz <= 33.82\ngini = 0.245\nsamples = 7\nvalue = [1, 6]\nclass = sem raios"] ;
361 -> 362 ;
363 [label="gini = 0.0\nsamples = 6\nvalue = [0, 6]\nclass = sem raios"] ;
362 -> 363 ;
364 [label="gini = 0.0\nsamples = 1\nvalue = [1, 0]\nclass = com raios"] ;
362 -> 364 ;
365 [label="gini = 0.0\nsamples = 12\nvalue = [0, 12]\nclass = sem raios"] ;
361 -> 365 ;
366 [label="convfrac <= 89.205\ngini = 0.48\nsamples = 20\nvalue = [8, 12]\nclass = sem raios"] ;
358 -> 366 ;
367 [label="ttvil <= 92.98\ngini = 0.5\nsamples = 16\nvalue = [8, 8]\nclass = com raios"] ;
366 -> 367 ;
368 [label="meanz <= 37.75\ngini = 0.42\nsamples = 10\nvalue = [7, 3]\nclass = com raios"] ;
367 -> 368 ;
369 [label="strafrac <= 64.985\ngini = 0.245\nsamples = 7\nvalue = [6, 1]\nclass = com raios"] ;
368 -> 369 ;
370 [label="gini = 0.0\nsamples = 6\nvalue = [6, 0]\nclass = com raios"] ;
369 -> 370 ;
371 [label="gini = 0.0\nsamples = 1\nvalue = [0, 1]\nclass = sem raios"] ;
369 -> 371 ;
372 [label="strafrac <= 24.275\ngini = 0.444\nsamples = 3\nvalue = [1, 2]\nclass = sem raios"] ;
368 -> 372 ;
373 [label="gini = 0.0\nsamples = 1\nvalue = [1, 0]\nclass = com raios"] ;
372 -> 373 ;
374 [label="gini = 0.0\nsamples = 2\nvalue = [0, 2]\nclass = sem raios"] ;
372 -> 374 ;
375 [label="strafrac <= 71.78\ngini = 0.278\nsamples = 6\nvalue = [1, 5]\nclass = sem raios"] ;
367 -> 375 ;
376 [label="gini = 0.0\nsamples = 5\nvalue = [0, 5]\nclass = sem raios"] ;
375 -> 376 ;
377 [label="gini = 0.0\nsamples = 1\nvalue = [1, 0]\nclass = com raios"] ;
375 -> 377 ;
378 [label="gini = 0.0\nsamples = 4\nvalue = [0, 4]\nclass = sem raios"] ;
366 -> 378 ;
379 [label="meanvil <= 1.21\ngini = 0.469\nsamples = 8\nvalue = [5, 3]\nclass = com raios"] ;
357 -> 379 ;
380 [label="gini = 0.0\nsamples = 1\nvalue = [0, 1]\nclass = sem raios"] ;
379 -> 380 ;
381 [label="convfrac <= 94.285\ngini = 0.408\nsamples = 7\nvalue = [5, 2]\nclass = com raios"] ;
379 -> 381 ;
382 [label="ttvil <= 122.26\ngini = 0.278\nsamples = 6\nvalue = [5, 1]\nclass = com raios"] ;
381 -> 382 ;
383 [label="gini = 0.0\nsamples = 4\nvalue = [4, 0]\nclass = com raios"] ;
382 -> 383 ;
384 [label="maxz <= 48.01\ngini = 0.5\nsamples = 2\nvalue = [1, 1]\nclass = com raios"] ;
382 -> 384 ;
385 [label="gini = 0.0\nsamples = 1\nvalue = [1, 0]\nclass = com raios"] ;
384 -> 385 ;
386 [label="gini = 0.0\nsamples = 1\nvalue = [0, 1]\nclass = sem raios"] ;
384 -> 386 ;
387 [label="gini = 0.0\nsamples = 1\nvalue = [0, 1]\nclass = sem raios"] ;
381 -> 387 ;
388 [label="meanvil <= 1.115\ngini = 0.257\nsamples = 654\nvalue = [99, 555]\nclass = sem raios"] ;
0 -> 388 [labeldistance=2.5, labelangle=-45, headlabel="False"] ;
389 [label="strafrac <= 65.06\ngini = 0.5\nsamples = 71\nvalue = [36, 35]\nclass = com raios"] ;
388 -> 389 ;
390 [label="ttvil <= 543.575\ngini = 0.095\nsamples = 20\nvalue = [19, 1]\nclass = com raios"] ;
389 -> 390 ;
391 [label="gini = 0.0\nsamples = 19\nvalue = [19, 0]\nclass = com raios"] ;
390 -> 391 ;
392 [label="gini = 0.0\nsamples = 1\nvalue = [0, 1]\nclass = sem raios"] ;
390 -> 392 ;
393 [label="meanvil <= 0.55\ngini = 0.444\nsamples = 51\nvalue = [17, 34]\nclass = sem raios"] ;
389 -> 393 ;
394 [label="gini = 0.0\nsamples = 4\nvalue = [4, 0]\nclass = com raios"] ;
393 -> 394 ;
395 [label="strafrac <= 76.9\ngini = 0.4\nsamples = 47\nvalue = [13, 34]\nclass = sem raios"] ;
393 -> 395 ;
396 [label="convfrac <= 30.865\ngini = 0.488\nsamples = 26\nvalue = [11, 15]\nclass = sem raios"] ;
395 -> 396 ;
397 [label="maxprec <= 48.705\ngini = 0.484\nsamples = 17\nvalue = [10, 7]\nclass = com raios"] ;
396 -> 397 ;
398 [label="gini = 0.0\nsamples = 6\nvalue = [6, 0]\nclass = com raios"] ;
397 -> 398 ;
399 [label="meanprec <= 6.94\ngini = 0.463\nsamples = 11\nvalue = [4, 7]\nclass = sem raios"] ;
397 -> 399 ;
400 [label="strafrac <= 71.83\ngini = 0.219\nsamples = 8\nvalue = [1, 7]\nclass = sem raios"] ;
399 -> 400 ;
401 [label="gini = 0.0\nsamples = 1\nvalue = [1, 0]\nclass = com raios"] ;
400 -> 401 ;
402 [label="gini = 0.0\nsamples = 7\nvalue = [0, 7]\nclass = sem raios"] ;
400 -> 402 ;
403 [label="gini = 0.0\nsamples = 3\nvalue = [3, 0]\nclass = com raios"] ;
399 -> 403 ;
404 [label="meanprec <= 3.89\ngini = 0.198\nsamples = 9\nvalue = [1, 8]\nclass = sem raios"] ;
396 -> 404 ;
405 [label="gini = 0.0\nsamples = 1\nvalue = [1, 0]\nclass = com raios"] ;
404 -> 405 ;
406 [label="gini = 0.0\nsamples = 8\nvalue = [0, 8]\nclass = sem raios"] ;
404 -> 406 ;
407 [label="meanprec <= 6.475\ngini = 0.172\nsamples = 21\nvalue = [2, 19]\nclass = sem raios"] ;
395 -> 407 ;
408 [label="convfrac <= 16.82\ngini = 0.1\nsamples = 19\nvalue = [1, 18]\nclass = sem raios"] ;
407 -> 408 ;
409 [label="convfrac <= 13.4\ngini = 0.375\nsamples = 4\nvalue = [1, 3]\nclass = sem raios"] ;
408 -> 409 ;
410 [label="gini = 0.0\nsamples = 3\nvalue = [0, 3]\nclass = sem raios"] ;
409 -> 410 ;
411 [label="gini = 0.0\nsamples = 1\nvalue = [1, 0]\nclass = com raios"] ;
409 -> 411 ;
412 [label="gini = 0.0\nsamples = 15\nvalue = [0, 15]\nclass = sem raios"] ;
408 -> 412 ;
413 [label="convfrac <= 20.895\ngini = 0.5\nsamples = 2\nvalue = [1, 1]\nclass = com raios"] ;
407 -> 413 ;
414 [label="gini = 0.0\nsamples = 1\nvalue = [0, 1]\nclass = sem raios"] ;
413 -> 414 ;
415 [label="gini = 0.0\nsamples = 1\nvalue = [1, 0]\nclass = com raios"] ;
413 -> 415 ;
416 [label="ttvil <= 326.42\ngini = 0.193\nsamples = 583\nvalue = [63, 520]\nclass = sem raios"] ;
388 -> 416 ;
417 [label="ttvil <= 316.94\ngini = 0.344\nsamples = 213\nvalue = [47, 166]\nclass = sem raios"] ;
416 -> 417 ;
418 [label="maxprec <= 134.485\ngini = 0.326\nsamples = 205\nvalue = [42, 163]\nclass = sem raios"] ;
417 -> 418 ;
419 [label="meanprec <= 28.755\ngini = 0.37\nsamples = 167\nvalue = [41, 126]\nclass = sem raios"] ;
418 -> 419 ;
420 [label="ttvil <= 158.605\ngini = 0.361\nsamples = 165\nvalue = [39, 126]\nclass = sem raios"] ;
419 -> 420 ;
421 [label="ttvil <= 147.885\ngini = 0.457\nsamples = 51\nvalue = [18, 33]\nclass = sem raios"] ;
420 -> 421 ;
422 [label="riverfrac <= 43.405\ngini = 0.393\nsamples = 41\nvalue = [11, 30]\nclass = sem raios"] ;
421 -> 422 ;
423 [label="ttvil <= 140.425\ngini = 0.339\nsamples = 37\nvalue = [8, 29]\nclass = sem raios"] ;
422 -> 423 ;
424 [label="ttvil <= 137.155\ngini = 0.444\nsamples = 24\nvalue = [8, 16]\nclass = sem raios"] ;
423 -> 424 ;
425 [label="maxz <= 44.615\ngini = 0.291\nsamples = 17\nvalue = [3, 14]\nclass = sem raios"] ;
424 -> 425 ;
426 [label="riverfrac <= 15.34\ngini = 0.444\nsamples = 3\nvalue = [2, 1]\nclass = com raios"] ;
425 -> 426 ;
427 [label="gini = 0.0\nsamples = 2\nvalue = [2, 0]\nclass = com raios"] ;
426 -> 427 ;
428 [label="gini = 0.0\nsamples = 1\nvalue = [0, 1]\nclass = sem raios"] ;
426 -> 428 ;
429 [label="maxz <= 48.63\ngini = 0.133\nsamples = 14\nvalue = [1, 13]\nclass = sem raios"] ;
425 -> 429 ;
430 [label="gini = 0.0\nsamples = 13\nvalue = [0, 13]\nclass = sem raios"] ;
429 -> 430 ;
431 [label="gini = 0.0\nsamples = 1\nvalue = [1, 0]\nclass = com raios"] ;
429 -> 431 ;
432 [label="strafrac <= 68.67\ngini = 0.408\nsamples = 7\nvalue = [5, 2]\nclass = com raios"] ;
424 -> 432 ;
433 [label="gini = 0.0\nsamples = 4\nvalue = [4, 0]\nclass = com raios"] ;
432 -> 433 ;
434 [label="strafrac <= 74.4\ngini = 0.444\nsamples = 3\nvalue = [1, 2]\nclass = sem raios"] ;
432 -> 434 ;
435 [label="gini = 0.0\nsamples = 2\nvalue = [0, 2]\nclass = sem raios"] ;
434 -> 435 ;
436 [label="gini = 0.0\nsamples = 1\nvalue = [1, 0]\nclass = com raios"] ;
434 -> 436 ;
437 [label="gini = 0.0\nsamples = 13\nvalue = [0, 13]\nclass = sem raios"] ;
423 -> 437 ;
438 [label="meanvil <= 1.96\ngini = 0.375\nsamples = 4\nvalue = [3, 1]\nclass = com raios"] ;
422 -> 438 ;
439 [label="gini = 0.0\nsamples = 2\nvalue = [2, 0]\nclass = com raios"] ;
438 -> 439 ;
440 [label="meanprec <= 16.55\ngini = 0.5\nsamples = 2\nvalue = [1, 1]\nclass = com raios"] ;
438 -> 440 ;
441 [label="gini = 0.0\nsamples = 1\nvalue = [0, 1]\nclass = sem raios"] ;
440 -> 441 ;
442 [label="gini = 0.0\nsamples = 1\nvalue = [1, 0]\nclass = com raios"] ;
440 -> 442 ;
443 [label="strafrac <= 38.39\ngini = 0.42\nsamples = 10\nvalue = [7, 3]\nclass = com raios"] ;
421 -> 443 ;
444 [label="gini = 0.0\nsamples = 4\nvalue = [4, 0]\nclass = com raios"] ;
443 -> 444 ;
445 [label="meanz <= 33.685\ngini = 0.5\nsamples = 6\nvalue = [3, 3]\nclass = com raios"] ;
443 -> 445 ;
446 [label="gini = 0.0\nsamples = 2\nvalue = [2, 0]\nclass = com raios"] ;
445 -> 446 ;
447 [label="ttvil <= 155.695\ngini = 0.375\nsamples = 4\nvalue = [1, 3]\nclass = sem raios"] ;
445 -> 447 ;
448 [label="maxz <= 47.245\ngini = 0.5\nsamples = 2\nvalue = [1, 1]\nclass = com raios"] ;
447 -> 448 ;
449 [label="gini = 0.0\nsamples = 1\nvalue = [0, 1]\nclass = sem raios"] ;
448 -> 449 ;
450 [label="gini = 0.0\nsamples = 1\nvalue = [1, 0]\nclass = com raios"] ;
448 -> 450 ;
451 [label="gini = 0.0\nsamples = 2\nvalue = [0, 2]\nclass = sem raios"] ;
447 -> 451 ;
452 [label="meanvil <= 1.645\ngini = 0.301\nsamples = 114\nvalue = [21, 93]\nclass = sem raios"] ;
420 -> 452 ;
453 [label="meanprec <= 11.975\ngini = 0.43\nsamples = 32\nvalue = [10, 22]\nclass = sem raios"] ;
452 -> 453 ;
454 [label="riverfrac <= 18.19\ngini = 0.366\nsamples = 29\nvalue = [7, 22]\nclass = sem raios"] ;
453 -> 454 ;
455 [label="strafrac <= 64.275\ngini = 0.227\nsamples = 23\nvalue = [3, 20]\nclass = sem raios"] ;
454 -> 455 ;
456 [label="strafrac <= 48.08\ngini = 0.5\nsamples = 4\nvalue = [2, 2]\nclass = com raios"] ;
455 -> 456 ;
457 [label="gini = 0.0\nsamples = 2\nvalue = [0, 2]\nclass = sem raios"] ;
456 -> 457 ;
458 [label="gini = 0.0\nsamples = 2\nvalue = [2, 0]\nclass = com raios"] ;
456 -> 458 ;
459 [label="ttvil <= 173.0\ngini = 0.1\nsamples = 19\nvalue = [1, 18]\nclass = sem raios"] ;
455 -> 459 ;
460 [label="maxz <= 47.695\ngini = 0.32\nsamples = 5\nvalue = [1, 4]\nclass = sem raios"] ;
459 -> 460 ;
461 [label="gini = 0.0\nsamples = 4\nvalue = [0, 4]\nclass = sem raios"] ;
460 -> 461 ;
462 [label="gini = 0.0\nsamples = 1\nvalue = [1, 0]\nclass = com raios"] ;
460 -> 462 ;
463 [label="gini = 0.0\nsamples = 14\nvalue = [0, 14]\nclass = sem raios"] ;
459 -> 463 ;
464 [label="convfrac <= 24.7\ngini = 0.444\nsamples = 6\nvalue = [4, 2]\nclass = com raios"] ;
454 -> 464 ;
465 [label="gini = 0.0\nsamples = 3\nvalue = [3, 0]\nclass = com raios"] ;
464 -> 465 ;
466 [label="meanvil <= 1.235\ngini = 0.444\nsamples = 3\nvalue = [1, 2]\nclass = sem raios"] ;
464 -> 466 ;
467 [label="gini = 0.0\nsamples = 1\nvalue = [1, 0]\nclass = com raios"] ;
466 -> 467 ;
468 [label="gini = 0.0\nsamples = 2\nvalue = [0, 2]\nclass = sem raios"] ;
466 -> 468 ;
469 [label="gini = 0.0\nsamples = 3\nvalue = [3, 0]\nclass = com raios"] ;
453 -> 469 ;
470 [label="meanprec <= 12.92\ngini = 0.232\nsamples = 82\nvalue = [11, 71]\nclass = sem raios"] ;
452 -> 470 ;
471 [label="gini = 0.0\nsamples = 29\nvalue = [0, 29]\nclass = sem raios"] ;
470 -> 471 ;
472 [label="ttvil <= 266.52\ngini = 0.329\nsamples = 53\nvalue = [11, 42]\nclass = sem raios"] ;
470 -> 472 ;
473 [label="ttvil <= 261.505\ngini = 0.399\nsamples = 40\nvalue = [11, 29]\nclass = sem raios"] ;
472 -> 473 ;
474 [label="meanz <= 35.855\ngini = 0.361\nsamples = 38\nvalue = [9, 29]\nclass = sem raios"] ;
473 -> 474 ;
475 [label="convfrac <= 36.685\ngini = 0.5\nsamples = 8\nvalue = [4, 4]\nclass = com raios"] ;
474 -> 475 ;
476 [label="gini = 0.0\nsamples = 2\nvalue = [2, 0]\nclass = com raios"] ;
475 -> 476 ;
477 [label="strafrac <= 45.78\ngini = 0.444\nsamples = 6\nvalue = [2, 4]\nclass = sem raios"] ;
475 -> 477 ;
478 [label="ttvil <= 215.63\ngini = 0.444\nsamples = 3\nvalue = [2, 1]\nclass = com raios"] ;
477 -> 478 ;
479 [label="gini = 0.0\nsamples = 2\nvalue = [2, 0]\nclass = com raios"] ;
478 -> 479 ;
480 [label="gini = 0.0\nsamples = 1\nvalue = [0, 1]\nclass = sem raios"] ;
478 -> 480 ;
481 [label="gini = 0.0\nsamples = 3\nvalue = [0, 3]\nclass = sem raios"] ;
477 -> 481 ;
482 [label="strafrac <= 78.335\ngini = 0.278\nsamples = 30\nvalue = [5, 25]\nclass = sem raios"] ;
474 -> 482 ;
483 [label="meanvil <= 4.915\ngini = 0.238\nsamples = 29\nvalue = [4, 25]\nclass = sem raios"] ;
482 -> 483 ;
484 [label="maxz <= 49.98\ngini = 0.191\nsamples = 28\nvalue = [3, 25]\nclass = sem raios"] ;
483 -> 484 ;
485 [label="ttvil <= 210.795\ngini = 0.142\nsamples = 26\nvalue = [2, 24]\nclass = sem raios"] ;
484 -> 485 ;
486 [label="gini = 0.0\nsamples = 15\nvalue = [0, 15]\nclass = sem raios"] ;
485 -> 486 ;
487 [label="maxz <= 46.765\ngini = 0.298\nsamples = 11\nvalue = [2, 9]\nclass = sem raios"] ;
485 -> 487 ;
488 [label="gini = 0.0\nsamples = 1\nvalue = [1, 0]\nclass = com raios"] ;
487 -> 488 ;
489 [label="ttvil <= 214.92\ngini = 0.18\nsamples = 10\nvalue = [1, 9]\nclass = sem raios"] ;
487 -> 489 ;
490 [label="gini = 0.0\nsamples = 1\nvalue = [1, 0]\nclass = com raios"] ;
489 -> 490 ;
491 [label="gini = 0.0\nsamples = 9\nvalue = [0, 9]\nclass = sem raios"] ;
489 -> 491 ;
492 [label="meanz <= 38.02\ngini = 0.5\nsamples = 2\nvalue = [1, 1]\nclass = com raios"] ;
484 -> 492 ;
493 [label="gini = 0.0\nsamples = 1\nvalue = [1, 0]\nclass = com raios"] ;
492 -> 493 ;
494 [label="gini = 0.0\nsamples = 1\nvalue = [0, 1]\nclass = sem raios"] ;
492 -> 494 ;
495 [label="gini = 0.0\nsamples = 1\nvalue = [1, 0]\nclass = com raios"] ;
483 -> 495 ;
496 [label="gini = 0.0\nsamples = 1\nvalue = [1, 0]\nclass = com raios"] ;
482 -> 496 ;
497 [label="gini = 0.0\nsamples = 2\nvalue = [2, 0]\nclass = com raios"] ;
473 -> 497 ;
498 [label="gini = 0.0\nsamples = 13\nvalue = [0, 13]\nclass = sem raios"] ;
472 -> 498 ;
499 [label="gini = 0.0\nsamples = 2\nvalue = [2, 0]\nclass = com raios"] ;
419 -> 499 ;
500 [label="meanprec <= 18.55\ngini = 0.051\nsamples = 38\nvalue = [1, 37]\nclass = sem raios"] ;
418 -> 500 ;
501 [label="meanz <= 37.59\ngini = 0.153\nsamples = 12\nvalue = [1, 11]\nclass = sem raios"] ;
500 -> 501 ;
502 [label="gini = 0.0\nsamples = 11\nvalue = [0, 11]\nclass = sem raios"] ;
501 -> 502 ;
503 [label="gini = 0.0\nsamples = 1\nvalue = [1, 0]\nclass = com raios"] ;
501 -> 503 ;
504 [label="gini = 0.0\nsamples = 26\nvalue = [0, 26]\nclass = sem raios"] ;
500 -> 504 ;
505 [label="maxz <= 50.125\ngini = 0.469\nsamples = 8\nvalue = [5, 3]\nclass = com raios"] ;
417 -> 505 ;
506 [label="meanprec <= 14.405\ngini = 0.375\nsamples = 4\nvalue = [1, 3]\nclass = sem raios"] ;
505 -> 506 ;
507 [label="gini = 0.0\nsamples = 1\nvalue = [1, 0]\nclass = com raios"] ;
506 -> 507 ;
508 [label="gini = 0.0\nsamples = 3\nvalue = [0, 3]\nclass = sem raios"] ;
506 -> 508 ;
509 [label="gini = 0.0\nsamples = 4\nvalue = [4, 0]\nclass = com raios"] ;
505 -> 509 ;
510 [label="meanprec <= 42.99\ngini = 0.083\nsamples = 370\nvalue = [16, 354]\nclass = sem raios"] ;
416 -> 510 ;
511 [label="riverfrac <= 53.095\ngini = 0.068\nsamples = 367\nvalue = [13, 354]\nclass = sem raios"] ;
510 -> 511 ;
512 [label="maxz <= 55.17\ngini = 0.059\nsamples = 363\nvalue = [11, 352]\nclass = sem raios"] ;
511 -> 512 ;
513 [label="ttvil <= 372.54\ngini = 0.045\nsamples = 348\nvalue = [8, 340]\nclass = sem raios"] ;
512 -> 513 ;
514 [label="ttvil <= 372.22\ngini = 0.17\nsamples = 32\nvalue = [3, 29]\nclass = sem raios"] ;
513 -> 514 ;
515 [label="riverfrac <= 0.25\ngini = 0.121\nsamples = 31\nvalue = [2, 29]\nclass = sem raios"] ;
514 -> 515 ;
516 [label="meanvil <= 2.59\ngini = 0.32\nsamples = 10\nvalue = [2, 8]\nclass = sem raios"] ;
515 -> 516 ;
517 [label="gini = 0.0\nsamples = 5\nvalue = [0, 5]\nclass = sem raios"] ;
516 -> 517 ;
518 [label="meanprec <= 22.155\ngini = 0.48\nsamples = 5\nvalue = [2, 3]\nclass = sem raios"] ;
516 -> 518 ;
519 [label="gini = 0.0\nsamples = 2\nvalue = [2, 0]\nclass = com raios"] ;
518 -> 519 ;
520 [label="gini = 0.0\nsamples = 3\nvalue = [0, 3]\nclass = sem raios"] ;
518 -> 520 ;
521 [label="gini = 0.0\nsamples = 21\nvalue = [0, 21]\nclass = sem raios"] ;
515 -> 521 ;
522 [label="gini = 0.0\nsamples = 1\nvalue = [1, 0]\nclass = com raios"] ;
514 -> 522 ;
523 [label="strafrac <= 68.58\ngini = 0.031\nsamples = 316\nvalue = [5, 311]\nclass = sem raios"] ;
513 -> 523 ;
524 [label="gini = 0.0\nsamples = 196\nvalue = [0, 196]\nclass = sem raios"] ;
523 -> 524 ;
525 [label="strafrac <= 68.83\ngini = 0.08\nsamples = 120\nvalue = [5, 115]\nclass = sem raios"] ;
523 -> 525 ;
526 [label="gini = 0.0\nsamples = 1\nvalue = [1, 0]\nclass = com raios"] ;
525 -> 526 ;
527 [label="meanprec <= 16.735\ngini = 0.065\nsamples = 119\nvalue = [4, 115]\nclass = sem raios"] ;
525 -> 527 ;
528 [label="maxprec <= 76.52\ngini = 0.021\nsamples = 94\nvalue = [1, 93]\nclass = sem raios"] ;
527 -> 528 ;
529 [label="maxz <= 46.42\ngini = 0.32\nsamples = 5\nvalue = [1, 4]\nclass = sem raios"] ;
528 -> 529 ;
530 [label="gini = 0.0\nsamples = 4\nvalue = [0, 4]\nclass = sem raios"] ;
529 -> 530 ;
531 [label="gini = 0.0\nsamples = 1\nvalue = [1, 0]\nclass = com raios"] ;
529 -> 531 ;
532 [label="gini = 0.0\nsamples = 89\nvalue = [0, 89]\nclass = sem raios"] ;
528 -> 532 ;
533 [label="maxprec <= 111.29\ngini = 0.211\nsamples = 25\nvalue = [3, 22]\nclass = sem raios"] ;
527 -> 533 ;
534 [label="gini = 0.0\nsamples = 1\nvalue = [1, 0]\nclass = com raios"] ;
533 -> 534 ;
535 [label="ttvil <= 3508.89\ngini = 0.153\nsamples = 24\nvalue = [2, 22]\nclass = sem raios"] ;
533 -> 535 ;
536 [label="strafrac <= 69.165\ngini = 0.083\nsamples = 23\nvalue = [1, 22]\nclass = sem raios"] ;
535 -> 536 ;
537 [label="ttvil <= 815.35\ngini = 0.5\nsamples = 2\nvalue = [1, 1]\nclass = com raios"] ;
536 -> 537 ;
538 [label="gini = 0.0\nsamples = 1\nvalue = [0, 1]\nclass = sem raios"] ;
537 -> 538 ;
539 [label="gini = 0.0\nsamples = 1\nvalue = [1, 0]\nclass = com raios"] ;
537 -> 539 ;
540 [label="gini = 0.0\nsamples = 21\nvalue = [0, 21]\nclass = sem raios"] ;
536 -> 540 ;
541 [label="gini = 0.0\nsamples = 1\nvalue = [1, 0]\nclass = com raios"] ;
535 -> 541 ;
542 [label="ttvil <= 500.525\ngini = 0.32\nsamples = 15\nvalue = [3, 12]\nclass = sem raios"] ;
512 -> 542 ;
543 [label="meanz <= 39.315\ngini = 0.444\nsamples = 3\nvalue = [2, 1]\nclass = com raios"] ;
542 -> 543 ;
544 [label="gini = 0.0\nsamples = 1\nvalue = [0, 1]\nclass = sem raios"] ;
543 -> 544 ;
545 [label="gini = 0.0\nsamples = 2\nvalue = [2, 0]\nclass = com raios"] ;
543 -> 545 ;
546 [label="meanvil <= 2.2\ngini = 0.153\nsamples = 12\nvalue = [1, 11]\nclass = sem raios"] ;
542 -> 546 ;
547 [label="gini = 0.0\nsamples = 1\nvalue = [1, 0]\nclass = com raios"] ;
546 -> 547 ;
548 [label="gini = 0.0\nsamples = 11\nvalue = [0, 11]\nclass = sem raios"] ;
546 -> 548 ;
549 [label="riverfrac <= 61.83\ngini = 0.5\nsamples = 4\nvalue = [2, 2]\nclass = com raios"] ;
511 -> 549 ;
550 [label="gini = 0.0\nsamples = 2\nvalue = [2, 0]\nclass = com raios"] ;
549 -> 550 ;
551 [label="gini = 0.0\nsamples = 2\nvalue = [0, 2]\nclass = sem raios"] ;
549 -> 551 ;
552 [label="gini = 0.0\nsamples = 3\nvalue = [3, 0]\nclass = com raios"] ;
510 -> 552 ;
}