digraph Tree {
node [shape=box] ;
0 [label="ttvil <= 102.88\ngini = 0.5\nsamples = 1600\nvalue = [792, 808]\nclass = sem raios"] ;
1 [label="meanvil <= 0.535\ngini = 0.342\nsamples = 869\nvalue = [679, 190]\nclass = com raios"] ;
0 -> 1 [labeldistance=2.5, labelangle=45, headlabel="True"] ;
2 [label="convfrac <= 13.915\ngini = 0.185\nsamples = 417\nvalue = [374, 43]\nclass = com raios"] ;
1 -> 2 ;
3 [label="meanprec <= 2.685\ngini = 0.426\nsamples = 52\nvalue = [36, 16]\nclass = com raios"] ;
2 -> 3 ;
4 [label="riverfrac <= 31.425\ngini = 0.403\nsamples = 50\nvalue = [36, 14]\nclass = com raios"] ;
3 -> 4 ;
5 [label="riverfrac <= 6.065\ngini = 0.439\nsamples = 43\nvalue = [29, 14]\nclass = com raios"] ;
4 -> 5 ;
6 [label="ttvil <= 10.895\ngini = 0.342\nsamples = 32\nvalue = [25, 7]\nclass = com raios"] ;
5 -> 6 ;
7 [label="maxprec <= 2.955\ngini = 0.159\nsamples = 23\nvalue = [21, 2]\nclass = com raios"] ;
6 -> 7 ;
8 [label="gini = 0.0\nsamples = 13\nvalue = [13, 0]\nclass = com raios"] ;
7 -> 8 ;
9 [label="meanvil <= 0.26\ngini = 0.32\nsamples = 10\nvalue = [8, 2]\nclass = com raios"] ;
7 -> 9 ;
10 [label="gini = 0.0\nsamples = 1\nvalue = [0, 1]\nclass = sem raios"] ;
9 -> 10 ;
11 [label="maxprec <= 3.205\ngini = 0.198\nsamples = 9\nvalue = [8, 1]\nclass = com raios"] ;
9 -> 11 ;
12 [label="gini = 0.0\nsamples = 1\nvalue = [0, 1]\nclass = sem raios"] ;
11 -> 12 ;
13 [label="gini = 0.0\nsamples = 8\nvalue = [8, 0]\nclass = com raios"] ;
11 -> 13 ;
14 [label="ttvil <= 14.03\ngini = 0.494\nsamples = 9\nvalue = [4, 5]\nclass = sem raios"] ;
6 -> 14 ;
15 [label="gini = 0.0\nsamples = 3\nvalue = [0, 3]\nclass = sem raios"] ;
14 -> 15 ;
16 [label="strafrac <= 93.625\ngini = 0.444\nsamples = 6\nvalue = [4, 2]\nclass = com raios"] ;
14 -> 16 ;
17 [label="ttvil <= 15.67\ngini = 0.32\nsamples = 5\nvalue = [4, 1]\nclass = com raios"] ;
16 -> 17 ;
18 [label="strafrac <= 90.03\ngini = 0.5\nsamples = 2\nvalue = [1, 1]\nclass = com raios"] ;
17 -> 18 ;
19 [label="gini = 0.0\nsamples = 1\nvalue = [0, 1]\nclass = sem raios"] ;
18 -> 19 ;
20 [label="gini = 0.0\nsamples = 1\nvalue = [1, 0]\nclass = com raios"] ;
18 -> 20 ;
21 [label="gini = 0.0\nsamples = 3\nvalue = [3, 0]\nclass = com raios"] ;
17 -> 21 ;
22 [label="gini = 0.0\nsamples = 1\nvalue = [0, 1]\nclass = sem raios"] ;
16 -> 22 ;
23 [label="maxz <= 23.975\ngini = 0.463\nsamples = 11\nvalue = [4, 7]\nclass = sem raios"] ;
5 -> 23 ;
24 [label="gini = 0.0\nsamples = 3\nvalue = [0, 3]\nclass = sem raios"] ;
23 -> 24 ;
25 [label="maxprec <= 2.28\ngini = 0.5\nsamples = 8\nvalue = [4, 4]\nclass = com raios"] ;
23 -> 25 ;
26 [label="gini = 0.0\nsamples = 2\nvalue = [2, 0]\nclass = com raios"] ;
25 -> 26 ;
27 [label="maxz <= 28.935\ngini = 0.444\nsamples = 6\nvalue = [2, 4]\nclass = sem raios"] ;
25 -> 27 ;
28 [label="gini = 0.0\nsamples = 3\nvalue = [0, 3]\nclass = sem raios"] ;
27 -> 28 ;
29 [label="maxprec <= 5.255\ngini = 0.444\nsamples = 3\nvalue = [2, 1]\nclass = com raios"] ;
27 -> 29 ;
30 [label="gini = 0.0\nsamples = 2\nvalue = [2, 0]\nclass = com raios"] ;
29 -> 30 ;
31 [label="gini = 0.0\nsamples = 1\nvalue = [0, 1]\nclass = sem raios"] ;
29 -> 31 ;
32 [label="gini = 0.0\nsamples = 7\nvalue = [7, 0]\nclass = com raios"] ;
4 -> 32 ;
33 [label="gini = 0.0\nsamples = 2\nvalue = [0, 2]\nclass = sem raios"] ;
3 -> 33 ;
34 [label="meanvil <= 0.355\ngini = 0.137\nsamples = 365\nvalue = [338, 27]\nclass = com raios"] ;
2 -> 34 ;
35 [label="ttvil <= 3.01\ngini = 0.059\nsamples = 197\nvalue = [191, 6]\nclass = com raios"] ;
34 -> 35 ;
36 [label="meanvil <= 0.265\ngini = 0.245\nsamples = 14\nvalue = [12, 2]\nclass = com raios"] ;
35 -> 36 ;
37 [label="gini = 0.0\nsamples = 11\nvalue = [11, 0]\nclass = com raios"] ;
36 -> 37 ;
38 [label="maxz <= 23.645\ngini = 0.444\nsamples = 3\nvalue = [1, 2]\nclass = sem raios"] ;
36 -> 38 ;
39 [label="gini = 0.0\nsamples = 1\nvalue = [1, 0]\nclass = com raios"] ;
38 -> 39 ;
40 [label="gini = 0.0\nsamples = 2\nvalue = [0, 2]\nclass = sem raios"] ;
38 -> 40 ;
41 [label="meanprec <= 1.955\ngini = 0.043\nsamples = 183\nvalue = [179, 4]\nclass = com raios"] ;
35 -> 41 ;
42 [label="convfrac <= 16.87\ngini = 0.013\nsamples = 148\nvalue = [147, 1]\nclass = com raios"] ;
41 -> 42 ;
43 [label="convfrac <= 16.475\ngini = 0.153\nsamples = 12\nvalue = [11, 1]\nclass = com raios"] ;
42 -> 43 ;
44 [label="gini = 0.0\nsamples = 11\nvalue = [11, 0]\nclass = com raios"] ;
43 -> 44 ;
45 [label="gini = 0.0\nsamples = 1\nvalue = [0, 1]\nclass = sem raios"] ;
43 -> 45 ;
46 [label="gini = 0.0\nsamples = 136\nvalue = [136, 0]\nclass = com raios"] ;
42 -> 46 ;
47 [label="meanprec <= 1.98\ngini = 0.157\nsamples = 35\nvalue = [32, 3]\nclass = com raios"] ;
41 -> 47 ;
48 [label="gini = 0.0\nsamples = 1\nvalue = [0, 1]\nclass = sem raios"] ;
47 -> 48 ;
49 [label="ttvil <= 5.385\ngini = 0.111\nsamples = 34\nvalue = [32, 2]\nclass = com raios"] ;
47 -> 49 ;
50 [label="meanvil <= 0.325\ngini = 0.5\nsamples = 2\nvalue = [1, 1]\nclass = com raios"] ;
49 -> 50 ;
51 [label="gini = 0.0\nsamples = 1\nvalue = [1, 0]\nclass = com raios"] ;
50 -> 51 ;
52 [label="gini = 0.0\nsamples = 1\nvalue = [0, 1]\nclass = sem raios"] ;
50 -> 52 ;
53 [label="meanprec <= 2.035\ngini = 0.061\nsamples = 32\nvalue = [31, 1]\nclass = com raios"] ;
49 -> 53 ;
54 [label="riverfrac <= 4.1\ngini = 0.278\nsamples = 6\nvalue = [5, 1]\nclass = com raios"] ;
53 -> 54 ;
55 [label="meanvil <= 0.295\ngini = 0.5\nsamples = 2\nvalue = [1, 1]\nclass = com raios"] ;
54 -> 55 ;
56 [label="gini = 0.0\nsamples = 1\nvalue = [1, 0]\nclass = com raios"] ;
55 -> 56 ;
57 [label="gini = 0.0\nsamples = 1\nvalue = [0, 1]\nclass = sem raios"] ;
55 -> 57 ;
58 [label="gini = 0.0\nsamples = 4\nvalue = [4, 0]\nclass = com raios"] ;
54 -> 58 ;
59 [label="gini = 0.0\nsamples = 26\nvalue = [26, 0]\nclass = com raios"] ;
53 -> 59 ;
60 [label="meanprec <= 2.84\ngini = 0.219\nsamples = 168\nvalue = [147, 21]\nclass = com raios"] ;
34 -> 60 ;
61 [label="ttvil <= 23.065\ngini = 0.302\nsamples = 108\nvalue = [88, 20]\nclass = com raios"] ;
60 -> 61 ;
62 [label="ttvil <= 7.32\ngini = 0.202\nsamples = 79\nvalue = [70, 9]\nclass = com raios"] ;
61 -> 62 ;
63 [label="meanprec <= 1.745\ngini = 0.057\nsamples = 34\nvalue = [33, 1]\nclass = com raios"] ;
62 -> 63 ;
64 [label="meanprec <= 1.69\ngini = 0.278\nsamples = 6\nvalue = [5, 1]\nclass = com raios"] ;
63 -> 64 ;
65 [label="gini = 0.0\nsamples = 5\nvalue = [5, 0]\nclass = com raios"] ;
64 -> 65 ;
66 [label="gini = 0.0\nsamples = 1\nvalue = [0, 1]\nclass = sem raios"] ;
64 -> 66 ;
67 [label="gini = 0.0\nsamples = 28\nvalue = [28, 0]\nclass = com raios"] ;
63 -> 67 ;
68 [label="meanprec <= 2.77\ngini = 0.292\nsamples = 45\nvalue = [37, 8]\nclass = com raios"] ;
62 -> 68 ;
69 [label="convfrac <= 87.925\ngini = 0.245\nsamples = 42\nvalue = [36, 6]\nclass = com raios"] ;
68 -> 69 ;
70 [label="maxprec <= 4.375\ngini = 0.214\nsamples = 41\nvalue = [36, 5]\nclass = com raios"] ;
69 -> 70 ;
71 [label="gini = 0.0\nsamples = 12\nvalue = [12, 0]\nclass = com raios"] ;
70 -> 71 ;
72 [label="maxprec <= 5.77\ngini = 0.285\nsamples = 29\nvalue = [24, 5]\nclass = com raios"] ;
70 -> 72 ;
73 [label="meanprec <= 1.895\ngini = 0.444\nsamples = 3\nvalue = [1, 2]\nclass = sem raios"] ;
72 -> 73 ;
74 [label="gini = 0.0\nsamples = 1\nvalue = [1, 0]\nclass = com raios"] ;
73 -> 74 ;
75 [label="gini = 0.0\nsamples = 2\nvalue = [0, 2]\nclass = sem raios"] ;
73 -> 75 ;
76 [label="convfrac <= 22.34\ngini = 0.204\nsamples = 26\nvalue = [23, 3]\nclass = com raios"] ;
72 -> 76 ;
77 [label="maxprec <= 7.23\ngini = 0.48\nsamples = 5\nvalue = [3, 2]\nclass = com raios"] ;
76 -> 77 ;
78 [label="gini = 0.0\nsamples = 2\nvalue = [2, 0]\nclass = com raios"] ;
77 -> 78 ;
79 [label="meanz <= 26.025\ngini = 0.444\nsamples = 3\nvalue = [1, 2]\nclass = sem raios"] ;
77 -> 79 ;
80 [label="gini = 0.0\nsamples = 2\nvalue = [0, 2]\nclass = sem raios"] ;
79 -> 80 ;
81 [label="gini = 0.0\nsamples = 1\nvalue = [1, 0]\nclass = com raios"] ;
79 -> 81 ;
82 [label="riverfrac <= 9.34\ngini = 0.091\nsamples = 21\nvalue = [20, 1]\nclass = com raios"] ;
76 -> 82 ;
83 [label="gini = 0.0\nsamples = 18\nvalue = [18, 0]\nclass = com raios"] ;
82 -> 83 ;
84 [label="convfrac <= 49.735\ngini = 0.444\nsamples = 3\nvalue = [2, 1]\nclass = com raios"] ;
82 -> 84 ;
85 [label="gini = 0.0\nsamples = 2\nvalue = [2, 0]\nclass = com raios"] ;
84 -> 85 ;
86 [label="gini = 0.0\nsamples = 1\nvalue = [0, 1]\nclass = sem raios"] ;
84 -> 86 ;
87 [label="gini = 0.0\nsamples = 1\nvalue = [0, 1]\nclass = sem raios"] ;
69 -> 87 ;
88 [label="meanvil <= 0.49\ngini = 0.444\nsamples = 3\nvalue = [1, 2]\nclass = sem raios"] ;
68 -> 88 ;
89 [label="gini = 0.0\nsamples = 1\nvalue = [1, 0]\nclass = com raios"] ;
88 -> 89 ;
90 [label="gini = 0.0\nsamples = 2\nvalue = [0, 2]\nclass = sem raios"] ;
88 -> 90 ;
91 [label="convfrac <= 67.57\ngini = 0.471\nsamples = 29\nvalue = [18, 11]\nclass = com raios"] ;
61 -> 91 ;
92 [label="strafrac <= 81.74\ngini = 0.426\nsamples = 26\nvalue = [18, 8]\nclass = com raios"] ;
91 -> 92 ;
93 [label="riverfrac <= 24.59\ngini = 0.32\nsamples = 20\nvalue = [16, 4]\nclass = com raios"] ;
92 -> 93 ;
94 [label="ttvil <= 49.975\ngini = 0.219\nsamples = 16\nvalue = [14, 2]\nclass = com raios"] ;
93 -> 94 ;
95 [label="gini = 0.0\nsamples = 11\nvalue = [11, 0]\nclass = com raios"] ;
94 -> 95 ;
96 [label="maxprec <= 8.17\ngini = 0.48\nsamples = 5\nvalue = [3, 2]\nclass = com raios"] ;
94 -> 96 ;
97 [label="meanz <= 23.34\ngini = 0.444\nsamples = 3\nvalue = [1, 2]\nclass = sem raios"] ;
96 -> 97 ;
98 [label="gini = 0.0\nsamples = 1\nvalue = [1, 0]\nclass = com raios"] ;
97 -> 98 ;
99 [label="gini = 0.0\nsamples = 2\nvalue = [0, 2]\nclass = sem raios"] ;
97 -> 99 ;
100 [label="gini = 0.0\nsamples = 2\nvalue = [2, 0]\nclass = com raios"] ;
96 -> 100 ;
101 [label="maxprec <= 7.43\ngini = 0.5\nsamples = 4\nvalue = [2, 2]\nclass = com raios"] ;
93 -> 101 ;
102 [label="gini = 0.0\nsamples = 1\nvalue = [1, 0]\nclass = com raios"] ;
101 -> 102 ;
103 [label="maxz <= 34.32\ngini = 0.444\nsamples = 3\nvalue = [1, 2]\nclass = sem raios"] ;
101 -> 103 ;
104 [label="gini = 0.0\nsamples = 2\nvalue = [0, 2]\nclass = sem raios"] ;
103 -> 104 ;
105 [label="gini = 0.0\nsamples = 1\nvalue = [1, 0]\nclass = com raios"] ;
103 -> 105 ;
106 [label="maxz <= 28.815\ngini = 0.444\nsamples = 6\nvalue = [2, 4]\nclass = sem raios"] ;
92 -> 106 ;
107 [label="gini = 0.0\nsamples = 2\nvalue = [2, 0]\nclass = com raios"] ;
106 -> 107 ;
108 [label="gini = 0.0\nsamples = 4\nvalue = [0, 4]\nclass = sem raios"] ;
106 -> 108 ;
109 [label="gini = 0.0\nsamples = 3\nvalue = [0, 3]\nclass = sem raios"] ;
91 -> 109 ;
110 [label="maxz <= 32.19\ngini = 0.033\nsamples = 60\nvalue = [59, 1]\nclass = com raios"] ;
60 -> 110 ;
111 [label="maxprec <= 7.215\ngini = 0.245\nsamples = 7\nvalue = [6, 1]\nclass = com raios"] ;
110 -> 111 ;
112 [label="gini = 0.0\nsamples = 6\nvalue = [6, 0]\nclass = com raios"] ;
111 -> 112 ;
113 [label="gini = 0.0\nsamples = 1\nvalue = [0, 1]\nclass = sem raios"] ;
111 -> 113 ;
114 [label="gini = 0.0\nsamples = 53\nvalue = [53, 0]\nclass = com raios"] ;
110 -> 114 ;
115 [label="ttvil <= 40.495\ngini = 0.439\nsamples = 452\nvalue = [305, 147]\nclass = com raios"] ;
1 -> 115 ;
116 [label="meanprec <= 1.56\ngini = 0.369\nsamples = 246\nvalue = [186, 60]\nclass = com raios"] ;
115 -> 116 ;
117 [label="riverfrac <= 5.265\ngini = 0.32\nsamples = 5\nvalue = [1, 4]\nclass = sem raios"] ;
116 -> 117 ;
118 [label="gini = 0.0\nsamples = 4\nvalue = [0, 4]\nclass = sem raios"] ;
117 -> 118 ;
119 [label="gini = 0.0\nsamples = 1\nvalue = [1, 0]\nclass = com raios"] ;
117 -> 119 ;
120 [label="maxz <= 36.87\ngini = 0.357\nsamples = 241\nvalue = [185, 56]\nclass = com raios"] ;
116 -> 120 ;
121 [label="strafrac <= 32.29\ngini = 0.42\nsamples = 100\nvalue = [70, 30]\nclass = com raios"] ;
120 -> 121 ;
122 [label="strafrac <= 27.13\ngini = 0.499\nsamples = 29\nvalue = [14, 15]\nclass = sem raios"] ;
121 -> 122 ;
123 [label="meanprec <= 4.155\ngini = 0.486\nsamples = 24\nvalue = [14, 10]\nclass = com raios"] ;
122 -> 123 ;
124 [label="strafrac <= 25.545\ngini = 0.355\nsamples = 13\nvalue = [10, 3]\nclass = com raios"] ;
123 -> 124 ;
125 [label="meanvil <= 0.955\ngini = 0.278\nsamples = 12\nvalue = [10, 2]\nclass = com raios"] ;
124 -> 125 ;
126 [label="meanvil <= 0.575\ngini = 0.165\nsamples = 11\nvalue = [10, 1]\nclass = com raios"] ;
125 -> 126 ;
127 [label="maxprec <= 10.955\ngini = 0.375\nsamples = 4\nvalue = [3, 1]\nclass = com raios"] ;
126 -> 127 ;
128 [label="gini = 0.0\nsamples = 1\nvalue = [0, 1]\nclass = sem raios"] ;
127 -> 128 ;
129 [label="gini = 0.0\nsamples = 3\nvalue = [3, 0]\nclass = com raios"] ;
127 -> 129 ;
130 [label="gini = 0.0\nsamples = 7\nvalue = [7, 0]\nclass = com raios"] ;
126 -> 130 ;
131 [label="gini = 0.0\nsamples = 1\nvalue = [0, 1]\nclass = sem raios"] ;
125 -> 131 ;
132 [label="gini = 0.0\nsamples = 1\nvalue = [0, 1]\nclass = sem raios"] ;
124 -> 132 ;
133 [label="ttvil <= 16.58\ngini = 0.463\nsamples = 11\nvalue = [4, 7]\nclass = sem raios"] ;
123 -> 133 ;
134 [label="meanprec <= 5.035\ngini = 0.346\nsamples = 9\nvalue = [2, 7]\nclass = sem raios"] ;
133 -> 134 ;
135 [label="gini = 0.0\nsamples = 6\nvalue = [0, 6]\nclass = sem raios"] ;
134 -> 135 ;
136 [label="maxz <= 36.425\ngini = 0.444\nsamples = 3\nvalue = [2, 1]\nclass = com raios"] ;
134 -> 136 ;
137 [label="gini = 0.0\nsamples = 1\nvalue = [0, 1]\nclass = sem raios"] ;
136 -> 137 ;
138 [label="gini = 0.0\nsamples = 2\nvalue = [2, 0]\nclass = com raios"] ;
136 -> 138 ;
139 [label="gini = 0.0\nsamples = 2\nvalue = [2, 0]\nclass = com raios"] ;
133 -> 139 ;
140 [label="gini = 0.0\nsamples = 5\nvalue = [0, 5]\nclass = sem raios"] ;
122 -> 140 ;
141 [label="meanvil <= 0.545\ngini = 0.333\nsamples = 71\nvalue = [56, 15]\nclass = com raios"] ;
121 -> 141 ;
142 [label="riverfrac <= 18.78\ngini = 0.444\nsamples = 3\nvalue = [1, 2]\nclass = sem raios"] ;
141 -> 142 ;
143 [label="gini = 0.0\nsamples = 2\nvalue = [0, 2]\nclass = sem raios"] ;
142 -> 143 ;
144 [label="gini = 0.0\nsamples = 1\nvalue = [1, 0]\nclass = com raios"] ;
142 -> 144 ;
145 [label="maxz <= 36.775\ngini = 0.309\nsamples = 68\nvalue = [55, 13]\nclass = com raios"] ;
141 -> 145 ;
146 [label="ttvil <= 12.79\ngini = 0.294\nsamples = 67\nvalue = [55, 12]\nclass = com raios"] ;
145 -> 146 ;
147 [label="strafrac <= 54.595\ngini = 0.091\nsamples = 21\nvalue = [20, 1]\nclass = com raios"] ;
146 -> 147 ;
148 [label="meanz <= 27.82\ngini = 0.375\nsamples = 4\nvalue = [3, 1]\nclass = com raios"] ;
147 -> 148 ;
149 [label="gini = 0.0\nsamples = 3\nvalue = [3, 0]\nclass = com raios"] ;
148 -> 149 ;
150 [label="gini = 0.0\nsamples = 1\nvalue = [0, 1]\nclass = sem raios"] ;
148 -> 150 ;
151 [label="gini = 0.0\nsamples = 17\nvalue = [17, 0]\nclass = com raios"] ;
147 -> 151 ;
152 [label="ttvil <= 12.815\ngini = 0.364\nsamples = 46\nvalue = [35, 11]\nclass = com raios"] ;
146 -> 152 ;
153 [label="gini = 0.0\nsamples = 1\nvalue = [0, 1]\nclass = sem raios"] ;
152 -> 153 ;
154 [label="meanprec <= 3.5\ngini = 0.346\nsamples = 45\nvalue = [35, 10]\nclass = com raios"] ;
152 -> 154 ;
155 [label="meanprec <= 3.385\ngini = 0.428\nsamples = 29\nvalue = [20, 9]\nclass = com raios"] ;
154 -> 155 ;
156 [label="convfrac <= 23.61\ngini = 0.384\nsamples = 27\nvalue = [20, 7]\nclass = com raios"] ;
155 -> 156 ;
157 [label="meanvil <= 0.675\ngini = 0.496\nsamples = 11\nvalue = [6, 5]\nclass = com raios"] ;
156 -> 157 ;
158 [label="gini = 0.0\nsamples = 3\nvalue = [3, 0]\nclass = com raios"] ;
157 -> 158 ;
159 [label="ttvil <= 21.91\ngini = 0.469\nsamples = 8\nvalue = [3, 5]\nclass = sem raios"] ;
157 -> 159 ;
160 [label="gini = 0.0\nsamples = 5\nvalue = [0, 5]\nclass = sem raios"] ;
159 -> 160 ;
161 [label="gini = 0.0\nsamples = 3\nvalue = [3, 0]\nclass = com raios"] ;
159 -> 161 ;
162 [label="meanvil <= 0.565\ngini = 0.219\nsamples = 16\nvalue = [14, 2]\nclass = com raios"] ;
156 -> 162 ;
163 [label="gini = 0.0\nsamples = 1\nvalue = [0, 1]\nclass = sem raios"] ;
162 -> 163 ;
164 [label="ttvil <= 22.04\ngini = 0.124\nsamples = 15\nvalue = [14, 1]\nclass = com raios"] ;
162 -> 164 ;
165 [label="gini = 0.0\nsamples = 10\nvalue = [10, 0]\nclass = com raios"] ;
164 -> 165 ;
166 [label="ttvil <= 23.96\ngini = 0.32\nsamples = 5\nvalue = [4, 1]\nclass = com raios"] ;
164 -> 166 ;
167 [label="gini = 0.0\nsamples = 1\nvalue = [0, 1]\nclass = sem raios"] ;
166 -> 167 ;
168 [label="gini = 0.0\nsamples = 4\nvalue = [4, 0]\nclass = com raios"] ;
166 -> 168 ;
169 [label="gini = 0.0\nsamples = 2\nvalue = [0, 2]\nclass = sem raios"] ;
155 -> 169 ;
170 [label="convfrac <= 47.0\ngini = 0.117\nsamples = 16\nvalue = [15, 1]\nclass = com raios"] ;
154 -> 170 ;
171 [label="gini = 0.0\nsamples = 13\nvalue = [13, 0]\nclass = com raios"] ;
170 -> 171 ;
172 [label="strafrac <= 45.59\ngini = 0.444\nsamples = 3\nvalue = [2, 1]\nclass = com raios"] ;
170 -> 172 ;
173 [label="gini = 0.0\nsamples = 2\nvalue = [2, 0]\nclass = com raios"] ;
172 -> 173 ;
174 [label="gini = 0.0\nsamples = 1\nvalue = [0, 1]\nclass = sem raios"] ;
172 -> 174 ;
175 [label="gini = 0.0\nsamples = 1\nvalue = [0, 1]\nclass = sem raios"] ;
145 -> 175 ;
176 [label="riverfrac <= 3.255\ngini = 0.301\nsamples = 141\nvalue = [115, 26]\nclass = com raios"] ;
120 -> 176 ;
177 [label="meanvil <= 0.73\ngini = 0.184\nsamples = 78\nvalue = [70, 8]\nclass = com raios"] ;
176 -> 177 ;
178 [label="ttvil <= 26.885\ngini = 0.408\nsamples = 14\nvalue = [10, 4]\nclass = com raios"] ;
177 -> 178 ;
179 [label="gini = 0.0\nsamples = 8\nvalue = [8, 0]\nclass = com raios"] ;
178 -> 179 ;
180 [label="convfrac <= 25.69\ngini = 0.444\nsamples = 6\nvalue = [2, 4]\nclass = sem raios"] ;
178 -> 180 ;
181 [label="gini = 0.0\nsamples = 4\nvalue = [0, 4]\nclass = sem raios"] ;
180 -> 181 ;
182 [label="gini = 0.0\nsamples = 2\nvalue = [2, 0]\nclass = com raios"] ;
180 -> 182 ;
183 [label="ttvil <= 24.81\ngini = 0.117\nsamples = 64\nvalue = [60, 4]\nclass = com raios"] ;
177 -> 183 ;
184 [label="ttvil <= 24.6\ngini = 0.238\nsamples = 29\nvalue = [25, 4]\nclass = com raios"] ;
183 -> 184 ;
185 [label="meanvil <= 0.965\ngini = 0.191\nsamples = 28\nvalue = [25, 3]\nclass = com raios"] ;
184 -> 185 ;
186 [label="gini = 0.0\nsamples = 13\nvalue = [13, 0]\nclass = com raios"] ;
185 -> 186 ;
187 [label="meanprec <= 7.165\ngini = 0.32\nsamples = 15\nvalue = [12, 3]\nclass = com raios"] ;
185 -> 187 ;
188 [label="strafrac <= 65.945\ngini = 0.444\nsamples = 3\nvalue = [1, 2]\nclass = sem raios"] ;
187 -> 188 ;
189 [label="gini = 0.0\nsamples = 1\nvalue = [1, 0]\nclass = com raios"] ;
188 -> 189 ;
190 [label="gini = 0.0\nsamples = 2\nvalue = [0, 2]\nclass = sem raios"] ;
188 -> 190 ;
191 [label="ttvil <= 17.065\ngini = 0.153\nsamples = 12\nvalue = [11, 1]\nclass = com raios"] ;
187 -> 191 ;
192 [label="ttvil <= 16.405\ngini = 0.375\nsamples = 4\nvalue = [3, 1]\nclass = com raios"] ;
191 -> 192 ;
193 [label="gini = 0.0\nsamples = 3\nvalue = [3, 0]\nclass = com raios"] ;
192 -> 193 ;
194 [label="gini = 0.0\nsamples = 1\nvalue = [0, 1]\nclass = sem raios"] ;
192 -> 194 ;
195 [label="gini = 0.0\nsamples = 8\nvalue = [8, 0]\nclass = com raios"] ;
191 -> 195 ;
196 [label="gini = 0.0\nsamples = 1\nvalue = [0, 1]\nclass = sem raios"] ;
184 -> 196 ;
197 [label="gini = 0.0\nsamples = 35\nvalue = [35, 0]\nclass = com raios"] ;
183 -> 197 ;
198 [label="ttvil <= 19.225\ngini = 0.408\nsamples = 63\nvalue = [45, 18]\nclass = com raios"] ;
176 -> 198 ;
199 [label="gini = 0.0\nsamples = 15\nvalue = [15, 0]\nclass = com raios"] ;
198 -> 199 ;
200 [label="meanprec <= 6.995\ngini = 0.469\nsamples = 48\nvalue = [30, 18]\nclass = com raios"] ;
198 -> 200 ;
201 [label="strafrac <= 65.625\ngini = 0.358\nsamples = 30\nvalue = [23, 7]\nclass = com raios"] ;
200 -> 201 ;
202 [label="riverfrac <= 5.66\ngini = 0.133\nsamples = 14\nvalue = [13, 1]\nclass = com raios"] ;
201 -> 202 ;
203 [label="meanvil <= 0.915\ngini = 0.444\nsamples = 3\nvalue = [2, 1]\nclass = com raios"] ;
202 -> 203 ;
204 [label="gini = 0.0\nsamples = 1\nvalue = [0, 1]\nclass = sem raios"] ;
203 -> 204 ;
205 [label="gini = 0.0\nsamples = 2\nvalue = [2, 0]\nclass = com raios"] ;
203 -> 205 ;
206 [label="gini = 0.0\nsamples = 11\nvalue = [11, 0]\nclass = com raios"] ;
202 -> 206 ;
207 [label="riverfrac <= 25.1\ngini = 0.469\nsamples = 16\nvalue = [10, 6]\nclass = com raios"] ;
201 -> 207 ;
208 [label="meanvil <= 0.645\ngini = 0.219\nsamples = 8\nvalue = [7, 1]\nclass = com raios"] ;
207 -> 208 ;
209 [label="gini = 0.0\nsamples = 1\nvalue = [0, 1]\nclass = sem raios"] ;
208 -> 209 ;
210 [label="gini = 0.0\nsamples = 7\nvalue = [7, 0]\nclass = com raios"] ;
208 -> 210 ;
211 [label="riverfrac <= 43.59\ngini = 0.469\nsamples = 8\nvalue = [3, 5]\nclass = sem raios"] ;
207 -> 211 ;
212 [label="gini = 0.0\nsamples = 4\nvalue = [0, 4]\nclass = sem raios"] ;
211 -> 212 ;
213 [label="meanz <= 31.3\ngini = 0.375\nsamples = 4\nvalue = [3, 1]\nclass = com raios"] ;
211 -> 213 ;
214 [label="gini = 0.0\nsamples = 3\nvalue = [3, 0]\nclass = com raios"] ;
213 -> 214 ;
215 [label="gini = 0.0\nsamples = 1\nvalue = [0, 1]\nclass = sem raios"] ;
213 -> 215 ;
216 [label="ttvil <= 20.7\ngini = 0.475\nsamples = 18\nvalue = [7, 11]\nclass = sem raios"] ;
200 -> 216 ;
217 [label="gini = 0.0\nsamples = 2\nvalue = [2, 0]\nclass = com raios"] ;
216 -> 217 ;
218 [label="maxz <= 42.25\ngini = 0.43\nsamples = 16\nvalue = [5, 11]\nclass = sem raios"] ;
216 -> 218 ;
219 [label="gini = 0.0\nsamples = 5\nvalue = [0, 5]\nclass = sem raios"] ;
218 -> 219 ;
220 [label="meanvil <= 1.045\ngini = 0.496\nsamples = 11\nvalue = [5, 6]\nclass = sem raios"] ;
218 -> 220 ;
221 [label="gini = 0.0\nsamples = 1\nvalue = [1, 0]\nclass = com raios"] ;
220 -> 221 ;
222 [label="convfrac <= 90.625\ngini = 0.48\nsamples = 10\nvalue = [4, 6]\nclass = sem raios"] ;
220 -> 222 ;
223 [label="gini = 0.0\nsamples = 3\nvalue = [0, 3]\nclass = sem raios"] ;
222 -> 223 ;
224 [label="ttvil <= 34.95\ngini = 0.49\nsamples = 7\nvalue = [4, 3]\nclass = com raios"] ;
222 -> 224 ;
225 [label="meanvil <= 1.62\ngini = 0.48\nsamples = 5\nvalue = [2, 3]\nclass = sem raios"] ;
224 -> 225 ;
226 [label="meanvil <= 1.13\ngini = 0.444\nsamples = 3\nvalue = [2, 1]\nclass = com raios"] ;
225 -> 226 ;
227 [label="gini = 0.0\nsamples = 1\nvalue = [0, 1]\nclass = sem raios"] ;
226 -> 227 ;
228 [label="gini = 0.0\nsamples = 2\nvalue = [2, 0]\nclass = com raios"] ;
226 -> 228 ;
229 [label="gini = 0.0\nsamples = 2\nvalue = [0, 2]\nclass = sem raios"] ;
225 -> 229 ;
230 [label="gini = 0.0\nsamples = 2\nvalue = [2, 0]\nclass = com raios"] ;
224 -> 230 ;
231 [label="strafrac <= 78.5\ngini = 0.488\nsamples = 206\nvalue = [119, 87]\nclass = com raios"] ;
115 -> 231 ;
232 [label="meanvil <= 0.905\ngini = 0.473\nsamples = 177\nvalue = [109, 68]\nclass = com raios"] ;
231 -> 232 ;
233 [label="strafrac <= 61.685\ngini = 0.327\nsamples = 34\nvalue = [27, 7]\nclass = com raios"] ;
232 -> 233 ;
234 [label="gini = 0.0\nsamples = 12\nvalue = [12, 0]\nclass = com raios"] ;
233 -> 234 ;
235 [label="convfrac <= 35.66\ngini = 0.434\nsamples = 22\nvalue = [15, 7]\nclass = com raios"] ;
233 -> 235 ;
236 [label="meanz <= 26.685\ngini = 0.332\nsamples = 19\nvalue = [15, 4]\nclass = com raios"] ;
235 -> 236 ;
237 [label="gini = 0.0\nsamples = 1\nvalue = [0, 1]\nclass = sem raios"] ;
236 -> 237 ;
238 [label="maxprec <= 75.445\ngini = 0.278\nsamples = 18\nvalue = [15, 3]\nclass = com raios"] ;
236 -> 238 ;
239 [label="ttvil <= 65.17\ngini = 0.208\nsamples = 17\nvalue = [15, 2]\nclass = com raios"] ;
238 -> 239 ;
240 [label="gini = 0.0\nsamples = 11\nvalue = [11, 0]\nclass = com raios"] ;
239 -> 240 ;
241 [label="riverfrac <= 2.48\ngini = 0.444\nsamples = 6\nvalue = [4, 2]\nclass = com raios"] ;
239 -> 241 ;
242 [label="meanz <= 29.625\ngini = 0.444\nsamples = 3\nvalue = [1, 2]\nclass = sem raios"] ;
241 -> 242 ;
243 [label="gini = 0.0\nsamples = 1\nvalue = [1, 0]\nclass = com raios"] ;
242 -> 243 ;
244 [label="gini = 0.0\nsamples = 2\nvalue = [0, 2]\nclass = sem raios"] ;
242 -> 244 ;
245 [label="gini = 0.0\nsamples = 3\nvalue = [3, 0]\nclass = com raios"] ;
241 -> 245 ;
246 [label="gini = 0.0\nsamples = 1\nvalue = [0, 1]\nclass = sem raios"] ;
238 -> 246 ;
247 [label="gini = 0.0\nsamples = 3\nvalue = [0, 3]\nclass = sem raios"] ;
235 -> 247 ;
248 [label="meanprec <= 8.925\ngini = 0.489\nsamples = 143\nvalue = [82, 61]\nclass = com raios"] ;
232 -> 248 ;
249 [label="maxprec <= 23.315\ngini = 0.491\nsamples = 67\nvalue = [29, 38]\nclass = sem raios"] ;
248 -> 249 ;
250 [label="gini = 0.0\nsamples = 6\nvalue = [0, 6]\nclass = sem raios"] ;
249 -> 250 ;
251 [label="meanz <= 31.2\ngini = 0.499\nsamples = 61\nvalue = [29, 32]\nclass = sem raios"] ;
249 -> 251 ;
252 [label="maxprec <= 53.63\ngini = 0.26\nsamples = 13\nvalue = [11, 2]\nclass = com raios"] ;
251 -> 252 ;
253 [label="meanz <= 29.37\ngini = 0.153\nsamples = 12\nvalue = [11, 1]\nclass = com raios"] ;
252 -> 253 ;
254 [label="meanprec <= 4.215\ngini = 0.444\nsamples = 3\nvalue = [2, 1]\nclass = com raios"] ;
253 -> 254 ;
255 [label="gini = 0.0\nsamples = 2\nvalue = [2, 0]\nclass = com raios"] ;
254 -> 255 ;
256 [label="gini = 0.0\nsamples = 1\nvalue = [0, 1]\nclass = sem raios"] ;
254 -> 256 ;
257 [label="gini = 0.0\nsamples = 9\nvalue = [9, 0]\nclass = com raios"] ;
253 -> 257 ;
258 [label="gini = 0.0\nsamples = 1\nvalue = [0, 1]\nclass = sem raios"] ;
252 -> 258 ;
259 [label="ttvil <= 61.85\ngini = 0.469\nsamples = 48\nvalue = [18, 30]\nclass = sem raios"] ;
251 -> 259 ;
260 [label="meanprec <= 6.93\ngini = 0.444\nsamples = 15\nvalue = [10, 5]\nclass = com raios"] ;
259 -> 260 ;
261 [label="gini = 0.0\nsamples = 2\nvalue = [0, 2]\nclass = sem raios"] ;
260 -> 261 ;
262 [label="maxz <= 42.255\ngini = 0.355\nsamples = 13\nvalue = [10, 3]\nclass = com raios"] ;
260 -> 262 ;
263 [label="strafrac <= 35.09\ngini = 0.444\nsamples = 3\nvalue = [1, 2]\nclass = sem raios"] ;
262 -> 263 ;
264 [label="gini = 0.0\nsamples = 1\nvalue = [1, 0]\nclass = com raios"] ;
263 -> 264 ;
265 [label="gini = 0.0\nsamples = 2\nvalue = [0, 2]\nclass = sem raios"] ;
263 -> 265 ;
266 [label="convfrac <= 88.57\ngini = 0.18\nsamples = 10\nvalue = [9, 1]\nclass = com raios"] ;
262 -> 266 ;
267 [label="gini = 0.0\nsamples = 9\nvalue = [9, 0]\nclass = com raios"] ;
266 -> 267 ;
268 [label="gini = 0.0\nsamples = 1\nvalue = [0, 1]\nclass = sem raios"] ;
266 -> 268 ;
269 [label="maxz <= 44.485\ngini = 0.367\nsamples = 33\nvalue = [8, 25]\nclass = sem raios"] ;
259 -> 269 ;
270 [label="riverfrac <= 37.295\ngini = 0.227\nsamples = 23\nvalue = [3, 20]\nclass = sem raios"] ;
269 -> 270 ;
271 [label="strafrac <= 59.76\ngini = 0.172\nsamples = 21\nvalue = [2, 19]\nclass = sem raios"] ;
270 -> 271 ;
272 [label="meanprec <= 7.21\ngini = 0.346\nsamples = 9\nvalue = [2, 7]\nclass = sem raios"] ;
271 -> 272 ;
273 [label="gini = 0.0\nsamples = 1\nvalue = [1, 0]\nclass = com raios"] ;
272 -> 273 ;
274 [label="convfrac <= 40.875\ngini = 0.219\nsamples = 8\nvalue = [1, 7]\nclass = sem raios"] ;
272 -> 274 ;
275 [label="gini = 0.0\nsamples = 1\nvalue = [1, 0]\nclass = com raios"] ;
274 -> 275 ;
276 [label="gini = 0.0\nsamples = 7\nvalue = [0, 7]\nclass = sem raios"] ;
274 -> 276 ;
277 [label="gini = 0.0\nsamples = 12\nvalue = [0, 12]\nclass = sem raios"] ;
271 -> 277 ;
278 [label="maxz <= 43.085\ngini = 0.5\nsamples = 2\nvalue = [1, 1]\nclass = com raios"] ;
270 -> 278 ;
279 [label="gini = 0.0\nsamples = 1\nvalue = [0, 1]\nclass = sem raios"] ;
278 -> 279 ;
280 [label="gini = 0.0\nsamples = 1\nvalue = [1, 0]\nclass = com raios"] ;
278 -> 280 ;
281 [label="meanvil <= 1.09\ngini = 0.5\nsamples = 10\nvalue = [5, 5]\nclass = com raios"] ;
269 -> 281 ;
282 [label="gini = 0.0\nsamples = 2\nvalue = [0, 2]\nclass = sem raios"] ;
281 -> 282 ;
283 [label="meanvil <= 1.34\ngini = 0.469\nsamples = 8\nvalue = [5, 3]\nclass = com raios"] ;
281 -> 283 ;
284 [label="gini = 0.0\nsamples = 4\nvalue = [4, 0]\nclass = com raios"] ;
283 -> 284 ;
285 [label="maxz <= 44.83\ngini = 0.375\nsamples = 4\nvalue = [1, 3]\nclass = sem raios"] ;
283 -> 285 ;
286 [label="gini = 0.0\nsamples = 1\nvalue = [1, 0]\nclass = com raios"] ;
285 -> 286 ;
287 [label="gini = 0.0\nsamples = 3\nvalue = [0, 3]\nclass = sem raios"] ;
285 -> 287 ;
288 [label="meanprec <= 18.3\ngini = 0.422\nsamples = 76\nvalue = [53, 23]\nclass = com raios"] ;
248 -> 288 ;
289 [label="ttvil <= 61.155\ngini = 0.332\nsamples = 57\nvalue = [45, 12]\nclass = com raios"] ;
288 -> 289 ;
290 [label="ttvil <= 58.235\ngini = 0.488\nsamples = 19\nvalue = [11, 8]\nclass = com raios"] ;
289 -> 290 ;
291 [label="ttvil <= 46.63\ngini = 0.391\nsamples = 15\nvalue = [11, 4]\nclass = com raios"] ;
290 -> 291 ;
292 [label="maxz <= 44.505\ngini = 0.49\nsamples = 7\nvalue = [3, 4]\nclass = sem raios"] ;
291 -> 292 ;
293 [label="ttvil <= 42.055\ngini = 0.48\nsamples = 5\nvalue = [3, 2]\nclass = com raios"] ;
292 -> 293 ;
294 [label="meanprec <= 9.43\ngini = 0.444\nsamples = 3\nvalue = [1, 2]\nclass = sem raios"] ;
293 -> 294 ;
295 [label="gini = 0.0\nsamples = 1\nvalue = [1, 0]\nclass = com raios"] ;
294 -> 295 ;
296 [label="gini = 0.0\nsamples = 2\nvalue = [0, 2]\nclass = sem raios"] ;
294 -> 296 ;
297 [label="gini = 0.0\nsamples = 2\nvalue = [2, 0]\nclass = com raios"] ;
293 -> 297 ;
298 [label="gini = 0.0\nsamples = 2\nvalue = [0, 2]\nclass = sem raios"] ;
292 -> 298 ;
299 [label="gini = 0.0\nsamples = 8\nvalue = [8, 0]\nclass = com raios"] ;
291 -> 299 ;
300 [label="gini = 0.0\nsamples = 4\nvalue = [0, 4]\nclass = sem raios"] ;
290 -> 300 ;
301 [label="ttvil <= 82.89\ngini = 0.188\nsamples = 38\nvalue = [34, 4]\nclass = com raios"] ;
289 -> 301 ;
302 [label="gini = 0.0\nsamples = 26\nvalue = [26, 0]\nclass = com raios"] ;
301 -> 302 ;
303 [label="convfrac <= 59.4\ngini = 0.444\nsamples = 12\nvalue = [8, 4]\nclass = com raios"] ;
301 -> 303 ;
304 [label="gini = 0.0\nsamples = 6\nvalue = [6, 0]\nclass = com raios"] ;
303 -> 304 ;
305 [label="ttvil <= 87.08\ngini = 0.444\nsamples = 6\nvalue = [2, 4]\nclass = sem raios"] ;
303 -> 305 ;
306 [label="gini = 0.0\nsamples = 3\nvalue = [0, 3]\nclass = sem raios"] ;
305 -> 306 ;
307 [label="meanz <= 36.815\ngini = 0.444\nsamples = 3\nvalue = [2, 1]\nclass = com raios"] ;
305 -> 307 ;
308 [label="gini = 0.0\nsamples = 2\nvalue = [2, 0]\nclass = com raios"] ;
307 -> 308 ;
309 [label="gini = 0.0\nsamples = 1\nvalue = [0, 1]\nclass = sem raios"] ;
307 -> 309 ;
310 [label="ttvil <= 90.315\ngini = 0.488\nsamples = 19\nvalue = [8, 11]\nclass = sem raios"] ;
288 -> 310 ;
311 [label="riverfrac <= 70.14\ngini = 0.457\nsamples = 17\nvalue = [6, 11]\nclass = sem raios"] ;
310 -> 311 ;
312 [label="ttvil <= 45.57\ngini = 0.391\nsamples = 15\nvalue = [4, 11]\nclass = sem raios"] ;
311 -> 312 ;
313 [label="gini = 0.0\nsamples = 1\nvalue = [1, 0]\nclass = com raios"] ;
312 -> 313 ;
314 [label="convfrac <= 80.215\ngini = 0.337\nsamples = 14\nvalue = [3, 11]\nclass = sem raios"] ;
312 -> 314 ;
315 [label="gini = 0.0\nsamples = 5\nvalue = [0, 5]\nclass = sem raios"] ;
314 -> 315 ;
316 [label="strafrac <= 12.33\ngini = 0.444\nsamples = 9\nvalue = [3, 6]\nclass = sem raios"] ;
314 -> 316 ;
317 [label="maxprec <= 121.41\ngini = 0.375\nsamples = 8\nvalue = [2, 6]\nclass = sem raios"] ;
316 -> 317 ;
318 [label="meanprec <= 21.655\ngini = 0.245\nsamples = 7\nvalue = [1, 6]\nclass = sem raios"] ;
317 -> 318 ;
319 [label="gini = 0.0\nsamples = 4\nvalue = [0, 4]\nclass = sem raios"] ;
318 -> 319 ;
320 [label="meanz <= 39.22\ngini = 0.444\nsamples = 3\nvalue = [1, 2]\nclass = sem raios"] ;
318 -> 320 ;
321 [label="gini = 0.0\nsamples = 1\nvalue = [1, 0]\nclass = com raios"] ;
320 -> 321 ;
322 [label="gini = 0.0\nsamples = 2\nvalue = [0, 2]\nclass = sem raios"] ;
320 -> 322 ;
323 [label="gini = 0.0\nsamples = 1\nvalue = [1, 0]\nclass = com raios"] ;
317 -> 323 ;
324 [label="gini = 0.0\nsamples = 1\nvalue = [1, 0]\nclass = com raios"] ;
316 -> 324 ;
325 [label="gini = 0.0\nsamples = 2\nvalue = [2, 0]\nclass = com raios"] ;
311 -> 325 ;
326 [label="gini = 0.0\nsamples = 2\nvalue = [2, 0]\nclass = com raios"] ;
310 -> 326 ;
327 [label="convfrac <= 14.42\ngini = 0.452\nsamples = 29\nvalue = [10, 19]\nclass = sem raios"] ;
231 -> 327 ;
328 [label="meanvil <= 1.275\ngini = 0.32\nsamples = 5\nvalue = [4, 1]\nclass = com raios"] ;
327 -> 328 ;
329 [label="gini = 0.0\nsamples = 4\nvalue = [4, 0]\nclass = com raios"] ;
328 -> 329 ;
330 [label="gini = 0.0\nsamples = 1\nvalue = [0, 1]\nclass = sem raios"] ;
328 -> 330 ;
331 [label="meanvil <= 0.995\ngini = 0.375\nsamples = 24\nvalue = [6, 18]\nclass = sem raios"] ;
327 -> 331 ;
332 [label="convfrac <= 20.41\ngini = 0.153\nsamples = 12\nvalue = [1, 11]\nclass = sem raios"] ;
331 -> 332 ;
333 [label="gini = 0.0\nsamples = 9\nvalue = [0, 9]\nclass = sem raios"] ;
332 -> 333 ;
334 [label="riverfrac <= 0.53\ngini = 0.444\nsamples = 3\nvalue = [1, 2]\nclass = sem raios"] ;
332 -> 334 ;
335 [label="gini = 0.0\nsamples = 1\nvalue = [1, 0]\nclass = com raios"] ;
334 -> 335 ;
336 [label="gini = 0.0\nsamples = 2\nvalue = [0, 2]\nclass = sem raios"] ;
334 -> 336 ;
337 [label="meanz <= 32.285\ngini = 0.486\nsamples = 12\nvalue = [5, 7]\nclass = sem raios"] ;
331 -> 337 ;
338 [label="meanprec <= 5.075\ngini = 0.469\nsamples = 8\nvalue = [5, 3]\nclass = com raios"] ;
337 -> 338 ;
339 [label="gini = 0.0\nsamples = 2\nvalue = [0, 2]\nclass = sem raios"] ;
338 -> 339 ;
340 [label="strafrac <= 79.13\ngini = 0.278\nsamples = 6\nvalue = [5, 1]\nclass = com raios"] ;
338 -> 340 ;
341 [label="gini = 0.0\nsamples = 1\nvalue = [0, 1]\nclass = sem raios"] ;
340 -> 341 ;
342 [label="gini = 0.0\nsamples = 5\nvalue = [5, 0]\nclass = com raios"] ;
340 -> 342 ;
343 [label="gini = 0.0\nsamples = 4\nvalue = [0, 4]\nclass = sem raios"] ;
337 -> 343 ;
344 [label="ttvil <= 207.375\ngini = 0.261\nsamples = 731\nvalue = [113, 618]\nclass = sem raios"] ;
0 -> 344 [labeldistance=2.5, labelangle=-45, headlabel="False"] ;
345 [label="meanvil <= 0.485\ngini = 0.457\nsamples = 201\nvalue = [71, 130]\nclass = sem raios"] ;
344 -> 345 ;
346 [label="gini = 0.0\nsamples = 9\nvalue = [9, 0]\nclass = com raios"] ;
345 -> 346 ;
347 [label="maxz <= 50.11\ngini = 0.437\nsamples = 192\nvalue = [62, 130]\nclass = sem raios"] ;
345 -> 347 ;
348 [label="ttvil <= 199.345\ngini = 0.407\nsamples = 165\nvalue = [47, 118]\nclass = sem raios"] ;
347 -> 348 ;
349 [label="maxz <= 47.595\ngini = 0.389\nsamples = 151\nvalue = [40, 111]\nclass = sem raios"] ;
348 -> 349 ;
350 [label="riverfrac <= 59.67\ngini = 0.335\nsamples = 94\nvalue = [20, 74]\nclass = sem raios"] ;
349 -> 350 ;
351 [label="meanz <= 38.03\ngini = 0.306\nsamples = 90\nvalue = [17, 73]\nclass = sem raios"] ;
350 -> 351 ;
352 [label="maxprec <= 50.465\ngini = 0.295\nsamples = 89\nvalue = [16, 73]\nclass = sem raios"] ;
351 -> 352 ;
353 [label="maxprec <= 49.3\ngini = 0.405\nsamples = 39\nvalue = [11, 28]\nclass = sem raios"] ;
352 -> 353 ;
354 [label="meanz <= 33.535\ngini = 0.368\nsamples = 37\nvalue = [9, 28]\nclass = sem raios"] ;
353 -> 354 ;
355 [label="meanvil <= 0.925\ngini = 0.32\nsamples = 35\nvalue = [7, 28]\nclass = sem raios"] ;
354 -> 355 ;
356 [label="meanprec <= 2.685\ngini = 0.457\nsamples = 17\nvalue = [6, 11]\nclass = sem raios"] ;
355 -> 356 ;
357 [label="gini = 0.0\nsamples = 8\nvalue = [0, 8]\nclass = sem raios"] ;
356 -> 357 ;
358 [label="ttvil <= 155.78\ngini = 0.444\nsamples = 9\nvalue = [6, 3]\nclass = com raios"] ;
356 -> 358 ;
359 [label="ttvil <= 108.6\ngini = 0.245\nsamples = 7\nvalue = [6, 1]\nclass = com raios"] ;
358 -> 359 ;
360 [label="gini = 0.0\nsamples = 1\nvalue = [0, 1]\nclass = sem raios"] ;
359 -> 360 ;
361 [label="gini = 0.0\nsamples = 6\nvalue = [6, 0]\nclass = com raios"] ;
359 -> 361 ;
362 [label="gini = 0.0\nsamples = 2\nvalue = [0, 2]\nclass = sem raios"] ;
358 -> 362 ;
363 [label="riverfrac <= 24.3\ngini = 0.105\nsamples = 18\nvalue = [1, 17]\nclass = sem raios"] ;
355 -> 363 ;
364 [label="gini = 0.0\nsamples = 17\nvalue = [0, 17]\nclass = sem raios"] ;
363 -> 364 ;
365 [label="gini = 0.0\nsamples = 1\nvalue = [1, 0]\nclass = com raios"] ;
363 -> 365 ;
366 [label="gini = 0.0\nsamples = 2\nvalue = [2, 0]\nclass = com raios"] ;
354 -> 366 ;
367 [label="gini = 0.0\nsamples = 2\nvalue = [2, 0]\nclass = com raios"] ;
353 -> 367 ;
368 [label="ttvil <= 113.8\ngini = 0.18\nsamples = 50\nvalue = [5, 45]\nclass = sem raios"] ;
352 -> 368 ;
369 [label="maxprec <= 66.235\ngini = 0.444\nsamples = 6\nvalue = [2, 4]\nclass = sem raios"] ;
368 -> 369 ;
370 [label="gini = 0.0\nsamples = 4\nvalue = [0, 4]\nclass = sem raios"] ;
369 -> 370 ;
371 [label="gini = 0.0\nsamples = 2\nvalue = [2, 0]\nclass = com raios"] ;
369 -> 371 ;
372 [label="meanprec <= 13.635\ngini = 0.127\nsamples = 44\nvalue = [3, 41]\nclass = sem raios"] ;
368 -> 372 ;
373 [label="maxz <= 46.905\ngini = 0.054\nsamples = 36\nvalue = [1, 35]\nclass = sem raios"] ;
372 -> 373 ;
374 [label="gini = 0.0\nsamples = 30\nvalue = [0, 30]\nclass = sem raios"] ;
373 -> 374 ;
375 [label="riverfrac <= 0.86\ngini = 0.278\nsamples = 6\nvalue = [1, 5]\nclass = sem raios"] ;
373 -> 375 ;
376 [label="gini = 0.0\nsamples = 5\nvalue = [0, 5]\nclass = sem raios"] ;
375 -> 376 ;
377 [label="gini = 0.0\nsamples = 1\nvalue = [1, 0]\nclass = com raios"] ;
375 -> 377 ;
378 [label="meanprec <= 15.335\ngini = 0.375\nsamples = 8\nvalue = [2, 6]\nclass = sem raios"] ;
372 -> 378 ;
379 [label="meanz <= 35.91\ngini = 0.444\nsamples = 3\nvalue = [2, 1]\nclass = com raios"] ;
378 -> 379 ;
380 [label="gini = 0.0\nsamples = 1\nvalue = [0, 1]\nclass = sem raios"] ;
379 -> 380 ;
381 [label="gini = 0.0\nsamples = 2\nvalue = [2, 0]\nclass = com raios"] ;
379 -> 381 ;
382 [label="gini = 0.0\nsamples = 5\nvalue = [0, 5]\nclass = sem raios"] ;
378 -> 382 ;
383 [label="gini = 0.0\nsamples = 1\nvalue = [1, 0]\nclass = com raios"] ;
351 -> 383 ;
384 [label="convfrac <= 55.91\ngini = 0.375\nsamples = 4\nvalue = [3, 1]\nclass = com raios"] ;
350 -> 384 ;
385 [label="gini = 0.0\nsamples = 3\nvalue = [3, 0]\nclass = com raios"] ;
384 -> 385 ;
386 [label="gini = 0.0\nsamples = 1\nvalue = [0, 1]\nclass = sem raios"] ;
384 -> 386 ;
387 [label="meanz <= 34.12\ngini = 0.456\nsamples = 57\nvalue = [20, 37]\nclass = sem raios"] ;
349 -> 387 ;
388 [label="strafrac <= 78.405\ngini = 0.245\nsamples = 7\nvalue = [6, 1]\nclass = com raios"] ;
387 -> 388 ;
389 [label="gini = 0.0\nsamples = 5\nvalue = [5, 0]\nclass = com raios"] ;
388 -> 389 ;
390 [label="meanz <= 32.98\ngini = 0.5\nsamples = 2\nvalue = [1, 1]\nclass = com raios"] ;
388 -> 390 ;
391 [label="gini = 0.0\nsamples = 1\nvalue = [1, 0]\nclass = com raios"] ;
390 -> 391 ;
392 [label="gini = 0.0\nsamples = 1\nvalue = [0, 1]\nclass = sem raios"] ;
390 -> 392 ;
393 [label="maxprec <= 94.075\ngini = 0.403\nsamples = 50\nvalue = [14, 36]\nclass = sem raios"] ;
387 -> 393 ;
394 [label="convfrac <= 51.75\ngini = 0.5\nsamples = 12\nvalue = [6, 6]\nclass = com raios"] ;
393 -> 394 ;
395 [label="meanz <= 35.855\ngini = 0.444\nsamples = 9\nvalue = [6, 3]\nclass = com raios"] ;
394 -> 395 ;
396 [label="meanprec <= 12.255\ngini = 0.48\nsamples = 5\nvalue = [2, 3]\nclass = sem raios"] ;
395 -> 396 ;
397 [label="gini = 0.0\nsamples = 2\nvalue = [2, 0]\nclass = com raios"] ;
396 -> 397 ;
398 [label="gini = 0.0\nsamples = 3\nvalue = [0, 3]\nclass = sem raios"] ;
396 -> 398 ;
399 [label="gini = 0.0\nsamples = 4\nvalue = [4, 0]\nclass = com raios"] ;
395 -> 399 ;
400 [label="gini = 0.0\nsamples = 3\nvalue = [0, 3]\nclass = sem raios"] ;
394 -> 400 ;
401 [label="ttvil <= 107.89\ngini = 0.332\nsamples = 38\nvalue = [8, 30]\nclass = sem raios"] ;
393 -> 401 ;
402 [label="gini = 0.0\nsamples = 1\nvalue = [1, 0]\nclass = com raios"] ;
401 -> 402 ;
403 [label="riverfrac <= 1.2\ngini = 0.307\nsamples = 37\nvalue = [7, 30]\nclass = sem raios"] ;
401 -> 403 ;
404 [label="gini = 0.0\nsamples = 11\nvalue = [0, 11]\nclass = sem raios"] ;
403 -> 404 ;
405 [label="riverfrac <= 2.75\ngini = 0.393\nsamples = 26\nvalue = [7, 19]\nclass = sem raios"] ;
403 -> 405 ;
406 [label="gini = 0.0\nsamples = 2\nvalue = [2, 0]\nclass = com raios"] ;
405 -> 406 ;
407 [label="meanprec <= 13.605\ngini = 0.33\nsamples = 24\nvalue = [5, 19]\nclass = sem raios"] ;
405 -> 407 ;
408 [label="maxprec <= 107.84\ngini = 0.49\nsamples = 7\nvalue = [3, 4]\nclass = sem raios"] ;
407 -> 408 ;
409 [label="meanz <= 35.105\ngini = 0.48\nsamples = 5\nvalue = [3, 2]\nclass = com raios"] ;
408 -> 409 ;
410 [label="riverfrac <= 23.09\ngini = 0.444\nsamples = 3\nvalue = [1, 2]\nclass = sem raios"] ;
409 -> 410 ;
411 [label="gini = 0.0\nsamples = 1\nvalue = [0, 1]\nclass = sem raios"] ;
410 -> 411 ;
412 [label="ttvil <= 176.64\ngini = 0.5\nsamples = 2\nvalue = [1, 1]\nclass = com raios"] ;
410 -> 412 ;
413 [label="gini = 0.0\nsamples = 1\nvalue = [1, 0]\nclass = com raios"] ;
412 -> 413 ;
414 [label="gini = 0.0\nsamples = 1\nvalue = [0, 1]\nclass = sem raios"] ;
412 -> 414 ;
415 [label="gini = 0.0\nsamples = 2\nvalue = [2, 0]\nclass = com raios"] ;
409 -> 415 ;
416 [label="gini = 0.0\nsamples = 2\nvalue = [0, 2]\nclass = sem raios"] ;
408 -> 416 ;
417 [label="convfrac <= 84.56\ngini = 0.208\nsamples = 17\nvalue = [2, 15]\nclass = sem raios"] ;
407 -> 417 ;
418 [label="gini = 0.0\nsamples = 11\nvalue = [0, 11]\nclass = sem raios"] ;
417 -> 418 ;
419 [label="ttvil <= 152.365\ngini = 0.444\nsamples = 6\nvalue = [2, 4]\nclass = sem raios"] ;
417 -> 419 ;
420 [label="maxprec <= 107.975\ngini = 0.444\nsamples = 3\nvalue = [2, 1]\nclass = com raios"] ;
419 -> 420 ;
421 [label="gini = 0.0\nsamples = 1\nvalue = [0, 1]\nclass = sem raios"] ;
420 -> 421 ;
422 [label="gini = 0.0\nsamples = 2\nvalue = [2, 0]\nclass = com raios"] ;
420 -> 422 ;
423 [label="gini = 0.0\nsamples = 3\nvalue = [0, 3]\nclass = sem raios"] ;
419 -> 423 ;
424 [label="riverfrac <= 4.705\ngini = 0.5\nsamples = 14\nvalue = [7, 7]\nclass = com raios"] ;
348 -> 424 ;
425 [label="maxz <= 48.295\ngini = 0.219\nsamples = 8\nvalue = [7, 1]\nclass = com raios"] ;
424 -> 425 ;
426 [label="gini = 0.0\nsamples = 6\nvalue = [6, 0]\nclass = com raios"] ;
425 -> 426 ;
427 [label="meanz <= 32.695\ngini = 0.5\nsamples = 2\nvalue = [1, 1]\nclass = com raios"] ;
425 -> 427 ;
428 [label="gini = 0.0\nsamples = 1\nvalue = [1, 0]\nclass = com raios"] ;
427 -> 428 ;
429 [label="gini = 0.0\nsamples = 1\nvalue = [0, 1]\nclass = sem raios"] ;
427 -> 429 ;
430 [label="gini = 0.0\nsamples = 6\nvalue = [0, 6]\nclass = sem raios"] ;
424 -> 430 ;
431 [label="meanvil <= 2.48\ngini = 0.494\nsamples = 27\nvalue = [15, 12]\nclass = com raios"] ;
347 -> 431 ;
432 [label="strafrac <= 73.575\ngini = 0.337\nsamples = 14\nvalue = [11, 3]\nclass = com raios"] ;
431 -> 432 ;
433 [label="gini = 0.0\nsamples = 9\nvalue = [9, 0]\nclass = com raios"] ;
432 -> 433 ;
434 [label="strafrac <= 78.41\ngini = 0.48\nsamples = 5\nvalue = [2, 3]\nclass = sem raios"] ;
432 -> 434 ;
435 [label="gini = 0.0\nsamples = 3\nvalue = [0, 3]\nclass = sem raios"] ;
434 -> 435 ;
436 [label="gini = 0.0\nsamples = 2\nvalue = [2, 0]\nclass = com raios"] ;
434 -> 436 ;
437 [label="maxz <= 52.745\ngini = 0.426\nsamples = 13\nvalue = [4, 9]\nclass = sem raios"] ;
431 -> 437 ;
438 [label="ttvil <= 181.925\ngini = 0.298\nsamples = 11\nvalue = [2, 9]\nclass = sem raios"] ;
437 -> 438 ;
439 [label="gini = 0.0\nsamples = 8\nvalue = [0, 8]\nclass = sem raios"] ;
438 -> 439 ;
440 [label="meanprec <= 19.31\ngini = 0.444\nsamples = 3\nvalue = [2, 1]\nclass = com raios"] ;
438 -> 440 ;
441 [label="gini = 0.0\nsamples = 1\nvalue = [0, 1]\nclass = sem raios"] ;
440 -> 441 ;
442 [label="gini = 0.0\nsamples = 2\nvalue = [2, 0]\nclass = com raios"] ;
440 -> 442 ;
443 [label="gini = 0.0\nsamples = 2\nvalue = [2, 0]\nclass = com raios"] ;
437 -> 443 ;
444 [label="maxprec <= 409.925\ngini = 0.146\nsamples = 530\nvalue = [42, 488]\nclass = sem raios"] ;
344 -> 444 ;
445 [label="meanvil <= 0.74\ngini = 0.134\nsamples = 526\nvalue = [38, 488]\nclass = sem raios"] ;
444 -> 445 ;
446 [label="meanprec <= 2.465\ngini = 0.444\nsamples = 6\nvalue = [4, 2]\nclass = com raios"] ;
445 -> 446 ;
447 [label="gini = 0.0\nsamples = 2\nvalue = [0, 2]\nclass = sem raios"] ;
446 -> 447 ;
448 [label="gini = 0.0\nsamples = 4\nvalue = [4, 0]\nclass = com raios"] ;
446 -> 448 ;
449 [label="meanprec <= 45.01\ngini = 0.122\nsamples = 520\nvalue = [34, 486]\nclass = sem raios"] ;
445 -> 449 ;
450 [label="ttvil <= 327.415\ngini = 0.116\nsamples = 518\nvalue = [32, 486]\nclass = sem raios"] ;
449 -> 450 ;
451 [label="ttvil <= 324.19\ngini = 0.274\nsamples = 122\nvalue = [20, 102]\nclass = sem raios"] ;
450 -> 451 ;
452 [label="strafrac <= 81.89\ngini = 0.255\nsamples = 120\nvalue = [18, 102]\nclass = sem raios"] ;
451 -> 452 ;
453 [label="meanz <= 33.76\ngini = 0.245\nsamples = 119\nvalue = [17, 102]\nclass = sem raios"] ;
452 -> 453 ;
454 [label="gini = 0.0\nsamples = 25\nvalue = [0, 25]\nclass = sem raios"] ;
453 -> 454 ;
455 [label="meanz <= 33.98\ngini = 0.296\nsamples = 94\nvalue = [17, 77]\nclass = sem raios"] ;
453 -> 455 ;
456 [label="gini = 0.0\nsamples = 2\nvalue = [2, 0]\nclass = com raios"] ;
455 -> 456 ;
457 [label="meanvil <= 2.835\ngini = 0.273\nsamples = 92\nvalue = [15, 77]\nclass = sem raios"] ;
455 -> 457 ;
458 [label="convfrac <= 37.73\ngini = 0.348\nsamples = 58\nvalue = [13, 45]\nclass = sem raios"] ;
457 -> 458 ;
459 [label="meanvil <= 2.795\ngini = 0.219\nsamples = 40\nvalue = [5, 35]\nclass = sem raios"] ;
458 -> 459 ;
460 [label="ttvil <= 213.415\ngini = 0.184\nsamples = 39\nvalue = [4, 35]\nclass = sem raios"] ;
459 -> 460 ;
461 [label="meanz <= 36.07\ngini = 0.5\nsamples = 2\nvalue = [1, 1]\nclass = com raios"] ;
460 -> 461 ;
462 [label="gini = 0.0\nsamples = 1\nvalue = [0, 1]\nclass = sem raios"] ;
461 -> 462 ;
463 [label="gini = 0.0\nsamples = 1\nvalue = [1, 0]\nclass = com raios"] ;
461 -> 463 ;
464 [label="meanprec <= 19.44\ngini = 0.149\nsamples = 37\nvalue = [3, 34]\nclass = sem raios"] ;
460 -> 464 ;
465 [label="ttvil <= 260.1\ngini = 0.108\nsamples = 35\nvalue = [2, 33]\nclass = sem raios"] ;
464 -> 465 ;
466 [label="gini = 0.0\nsamples = 19\nvalue = [0, 19]\nclass = sem raios"] ;
465 -> 466 ;
467 [label="ttvil <= 263.6\ngini = 0.219\nsamples = 16\nvalue = [2, 14]\nclass = sem raios"] ;
465 -> 467 ;
468 [label="gini = 0.0\nsamples = 1\nvalue = [1, 0]\nclass = com raios"] ;
467 -> 468 ;
469 [label="maxprec <= 84.74\ngini = 0.124\nsamples = 15\nvalue = [1, 14]\nclass = sem raios"] ;
467 -> 469 ;
470 [label="meanz <= 34.73\ngini = 0.375\nsamples = 4\nvalue = [1, 3]\nclass = sem raios"] ;
469 -> 470 ;
471 [label="gini = 0.0\nsamples = 3\nvalue = [0, 3]\nclass = sem raios"] ;
470 -> 471 ;
472 [label="gini = 0.0\nsamples = 1\nvalue = [1, 0]\nclass = com raios"] ;
470 -> 472 ;
473 [label="gini = 0.0\nsamples = 11\nvalue = [0, 11]\nclass = sem raios"] ;
469 -> 473 ;
474 [label="convfrac <= 31.32\ngini = 0.5\nsamples = 2\nvalue = [1, 1]\nclass = com raios"] ;
464 -> 474 ;
475 [label="gini = 0.0\nsamples = 1\nvalue = [0, 1]\nclass = sem raios"] ;
474 -> 475 ;
476 [label="gini = 0.0\nsamples = 1\nvalue = [1, 0]\nclass = com raios"] ;
474 -> 476 ;
477 [label="gini = 0.0\nsamples = 1\nvalue = [1, 0]\nclass = com raios"] ;
459 -> 477 ;
478 [label="meanz <= 36.38\ngini = 0.494\nsamples = 18\nvalue = [8, 10]\nclass = sem raios"] ;
458 -> 478 ;
479 [label="maxprec <= 95.365\ngini = 0.245\nsamples = 7\nvalue = [6, 1]\nclass = com raios"] ;
478 -> 479 ;
480 [label="meanz <= 35.68\ngini = 0.5\nsamples = 2\nvalue = [1, 1]\nclass = com raios"] ;
479 -> 480 ;
481 [label="gini = 0.0\nsamples = 1\nvalue = [0, 1]\nclass = sem raios"] ;
480 -> 481 ;
482 [label="gini = 0.0\nsamples = 1\nvalue = [1, 0]\nclass = com raios"] ;
480 -> 482 ;
483 [label="gini = 0.0\nsamples = 5\nvalue = [5, 0]\nclass = com raios"] ;
479 -> 483 ;
484 [label="strafrac <= 4.49\ngini = 0.298\nsamples = 11\nvalue = [2, 9]\nclass = sem raios"] ;
478 -> 484 ;
485 [label="gini = 0.0\nsamples = 1\nvalue = [1, 0]\nclass = com raios"] ;
484 -> 485 ;
486 [label="convfrac <= 46.765\ngini = 0.18\nsamples = 10\nvalue = [1, 9]\nclass = sem raios"] ;
484 -> 486 ;
487 [label="maxz <= 50.075\ngini = 0.444\nsamples = 3\nvalue = [1, 2]\nclass = sem raios"] ;
486 -> 487 ;
488 [label="gini = 0.0\nsamples = 2\nvalue = [0, 2]\nclass = sem raios"] ;
487 -> 488 ;
489 [label="gini = 0.0\nsamples = 1\nvalue = [1, 0]\nclass = com raios"] ;
487 -> 489 ;
490 [label="gini = 0.0\nsamples = 7\nvalue = [0, 7]\nclass = sem raios"] ;
486 -> 490 ;
491 [label="strafrac <= 66.335\ngini = 0.111\nsamples = 34\nvalue = [2, 32]\nclass = sem raios"] ;
457 -> 491 ;
492 [label="gini = 0.0\nsamples = 28\nvalue = [0, 28]\nclass = sem raios"] ;
491 -> 492 ;
493 [label="meanvil <= 3.365\ngini = 0.444\nsamples = 6\nvalue = [2, 4]\nclass = sem raios"] ;
491 -> 493 ;
494 [label="gini = 0.0\nsamples = 4\nvalue = [0, 4]\nclass = sem raios"] ;
493 -> 494 ;
495 [label="gini = 0.0\nsamples = 2\nvalue = [2, 0]\nclass = com raios"] ;
493 -> 495 ;
496 [label="gini = 0.0\nsamples = 1\nvalue = [1, 0]\nclass = com raios"] ;
452 -> 496 ;
497 [label="gini = 0.0\nsamples = 2\nvalue = [2, 0]\nclass = com raios"] ;
451 -> 497 ;
498 [label="riverfrac <= 40.465\ngini = 0.059\nsamples = 396\nvalue = [12, 384]\nclass = sem raios"] ;
450 -> 498 ;
499 [label="maxprec <= 193.43\ngini = 0.046\nsamples = 383\nvalue = [9, 374]\nclass = sem raios"] ;
498 -> 499 ;
500 [label="gini = 0.0\nsamples = 260\nvalue = [0, 260]\nclass = sem raios"] ;
499 -> 500 ;
501 [label="meanvil <= 1.335\ngini = 0.136\nsamples = 123\nvalue = [9, 114]\nclass = sem raios"] ;
499 -> 501 ;
502 [label="meanprec <= 8.965\ngini = 0.5\nsamples = 4\nvalue = [2, 2]\nclass = com raios"] ;
501 -> 502 ;
503 [label="gini = 0.0\nsamples = 2\nvalue = [0, 2]\nclass = sem raios"] ;
502 -> 503 ;
504 [label="gini = 0.0\nsamples = 2\nvalue = [2, 0]\nclass = com raios"] ;
502 -> 504 ;
505 [label="strafrac <= 68.8\ngini = 0.111\nsamples = 119\nvalue = [7, 112]\nclass = sem raios"] ;
501 -> 505 ;
506 [label="maxprec <= 194.855\ngini = 0.026\nsamples = 75\nvalue = [1, 74]\nclass = sem raios"] ;
505 -> 506 ;
507 [label="meanprec <= 23.785\ngini = 0.375\nsamples = 4\nvalue = [1, 3]\nclass = sem raios"] ;
506 -> 507 ;
508 [label="gini = 0.0\nsamples = 3\nvalue = [0, 3]\nclass = sem raios"] ;
507 -> 508 ;
509 [label="gini = 0.0\nsamples = 1\nvalue = [1, 0]\nclass = com raios"] ;
507 -> 509 ;
510 [label="gini = 0.0\nsamples = 71\nvalue = [0, 71]\nclass = sem raios"] ;
506 -> 510 ;
511 [label="meanz <= 40.01\ngini = 0.236\nsamples = 44\nvalue = [6, 38]\nclass = sem raios"] ;
505 -> 511 ;
512 [label="strafrac <= 69.28\ngini = 0.172\nsamples = 42\nvalue = [4, 38]\nclass = sem raios"] ;
511 -> 512 ;
513 [label="strafrac <= 68.99\ngini = 0.5\nsamples = 2\nvalue = [1, 1]\nclass = com raios"] ;
512 -> 513 ;
514 [label="gini = 0.0\nsamples = 1\nvalue = [0, 1]\nclass = sem raios"] ;
513 -> 514 ;
515 [label="gini = 0.0\nsamples = 1\nvalue = [1, 0]\nclass = com raios"] ;
513 -> 515 ;
516 [label="convfrac <= 19.265\ngini = 0.139\nsamples = 40\nvalue = [3, 37]\nclass = sem raios"] ;
512 -> 516 ;
517 [label="convfrac <= 17.62\ngini = 0.5\nsamples = 2\nvalue = [1, 1]\nclass = com raios"] ;
516 -> 517 ;
518 [label="gini = 0.0\nsamples = 1\nvalue = [0, 1]\nclass = sem raios"] ;
517 -> 518 ;
519 [label="gini = 0.0\nsamples = 1\nvalue = [1, 0]\nclass = com raios"] ;
517 -> 519 ;
520 [label="maxprec <= 238.45\ngini = 0.1\nsamples = 38\nvalue = [2, 36]\nclass = sem raios"] ;
516 -> 520 ;
521 [label="maxz <= 54.035\ngini = 0.188\nsamples = 19\nvalue = [2, 17]\nclass = sem raios"] ;
520 -> 521 ;
522 [label="meanz <= 35.855\ngini = 0.105\nsamples = 18\nvalue = [1, 17]\nclass = sem raios"] ;
521 -> 522 ;
523 [label="meanprec <= 12.88\ngini = 0.375\nsamples = 4\nvalue = [1, 3]\nclass = sem raios"] ;
522 -> 523 ;
524 [label="gini = 0.0\nsamples = 3\nvalue = [0, 3]\nclass = sem raios"] ;
523 -> 524 ;
525 [label="gini = 0.0\nsamples = 1\nvalue = [1, 0]\nclass = com raios"] ;
523 -> 525 ;
526 [label="gini = 0.0\nsamples = 14\nvalue = [0, 14]\nclass = sem raios"] ;
522 -> 526 ;
527 [label="gini = 0.0\nsamples = 1\nvalue = [1, 0]\nclass = com raios"] ;
521 -> 527 ;
528 [label="gini = 0.0\nsamples = 19\nvalue = [0, 19]\nclass = sem raios"] ;
520 -> 528 ;
529 [label="gini = 0.0\nsamples = 2\nvalue = [2, 0]\nclass = com raios"] ;
511 -> 529 ;
530 [label="meanvil <= 2.615\ngini = 0.355\nsamples = 13\nvalue = [3, 10]\nclass = sem raios"] ;
498 -> 530 ;
531 [label="maxprec <= 177.565\ngini = 0.375\nsamples = 4\nvalue = [3, 1]\nclass = com raios"] ;
530 -> 531 ;
532 [label="gini = 0.0\nsamples = 3\nvalue = [3, 0]\nclass = com raios"] ;
531 -> 532 ;
533 [label="gini = 0.0\nsamples = 1\nvalue = [0, 1]\nclass = sem raios"] ;
531 -> 533 ;
534 [label="gini = 0.0\nsamples = 9\nvalue = [0, 9]\nclass = sem raios"] ;
530 -> 534 ;
535 [label="gini = 0.0\nsamples = 2\nvalue = [2, 0]\nclass = com raios"] ;
449 -> 535 ;
536 [label="gini = 0.0\nsamples = 4\nvalue = [4, 0]\nclass = com raios"] ;
444 -> 536 ;
}